{"learner":{"attributes":{"best_iteration":"169","best_ntree_limit":"170","scikit_learn":"{\"use_label_encoder\": false, \"n_estimators\": 170, \"objective\": \"multi:softprob\", \"max_depth\": 4, \"learning_rate\": 0.01, \"verbosity\": 0, \"booster\": null, \"tree_method\": null, \"gamma\": 0.2, \"min_child_weight\": null, \"max_delta_step\": null, \"subsample\": 0.55, \"colsample_bytree\": 0.6, \"colsample_bylevel\": null, \"colsample_bynode\": null, \"reg_alpha\": 0, \"reg_lambda\": null, \"scale_pos_weight\": null, \"base_score\": null, \"missing\": NaN, \"num_parallel_tree\": null, \"random_state\": null, \"n_jobs\": null, \"monotone_constraints\": null, \"interaction_constraints\": null, \"importance_type\": null, \"gpu_id\": null, \"validate_parameters\": null, \"predictor\": null, \"enable_categorical\": false, \"kwargs\": {\"num_class\": 5, \"in_child_weight\": 4, \"nthread\": 4, \"seed\": 75}, \"classes_\": [0, 1, 2, 3, 4], \"n_classes_\": 5, \"_estimator_type\": \"classifier\"}"},"feature_names":["Age","Number of Dependents","Latitude","Longitude","Number of Referrals","Tenure in Months","Avg Monthly Long Distance Charges","Avg Monthly GB Download","Monthly Charge","Total Charges","Total Refunds","Total Extra Data Charges","Total Long Distance Charges","Total Revenue","Satisfaction Score","Population","Gender_Female","Gender_Male","Married_No","Married_Yes","Offer_None","Offer_Offer A","Offer_Offer B","Offer_Offer C","Offer_Offer D","Offer_Offer E","Phone Service_No","Phone Service_Yes","Multiple Lines_No","Multiple Lines_Yes","Internet Service_No","Internet Service_Yes","Internet Type_Cable","Internet Type_DSL","Internet Type_Fiber Optic","Internet Type_None","Online Security_No","Online Security_Yes","Online Backup_No","Online Backup_Yes","Device Protection Plan_No","Device Protection Plan_Yes","Premium Tech Support_No","Premium Tech Support_Yes","Streaming TV_No","Streaming TV_Yes","Streaming Movies_No","Streaming Movies_Yes","Streaming Music_No","Streaming Music_Yes","Unlimited Data_No","Unlimited Data_Yes","Contract_Month-to-Month","Contract_One Year","Contract_Two Year","Paperless Billing_No","Paperless Billing_Yes","Payment Method_Bank Withdrawal","Payment Method_Credit Card","Payment Method_Mailed Check"],"feature_types":["float","float","float","float","float","float","float","float","float","float","float","float","float","float","float","float","int","int","int","int","int","int","int","int","int","int","int","int","int","int","int","int","int","int","int","int","int","int","int","int","int","int","int","int","int","int","int","int","int","int","int","int","int","int","int","int","int","int","int","int"],"gradient_booster":{"model":{"gbtree_model_param":{"num_trees":"850","size_leaf_vector":"0"},"tree_info":[0,1,2,3,4,0,1,2,3,4,0,1,2,3,4,0,1,2,3,4,0,1,2,3,4,0,1,2,3,4,0,1,2,3,4,0,1,2,3,4,0,1,2,3,4,0,1,2,3,4,0,1,2,3,4,0,1,2,3,4,0,1,2,3,4,0,1,2,3,4,0,1,2,3,4,0,1,2,3,4,0,1,2,3,4,0,1,2,3,4,0,1,2,3,4,0,1,2,3,4,0,1,2,3,4,0,1,2,3,4,0,1,2,3,4,0,1,2,3,4,0,1,2,3,4,0,1,2,3,4,0,1,2,3,4,0,1,2,3,4,0,1,2,3,4,0,1,2,3,4,0,1,2,3,4,0,1,2,3,4,0,1,2,3,4,0,1,2,3,4,0,1,2,3,4,0,1,2,3,4,0,1,2,3,4,0,1,2,3,4,0,1,2,3,4,0,1,2,3,4,0,1,2,3,4,0,1,2,3,4,0,1,2,3,4,0,1,2,3,4,0,1,2,3,4,0,1,2,3,4,0,1,2,3,4,0,1,2,3,4,0,1,2,3,4,0,1,2,3,4,0,1,2,3,4,0,1,2,3,4,0,1,2,3,4,0,1,2,3,4,0,1,2,3,4,0,1,2,3,4,0,1,2,3,4,0,1,2,3,4,0,1,2,3,4,0,1,2,3,4,0,1,2,3,4,0,1,2,3,4,0,1,2,3,4,0,1,2,3,4,0,1,2,3,4,0,1,2,3,4,0,1,2,3,4,0,1,2,3,4,0,1,2,3,4,0,1,2,3,4,0,1,2,3,4,0,1,2,3,4,0,1,2,3,4,0,1,2,3,4,0,1,2,3,4,0,1,2,3,4,0,1,2,3,4,0,1,2,3,4,0,1,2,3,4,0,1,2,3,4,0,1,2,3,4,0,1,2,3,4,0,1,2,3,4,0,1,2,3,4,0,1,2,3,4,0,1,2,3,4,0,1,2,3,4,0,1,2,3,4,0,1,2,3,4,0,1,2,3,4,0,1,2,3,4,0,1,2,3,4,0,1,2,3,4,0,1,2,3,4,0,1,2,3,4,0,1,2,3,4,0,1,2,3,4,0,1,2,3,4,0,1,2,3,4,0,1,2,3,4,0,1,2,3,4,0,1,2,3,4,0,1,2,3,4,0,1,2,3,4,0,1,2,3,4,0,1,2,3,4,0,1,2,3,4,0,1,2,3,4,0,1,2,3,4,0,1,2,3,4,0,1,2,3,4,0,1,2,3,4,0,1,2,3,4,0,1,2,3,4,0,1,2,3,4,0,1,2,3,4,0,1,2,3,4,0,1,2,3,4,0,1,2,3,4,0,1,2,3,4,0,1,2,3,4,0,1,2,3,4,0,1,2,3,4,0,1,2,3,4,0,1,2,3,4,0,1,2,3,4,0,1,2,3,4,0,1,2,3,4,0,1,2,3,4,0,1,2,3,4,0,1,2,3,4,0,1,2,3,4,0,1,2,3,4,0,1,2,3,4,0,1,2,3,4,0,1,2,3,4,0,1,2,3,4,0,1,2,3,4,0,1,2,3,4,0,1,2,3,4,0,1,2,3,4,0,1,2,3,4,0,1,2,3,4,0,1,2,3,4,0,1,2,3,4,0,1,2,3,4,0,1,2,3,4,0,1,2,3,4,0,1,2,3,4,0,1,2,3,4,0,1,2,3,4,0,1,2,3,4,0,1,2,3,4,0,1,2,3,4,0,1,2,3,4,0,1,2,3,4,0,1,2,3,4,0,1,2,3,4,0,1,2,3,4,0,1,2,3,4,0,1,2,3,4,0,1,2,3,4,0,1,2,3,4,0,1,2,3,4,0,1,2,3,4,0,1,2,3,4,0,1,2,3,4,0,1,2,3,4,0,1,2,3,4,0,1,2,3,4],"trees":[{"base_weights":[3.2573286E-2,1.0098176E0,-3.6790293E-2,1.6710875E0,2.4930747E-1,2.680013E-1,-1.717967E-1,2.0242214E0,3.9823008E-1,1.3013698E0,-1.597444E-2,-2.1024966E-1,4.1931382E-1,-2.0326431E-1,3.689567E-1,1.4035088E0,-4.3209875E-1,-3.8461536E-1,3.5502958E-1,-3.546099E-1,1.111111E0,5.5090994E-1,-3.6827195E-1,1.6949151E-1,-2.4278323E-1,1.1904762E0,6.389776E-2],"categories":[],"categories_nodes":[],"categories_segments":[],"categories_sizes":[],"default_left":[true,true,true,true,true,true,true,false,true,false,true,true,true,true,true,false,false,false,false,false,false,false,false,false,false,false,false],"id":0,"left_children":[1,3,5,7,9,11,13,-1,15,-1,17,19,21,23,25,-1,-1,-1,-1,-1,-1,-1,-1,-1,-1,-1,-1],"loss_changes":[2.9171219E1,1.3926163E1,1.6599386E1,5.972191E0,4.0508933E0,9.052784E0,4.8293276E0,0E0,4.3793526E0,0E0,1.848876E0,6.2005014E0,9.990953E0,3.9401274E0,3.86355E0,0E0,0E0,0E0,0E0,0E0,0E0,0E0,0E0,0E0,0E0,0E0,0E0],"parents":[2147483647,0,0,1,1,2,2,3,3,4,4,5,5,6,6,8,8,10,10,11,11,12,12,13,13,14,14],"right_children":[2,4,6,8,10,12,14,-1,16,-1,18,20,22,24,26,-1,-1,-1,-1,-1,-1,-1,-1,-1,-1,-1,-1],"split_conditions":[3.301853E1,-1.1718422E2,-1.6129665E0,5E-1,5E-1,5E-1,-1.1719226E2,2.0242214E-2,-1.4202216E-1,1.3013697E-2,3.2844727E1,1.4450777E0,5E-1,-1.22399055E2,3.351743E1,1.4035087E-2,-4.3209875E-3,-3.8461536E-3,3.5502957E-3,-3.546099E-3,1.111111E-2,5.5090995E-3,-3.6827193E-3,1.6949151E-3,-2.4278322E-3,1.1904761E-2,6.3897757E-4],"split_indices":[2,3,14,25,18,36,3,0,8,0,2,8,50,3,2,0,0,0,0,0,0,0,0,0,0,0,0],"split_type":[0,0,0,0,0,0,0,0,0,0,0,0,0,0,0,0,0,0,0,0,0,0,0,0,0,0,0],"sum_hessian":[4.2880002E2,2.7520002E1,4.0128003E2,1.4080001E1,1.3440001E1,1.22880005E2,2.7840002E2,1.056E1,3.5200002E0,1.9200001E0,1.152E1,2.9440002E1,9.344001E1,2.6368002E2,1.4720001E1,1.2800001E0,2.2400002E0,5.76E0,5.76E0,2.7200003E1,2.2400002E0,8.032001E1,1.3120001E1,2.4960001E1,2.3872002E2,3.2000003E0,1.152E1],"tree_param":{"num_deleted":"0","num_feature":"60","num_nodes":"27","size_leaf_vector":"0"}},{"base_weights":[9.0834766E-4,5.782275E-2,-2.498775E-1,1.1904762E0,4.4317286E-2,1.235955E0,-3.1360647E-1,3.8461536E-1,1.5384614E0,-1.6693277E-2,2.4890189E-1,2.971768E-2,-4.8156506E-1,4.9061798E-2,-3.6199093E-1,8.153078E-1,1.3577731E-2,-2.700186E-1,1.0248446E0,-5.3529865E-1,7.692307E-1],"categories":[],"categories_nodes":[],"categories_segments":[],"categories_sizes":[],"default_left":[true,true,true,true,true,false,true,false,false,true,true,true,true,false,false,false,false,false,false,false,false],"id":1,"left_children":[1,3,5,7,9,-1,11,-1,-1,13,15,17,19,-1,-1,-1,-1,-1,-1,-1,-1],"loss_changes":[6.2998505E0,5.4498806E0,8.118141E0,5.86081E-1,4.4541745E0,0E0,4.5744E0,0E0,0E0,6.27437E0,1.0913297E1,8.306309E0,3.9846382E0,0E0,0E0,0E0,0E0,0E0,0E0,0E0,0E0],"parents":[2147483647,0,0,1,1,2,2,3,3,4,4,6,6,9,9,10,10,11,11,12,12],"right_children":[2,4,6,8,10,-1,12,-1,-1,14,16,18,20,-1,-1,-1,-1,-1,-1,-1,-1],"split_conditions":[5E-1,-1.10901E0,-1.5768892E0,9.558066E-2,5E-1,1.2359549E-2,-1.1139653E0,3.8461536E-3,1.53846145E-2,9.166415E-1,-5.5616736E-1,-1.1189024E0,1.3053555E0,4.9061794E-4,-3.6199093E-3,8.153078E-3,1.3577731E-4,-2.700186E-3,1.0248446E-2,-5.3529865E-3,7.6923072E-3],"split_indices":[25,15,0,8,41,0,13,0,0,8,9,13,8,0,0,0,0,0,0,0,0],"split_type":[0,0,0,0,0,0,0,0,0,0,0,0,0,0,0,0,0,0,0,0,0],"sum_hessian":[4.3936002E2,3.5872003E2,8.064001E1,3.2000003E0,3.5552002E2,2.5600002E0,7.808E1,1.6000001E0,1.6000001E0,2.7456003E2,8.096001E1,2.5920002E1,5.2160004E1,2.3136002E2,4.3200005E1,2.304E1,5.7920006E1,2.0480001E1,5.4400005E0,5.0560005E1,1.6000001E0],"tree_param":{"num_deleted":"0","num_feature":"60","num_nodes":"21","size_leaf_vector":"0"}},{"base_weights":[2.627381E-2,1.3688284E-2,1.5168539E0,-3.265306E-1,5.802193E-2,-4.118689E-1,5.371901E-1,4.64135E-1,-6.07312E-4,-2.3500809E-1,-5.9590316E-1,-3.8461536E-1,1.111111E0,1.5555555E0,2.0304568E-1,-1.7325865E-1,9.072393E-2],"categories":[],"categories_nodes":[],"categories_segments":[],"categories_sizes":[],"default_left":[true,true,false,true,true,true,true,true,true,false,false,false,false,false,false,false,false],"id":2,"left_children":[1,3,-1,5,7,9,11,13,15,-1,-1,-1,-1,-1,-1,-1,-1],"loss_changes":[7.976137E0,6.4099755E0,0E0,3.8329654E0,8.946213E0,1.3298459E0,2.9879212E0,1.3191172E1,5.208589E0,0E0,0E0,0E0,0E0,0E0,0E0,0E0,0E0],"parents":[2147483647,0,0,1,1,3,3,4,4,5,5,6,6,7,7,8,8],"right_children":[2,4,-1,6,8,10,12,14,16,-1,-1,-1,-1,-1,-1,-1,-1],"split_conditions":[1.855209E0,-1.0695436E0,1.5168539E-2,7.478595E-1,-7.15241E-1,3.5775304E-1,1.4189771E-1,-8.9110136E-1,-8.61418E-1,-2.3500808E-3,-5.9590316E-3,-3.8461536E-3,1.111111E-2,1.5555554E-2,2.0304567E-3,-1.7325864E-3,9.072393E-4],"split_indices":[6,15,0,9,8,8,7,15,9,0,0,0,0,0,0,0,0],"split_type":[0,0,0,0,0,0,0,0,0,0,0,0,0,0,0,0,0],"sum_hessian":[4.2528003E2,4.2272003E2,2.5600002E0,4.8000004E1,3.7472003E2,4.4160004E1,3.8400002E0,4.64E1,3.2832004E2,2.3680002E1,2.0480001E1,1.6000001E0,2.2400002E0,8.000001E0,3.84E1,1.1328001E2,2.1504001E2],"tree_param":{"num_deleted":"0","num_feature":"60","num_nodes":"17","size_leaf_vector":"0"}},{"base_weights":[-4.3405082E-2,1.0979463E0,-1.1094466E-1,-2.892562E-1,1.359404E0,-1.715607E-1,2.909865E-1,8.77193E-2,-4.4943818E-1,1.5904365E0,-4.3209875E-1,-2.0166343E-1,3.211009E-1,7.355126E-1,-1.1169513E-1,-4.109589E-1,1.8360276E0,-1.4124696E-1,-4.3502507E-1,9.4339615E-1,-2.4590163E-1,1.0800744E0,-5.279503E-1,6.7567563E-1,-3.4941763E-1],"categories":[],"categories_nodes":[],"categories_segments":[],"categories_sizes":[],"default_left":[true,true,true,true,true,true,true,false,false,true,false,true,true,true,true,false,false,false,false,false,false,false,false,false,false],"id":3,"left_children":[1,3,5,7,9,11,13,-1,-1,15,-1,17,19,21,23,-1,-1,-1,-1,-1,-1,-1,-1,-1,-1],"loss_changes":[3.4930943E1,9.576651E0,1.0458975E1,3.3168632E-1,9.577698E0,5.5799046E0,1.0170734E1,0E0,0E0,1.0211468E1,0E0,4.8883915E0,7.9239607E0,1.2289609E1,5.9337225E0,0E0,0E0,0E0,0E0,0E0,0E0,0E0,0E0,0E0,0E0],"parents":[2147483647,0,0,1,1,2,2,3,3,4,4,5,5,6,6,9,9,11,11,12,12,13,13,14,14],"right_children":[2,4,6,8,10,12,14,-1,-1,16,-1,18,20,22,24,-1,-1,-1,-1,-1,-1,-1,-1,-1,-1],"split_conditions":[-1.4263906E0,3.3934742E1,5E-1,-2.3275927E-1,1.6264904E0,1.6150372E0,5E-1,8.7719294E-4,-4.4943816E-3,-1.6055217E0,-4.3209875E-3,3.633831E-1,3.426876E1,5E-1,-5.2255857E-1,-4.109589E-3,1.8360276E-2,-1.4124695E-3,-4.3502506E-3,9.4339615E-3,-2.4590162E-3,1.0800744E-2,-5.279503E-3,6.756756E-3,-3.494176E-3],"split_indices":[8,2,37,6,6,6,44,0,0,8,0,7,2,55,7,0,0,0,0,0,0,0,0,0,0],"split_type":[0,0,0,0,0,0,0,0,0,0,0,0,0,0,0,0,0,0,0,0,0,0,0,0,0],"sum_hessian":[4.5056003E2,2.4320002E1,4.2624002E2,3.8400002E0,2.0480001E1,3.7088004E2,5.5360004E1,1.2800001E0,2.5600002E0,1.8240002E1,2.2400002E0,3.5008002E2,2.0800001E1,2.5920002E1,2.9440002E1,1.9200001E0,1.6320002E1,2.7936002E2,7.072E1,9.6E0,1.1200001E1,2.0480001E1,5.4400005E0,6.4000006E0,2.304E1],"tree_param":{"num_deleted":"0","num_feature":"60","num_nodes":"25","size_leaf_vector":"0"}},{"base_weights":[-7.412211E-3,6.436351E-2,-3.8461536E-1,1.8759524E-2,7.264957E-1,-4.4615382E-1,4.6511626E-1,5.647263E-2,-5.9356135E-1,-4.9586776E-1,9.9182E-1,1.3513513E-1,-5.1194537E-1,1.5384614E0,-4.4943818E-1,3.5179943E-1,-7.398823E-2,1.5264797E0,-2.5906734E-2,-4.9586776E-1,9.5505613E-1,-5.268667E-1,8.77193E-2],"categories":[],"categories_nodes":[],"categories_segments":[],"categories_sizes":[],"default_left":[true,true,true,true,true,true,true,true,false,false,true,true,true,false,false,false,false,false,false,false,false,false,false],"id":4,"left_children":[1,3,5,7,9,11,13,15,-1,-1,17,19,21,-1,-1,-1,-1,-1,-1,-1,-1,-1,-1],"loss_changes":[1.1713157E1,1.0964381E1,3.8239708E0,7.911765E0,8.080964E0,2.5550346E0,5.756668E0,1.2443023E1,0E0,0E0,1.0682877E1,4.3021383E0,5.7055664E-1,0E0,0E0,0E0,0E0,0E0,0E0,0E0,0E0,0E0,0E0],"parents":[2147483647,0,0,1,1,2,2,3,3,4,4,5,5,6,6,7,7,10,10,11,11,12,12],"right_children":[2,4,6,8,10,12,14,16,-1,-1,18,20,22,-1,-1,-1,-1,-1,-1,-1,-1,-1,-1],"split_conditions":[1.0402906E0,8.7577975E-1,1.8486147E0,5E-1,5E-1,5E-1,1.855209E0,-9.4217247E-1,-5.9356135E-3,-4.9586776E-3,-1.1809706E2,5E-1,5.0360794E0,1.53846145E-2,-4.4943816E-3,3.5179942E-3,-7.398823E-4,1.5264797E-2,-2.5906734E-4,-4.9586776E-3,9.550561E-3,-5.2686664E-3,8.7719294E-4],"split_indices":[6,6,6,35,38,42,6,9,0,0,3,29,11,0,0,0,0,0,0,0,0,0,0],"split_type":[0,0,0,0,0,0,0,0,0,0,0,0,0,0,0,0,0,0,0,0,0,0,0],"sum_hessian":[4.3072003E2,3.6256003E2,6.816E1,3.4016003E2,2.2400002E1,6.400001E1,4.1600003E0,3.2128003E2,1.8880001E1,3.8400002E0,1.8560001E1,6.4000006E0,5.7600002E1,1.6000001E0,2.5600002E0,9.7920006E1,2.2336002E2,1.1840001E1,6.7200003E0,3.8400002E0,2.5600002E0,5.6320004E1,1.2800001E0],"tree_param":{"num_deleted":"0","num_feature":"60","num_nodes":"23","size_leaf_vector":"0"}},{"base_weights":[-4.1165695E-2,1.0696201E0,-1.085581E-1,-4.104498E-1,1.2094579E0,-4.1445377E-1,-6.118149E-2,2.1661152E-1,1.4360548E0,-4.5603937E-1,7.883838E-2,-7.427231E-2,8.5085106E-1,-4.3170682E-1,7.9468364E-1,1.5307735E0,8.525464E-2,-5.2773875E-1,-2.4311769E-1,-4.6304724E-1,9.635909E-1,-6.8402286E-3,-2.731665E-1,1.4028785E0,3.0778918E-1],"categories":[],"categories_nodes":[],"categories_segments":[],"categories_sizes":[],"default_left":[true,true,true,false,true,true,true,true,true,true,true,true,true,false,false,false,false,false,false,false,false,false,false,false,false],"id":5,"left_children":[1,3,5,-1,7,9,11,13,15,17,19,21,23,-1,-1,-1,-1,-1,-1,-1,-1,-1,-1,-1,-1],"loss_changes":[3.2891148E1,5.698824E0,5.969967E0,0E0,4.912773E0,1.1704903E0,4.3539767E0,2.401441E0,2.2655716E0,6.526232E-1,2.916486E0,4.7622705E0,1.1168084E0,0E0,0E0,0E0,0E0,0E0,0E0,0E0,0E0,0E0,0E0,0E0,0E0],"parents":[2147483647,0,0,1,1,2,2,4,4,5,5,6,6,7,7,8,8,9,9,10,10,11,11,12,12],"right_children":[2,4,6,-1,8,10,12,14,16,18,20,22,24,-1,-1,-1,-1,-1,-1,-1,-1,-1,-1,-1,-1],"split_conditions":[3.2998924E1,-9.826019E-1,-6.982236E-1,-4.104498E-3,-5.93432E-1,3.9356857E1,4.1162964E1,3.28153E1,5E-1,-9.878323E-1,-1.4962518E0,5.0471447E-2,5E-1,-4.317068E-3,7.946836E-3,1.5307735E-2,8.5254636E-4,-5.2773873E-3,-2.4311768E-3,-4.630472E-3,9.6359085E-3,-6.840228E-5,-2.731665E-3,1.4028785E-2,3.0778917E-3],"split_indices":[2,15,8,0,8,2,2,2,23,9,8,9,40,0,0,0,0,0,0,0,0,0,0,0,0],"split_type":[0,0,0,0,0,0,0,0,0,0,0,0,0,0,0,0,0,0,0,0,0,0,0,0,0],"sum_hessian":[4.3682626E2,2.4136032E1,4.1269022E2,1.9164789E0,2.2219553E1,5.4305954E1,3.5838428E2,4.492288E0,1.7727266E1,5.0153435E1,4.152522E0,3.5421857E2,4.1656995E0,2.2368338E0,2.2554543E0,1.644117E1,1.2860957E0,3.6413105E1,1.3740328E1,2.870847E0,1.2816752E0,2.6530524E2,8.891335E1,1.280641E0,2.8850586E0],"tree_param":{"num_deleted":"0","num_feature":"60","num_nodes":"25","size_leaf_vector":"0"}},{"base_weights":[4.815123E-3,-8.8673286E-2,4.1107872E-1,-1.1423541E-1,8.3736974E-1,-3.3253565E-1,4.996572E-1,4.051231E-2,-3.4911075E-1,1.6007695E0,-4.758582E-1,3.8524264E-1,-5.400259E-1,6.5035576E-1,7.1642205E-2,2.0913111E-2,1.5364298E0,7.1520686E-1,-3.808902E-1,5.267982E-1,1.7756948E0,2.9720536E-2,8.381426E-1,-1.3579755E-1,1.2976924E0],"categories":[],"categories_nodes":[],"categories_segments":[],"categories_sizes":[],"default_left":[true,true,true,true,true,true,true,true,true,true,false,false,false,true,true,false,false,false,false,false,false,false,false,false,false],"id":6,"left_children":[1,3,5,7,9,11,13,15,17,19,-1,-1,-1,21,23,-1,-1,-1,-1,-1,-1,-1,-1,-1,-1],"loss_changes":[1.5994945E1,8.200644E0,5.3551674E0,1.2156576E1,1.0102629E1,1.5462847E0,4.5196476E0,5.8986335E0,4.763809E0,2.1455383E-1,0E0,0E0,0E0,6.0628796E0,5.150567E0,0E0,0E0,0E0,0E0,0E0,0E0,0E0,0E0,0E0,0E0],"parents":[2147483647,0,0,1,1,2,2,3,3,4,4,5,5,6,6,7,7,8,8,9,9,13,13,14,14],"right_children":[2,4,6,8,10,12,14,16,18,20,-1,-1,-1,22,24,-1,-1,-1,-1,-1,-1,-1,-1,-1,-1],"split_conditions":[3.831749E1,1.8964955E0,-1.2239728E0,1.0910387E-1,1.843244E0,-1.1062899E0,5.2419865E-1,9.209749E-2,-9.177394E-1,5E-1,-4.758582E-3,3.8524263E-3,-5.4002586E-3,-1.0946288E0,5E-1,2.091311E-4,1.5364298E-2,7.1520684E-3,-3.8089019E-3,5.267982E-3,1.7756948E-2,2.9720535E-4,8.381425E-3,-1.3579754E-3,1.2976924E-2],"split_indices":[2,12,8,6,9,15,6,6,12,48,0,0,0,15,32,0,0,0,0,0,0,0,0,0,0],"split_type":[0,0,0,0,0,0,0,0,0,0,0,0,0,0,0,0,0,0,0,0,0,0,0,0,0],"sum_hessian":[4.1917114E2,3.4139246E2,7.777868E1,3.33075E2,8.317429E0,7.9856014E0,6.9793076E1,2.012855E2,1.3178952E2,5.121351E0,3.1960783E0,1.5986516E0,6.38695E0,5.1234577E1,1.85585E1,1.9968327E2,1.6022286E0,3.1974988E0,1.2859203E2,1.2791913E0,3.8421595E0,1.2170235E1,3.9064342E1,1.6633467E1,1.9250348E0],"tree_param":{"num_deleted":"0","num_feature":"60","num_nodes":"25","size_leaf_vector":"0"}},{"base_weights":[-8.39975E-3,-3.54617E-1,1.8855887E-2,-4.5618683E-1,2.2024314E-1,6.16076E-3,7.332282E-1,-1.8724005E-1,-5.895327E-1,8.0398595E-1,-4.3165556E-1,-5.3448033E-2,1.6802755E-1,1.1300106E0,-3.8491574E-1,-5.399924E-1,4.7924343E-1,3.0115104E-1,-1.2080774E-1,-3.4175164E-1,3.3326754E-1,3.92878E-1,1.6415151E0],"categories":[],"categories_nodes":[],"categories_segments":[],"categories_sizes":[],"default_left":[true,true,true,true,true,true,true,true,false,false,false,true,true,true,false,false,false,false,false,false,false,false,false],"id":7,"left_children":[1,3,5,7,9,11,13,15,-1,-1,-1,17,19,21,-1,-1,-1,-1,-1,-1,-1,-1,-1],"loss_changes":[4.132705E0,1.9665809E0,3.680111E0,8.7537384E-1,2.4299054E0,3.8703887E0,3.5785444E0,2.745325E0,0E0,0E0,0E0,7.0408044E0,9.2074E0,1.4227481E0,0E0,0E0,0E0,0E0,0E0,0E0,0E0,0E0,0E0],"parents":[2147483647,0,0,1,1,2,2,3,3,4,4,5,5,6,6,7,7,11,11,12,12,13,13],"right_children":[2,4,6,8,10,12,14,16,-1,-1,-1,18,20,22,-1,-1,-1,-1,-1,-1,-1,-1,-1],"split_conditions":[-1.0967445E0,-8.3405696E-2,4.610071E0,-5.7793E-1,-1.1066928E0,2.5264043E-1,5E-1,-9.9309707E-1,-5.8953264E-3,8.039859E-3,-4.3165553E-3,-9.275595E-1,-9.238556E-1,5E-1,-3.8491574E-3,-5.399924E-3,4.792434E-3,3.0115102E-3,-1.2080773E-3,-3.4175164E-3,3.3326754E-3,3.92878E-3,1.641515E-2],"split_indices":[15,10,11,7,15,7,55,9,0,0,0,12,12,28,0,0,0,0,0,0,0,0,0],"split_type":[0,0,0,0,0,0,0,0,0,0,0,0,0,0,0,0,0,0,0,0,0,0,0],"sum_hessian":[4.3624634E2,3.096024E1,4.052861E2,2.6486824E1,4.4734163E0,3.992005E2,6.085578E0,9.576345E0,1.6910479E1,2.2369976E0,2.2364187E0,2.9224768E2,1.06952835E2,4.483839E0,1.6017389E0,6.3861246E0,3.1902208E0,4.6099117E1,2.4614856E2,2.5919817E1,8.103302E1,2.5611017E0,1.9227371E0],"tree_param":{"num_deleted":"0","num_feature":"60","num_nodes":"23","size_leaf_vector":"0"}},{"base_weights":[-3.0956196E-2,9.2992055E-1,-1.1649667E-1,1.1846101E0,-5.229583E-1,3.0634162E-1,-1.794024E-1,-5.228798E-2,1.5478761E0,-2.8799096E-1,5.621327E-1,-2.0557109E-1,1.0828962E0,7.92174E-1,-5.1754683E-1,-3.508341E-1,1.6691849E0,7.65038E-1,-4.509281E-1,8.165686E-2,1.0127167E0,-1.316836E-1,-5.360744E-1,1.6813611E0,-4.1074207E-1],"categories":[],"categories_nodes":[],"categories_segments":[],"categories_sizes":[],"default_left":[true,true,true,true,false,true,true,true,true,true,true,true,true,false,false,false,false,false,false,false,false,false,false,false,false],"id":8,"left_children":[1,3,5,7,-1,9,11,13,15,17,19,21,23,-1,-1,-1,-1,-1,-1,-1,-1,-1,-1,-1,-1],"loss_changes":[3.6586266E1,1.4085203E1,1.0918316E1,1.4130821E1,0E0,8.258802E0,1.1987301E1,3.5790455E0,6.160305E0,3.2080226E0,8.051834E0,8.47056E0,7.299123E0,0E0,0E0,0E0,0E0,0E0,0E0,0E0,0E0,0E0,0E0,0E0,0E0],"parents":[2147483647,0,0,1,1,2,2,3,3,5,5,6,6,7,7,8,8,9,9,10,10,11,11,12,12],"right_children":[2,4,6,8,-1,10,12,14,16,18,20,22,24,-1,-1,-1,-1,-1,-1,-1,-1,-1,-1,-1,-1],"split_conditions":[-9.6552944E-1,4.479084E-1,5E-1,-1.0712726E0,-5.2295825E-3,-2.2115573E-1,2.7407596E0,-1.2108548E2,5E-1,-8.5478675E-1,2.7049106E-1,4.7412583E-1,-8.3405696E-2,7.9217395E-3,-5.175468E-3,-3.508341E-3,1.6691849E-2,7.65038E-3,-4.509281E-3,8.1656856E-4,1.0127166E-2,-1.316836E-3,-5.360744E-3,1.681361E-2,-4.107421E-3],"split_indices":[7,15,36,9,0,15,15,3,48,7,6,7,10,0,0,0,0,0,0,0,0,0,0,0,0],"split_type":[0,0,0,0,0,0,0,0,0,0,0,0,0,0,0,0,0,0,0,0,0,0,0,0,0],"sum_hessian":[4.4280365E2,3.5390526E1,4.0741312E2,3.0269012E1,5.1215115E0,5.2260406E1,3.551527E2,7.0659494E0,2.3203064E1,1.5686598E1,3.657381E1,3.4875974E2,6.3929877E0,2.2604668E0,4.805483E0,1.2797959E0,2.1923267E1,1.6068115E0,1.4079786E1,1.8271448E1,1.830236E1,2.861797E2,6.258003E1,4.4744873E0,1.9185003E0],"tree_param":{"num_deleted":"0","num_feature":"60","num_nodes":"25","size_leaf_vector":"0"}},{"base_weights":[3.952202E-2,-3.5032228E-1,1.0583674E-1,5.151055E-1,-4.8826253E-1,4.5293397E-1,-3.698209E-2,1.2076116E0,-4.868387E-1,-5.682614E-1,-7.758604E-2,2.020593E-1,9.7770774E-1,-2.4970971E-1,1.1866667E-1,1.7250829E0,-3.5023174E-1,-6.093457E-1,-2.1658173E-1,-5.037176E-1,2.942486E-1,-4.647225E-1,3.7963903E-1,1.4468161E0,-2.018887E-1,1.7619188E-1,-3.2135844E-1,-7.0666E-3,7.95263E-1],"categories":[],"categories_nodes":[],"categories_segments":[],"categories_sizes":[],"default_left":[true,true,true,true,true,true,true,true,false,true,true,true,true,true,true,false,false,false,false,false,false,false,false,false,false,false,false,false,false],"id":9,"left_children":[1,3,5,7,9,11,13,15,-1,17,19,21,23,25,27,-1,-1,-1,-1,-1,-1,-1,-1,-1,-1,-1,-1,-1,-1],"loss_changes":[1.14212885E1,7.921386E0,1.8710596E1,7.054203E0,1.7934036E0,1.4285259E1,8.906531E0,5.278145E0,0E0,5.420904E-1,1.7765812E0,9.138367E0,1.9836887E1,3.5231652E0,1.32338295E1,0E0,0E0,0E0,0E0,0E0,0E0,0E0,0E0,0E0,0E0,0E0,0E0,0E0,0E0],"parents":[2147483647,0,0,1,1,2,2,3,3,4,4,5,5,6,6,7,7,9,9,10,10,11,11,12,12,13,13,14,14],"right_children":[2,4,6,8,10,12,14,16,-1,18,20,22,24,26,28,-1,-1,-1,-1,-1,-1,-1,-1,-1,-1,-1,-1,-1,-1],"split_conditions":[5E-1,5E-1,-1.0127404E0,1.714569E-1,6.9035426E-2,3.724697E1,-1.9955066E-1,5E-1,-4.868387E-3,-5.260804E-1,5E-1,-1.6129665E0,3.8876038E1,5E-1,5E-1,1.7250828E-2,-3.5023172E-3,-6.0934564E-3,-2.1658172E-3,-5.037176E-3,2.942486E-3,-4.647225E-3,3.7963903E-3,1.446816E-2,-2.0188869E-3,1.7619188E-3,-3.2135844E-3,-7.0666E-5,7.95263E-3],"split_indices":[51,42,13,8,5,2,13,55,0,12,17,14,2,42,55,0,0,0,0,0,0,0,0,0,0,0,0,0,0],"split_type":[0,0,0,0,0,0,0,0,0,0,0,0,0,0,0,0,0,0,0,0,0,0,0,0,0,0,0,0,0],"sum_hessian":[4.3935388E2,6.3249043E1,3.7610483E2,8.319405E0,5.4929638E1,1.09007935E2,2.670969E2,4.797964E0,3.52144E0,4.5652847E1,9.2767935E0,7.468762E1,3.432031E1,1.1260016E2,1.5449673E2,3.521026E0,1.2769382E0,4.0221394E1,5.4314523E0,4.1575074E0,5.119286E0,1.5367665E1,5.9319958E1,2.4393024E1,9.927284E0,1.6004646E1,9.659551E1,1.3112E2,2.337674E1],"tree_param":{"num_deleted":"0","num_feature":"60","num_nodes":"29","size_leaf_vector":"0"}},{"base_weights":[4.4613536E-2,9.6826184E-1,-2.6352203E-2,-2.9150864E-1,1.1574621E0,2.41555E-1,-1.5885349E-1,8.159964E-2,-4.4996366E-1,8.9921904E-1,2.0030222E0,-1.9540006E-1,3.9964098E-1,-2.854543E-1,5.1683348E-2,1.0936524E0,-4.500294E-1,-2.8413135E-1,7.979717E-1,-2.854119E-1,5.3106487E-1,-3.728624E-1,-4.003831E-3,1.063261E0,5.204739E-3],"categories":[],"categories_nodes":[],"categories_segments":[],"categories_sizes":[],"default_left":[true,true,true,true,true,true,true,false,false,true,false,true,true,true,true,false,false,false,false,false,false,false,false,false,false],"id":10,"left_children":[1,3,5,7,9,11,13,-1,-1,15,-1,17,19,21,23,-1,-1,-1,-1,-1,-1,-1,-1,-1,-1],"loss_changes":[2.8572647E1,7.750248E0,1.4429927E1,3.240337E-1,4.1471786E0,9.372727E0,7.261012E0,0E0,0E0,6.44265E0,0E0,3.4368472E0,9.077052E0,4.1788845E0,4.8341603E0,0E0,0E0,0E0,0E0,0E0,0E0,0E0,0E0,0E0,0E0],"parents":[2147483647,0,0,1,1,2,2,3,3,4,4,5,5,6,6,9,9,11,11,12,12,13,13,14,14],"right_children":[2,4,6,8,10,12,14,-1,-1,16,-1,18,20,22,24,-1,-1,-1,-1,-1,-1,-1,-1,-1,-1],"split_conditions":[3.314469E1,3.278094E1,-1.6129665E0,3.2739033E1,-4.1760385E-1,5E-1,5.771884E-1,8.159964E-4,-4.4996366E-3,-1.1683548E2,2.0030221E-2,1.4450777E0,5E-1,-8.3405696E-2,6.5533423E-1,1.0936524E-2,-4.500294E-3,-2.8413134E-3,7.979717E-3,-2.8541188E-3,5.3106486E-3,-3.728624E-3,-4.003831E-5,1.063261E-2,5.2047388E-5],"split_indices":[2,2,14,2,4,36,8,0,0,3,0,8,51,10,8,0,0,0,0,0,0,0,0,0,0],"split_type":[0,0,0,0,0,0,0,0,0,0,0,0,0,0,0,0,0,0,0,0,0,0,0,0,0],"sum_hessian":[4.3451898E2,3.0100786E1,4.044182E2,3.8598204E0,2.6240965E1,1.335558E2,2.708624E2,1.295167E0,2.5646534E0,2.1682392E1,4.558573E0,3.5419376E1,9.813642E1,1.6892682E2,1.01935585E2,1.9116978E1,2.565415E0,3.3170452E1,2.248923E0,1.5607891E1,8.252853E1,1.2864856E2,4.0278263E1,3.5168655E0,9.841872E1],"tree_param":{"num_deleted":"0","num_feature":"60","num_nodes":"25","size_leaf_vector":"0"}},{"base_weights":[2.4274223E-2,-2.421318E-2,5.958999E-1,-6.517053E-2,5.487134E-1,7.8067756E-1,-5.109053E-1,5.1985476E-2,-2.4439217E-1,2.0385216E-1,1.0863533E0,1.2526335E0,4.0795448E-1,-2.2847228E-1,1.5582374E-1,-3.268403E-1,2.9726315E-1,7.130133E-1,-5.438522E-1,2.39959E-1,1.4329609E0,-2.066826E-1,1.7080135E0,6.325917E-1,-4.775483E-1],"categories":[],"categories_nodes":[],"categories_segments":[],"categories_sizes":[],"default_left":[true,true,true,true,true,true,false,true,true,true,true,true,true,false,false,false,false,false,false,false,false,false,false,false,false],"id":11,"left_children":[1,3,5,7,9,11,-1,13,15,17,19,21,23,-1,-1,-1,-1,-1,-1,-1,-1,-1,-1,-1,-1],"loss_changes":[1.2078863E1,9.473691E0,7.3674097E0,7.9130597E0,4.7736216E0,4.6949673E0,0E0,6.6857696E0,6.7472324E0,7.1048E0,2.6768723E0,8.710333E0,3.886329E0,0E0,0E0,0E0,0E0,0E0,0E0,0E0,0E0,0E0,0E0,0E0,0E0],"parents":[2147483647,0,0,1,1,2,2,3,3,4,4,5,5,7,7,8,8,9,9,10,10,11,11,12,12],"right_children":[2,4,6,8,10,12,-1,14,16,18,20,22,24,-1,-1,-1,-1,-1,-1,-1,-1,-1,-1,-1,-1],"split_conditions":[3.9238678E1,3.0722058E-1,4.1162964E1,1.0840974E-1,8.3260484E-2,-1.5903108E-2,-5.109053E-3,-4.6718723E-1,4.1916084E-1,-8.0627817E-1,-2.733875E-1,5E-1,4.0626934E1,-2.2847226E-3,1.5582374E-3,-3.268403E-3,2.9726315E-3,7.1301325E-3,-5.438522E-3,2.3995899E-3,1.43296085E-2,-2.066826E-3,1.7080136E-2,6.3259173E-3,-4.7754827E-3],"split_indices":[2,4,2,6,9,6,0,7,5,5,7,18,2,0,0,0,0,0,0,0,0,0,0,0,0],"split_type":[0,0,0,0,0,0,0,0,0,0,0,0,0,0,0,0,0,0,0,0,0,0,0,0,0],"sum_hessian":[4.342776E2,4.0120364E2,3.3073933E1,3.7526312E2,2.5940542E1,2.8594782E1,4.479152E0,2.2735355E2,1.4790958E2,1.664379E1,9.296753E0,1.1576025E1,1.7018757E1,6.1107483E1,1.6624606E2,1.2871394E2,1.9195621E1,9.928926E0,6.714863E0,3.1926956E0,6.104058E0,2.8830626E0,8.692963E0,1.3802824E1,3.2159328E0],"tree_param":{"num_deleted":"0","num_feature":"60","num_nodes":"25","size_leaf_vector":"0"}},{"base_weights":[-1.2584935E-2,-3.0772028E-2,6.716337E-1,-1.8732302E-1,5.6925185E-2,4.7729526E-2,1.8332188E0,-2.5456747E-1,2.9064247E-1,3.2628796E-1,-8.516633E-2,-2.5388125E-1,9.605797E-1,-3.041169E-1,5.2702767E-1,-4.2178762E-1,7.340246E-1,1.3387667E-1,1.0672699E0,-2.5590412E-2,-5.0638247E-1,3.843671E-1,-5.1066756E-1],"categories":[],"categories_nodes":[],"categories_segments":[],"categories_sizes":[],"default_left":[true,true,true,true,true,true,false,true,true,true,true,true,false,false,false,false,false,false,false,false,false,false,false],"id":12,"left_children":[1,3,5,7,9,11,-1,13,15,17,19,21,-1,-1,-1,-1,-1,-1,-1,-1,-1,-1,-1],"loss_changes":[5.417702E0,5.8240247E0,8.082691E0,4.9679246E0,1.04447565E1,2.54587E0,0E0,5.350544E0,6.389328E0,1.3287108E1,4.478174E0,1.3559127E0,0E0,0E0,0E0,0E0,0E0,0E0,0E0,0E0,0E0,0E0,0E0],"parents":[2147483647,0,0,1,1,2,2,3,3,4,4,5,5,7,7,8,8,9,9,10,10,11,11],"right_children":[2,4,6,8,10,12,-1,14,16,18,20,22,-1,-1,-1,-1,-1,-1,-1,-1,-1,-1,-1],"split_conditions":[1.8316083E0,-9.396399E-1,5E-1,8.617254E-1,-3.193674E-1,1.6868386E0,1.8332187E-2,2.0132113E0,-9.238556E-1,1.262554E0,1.1055396E0,-4.1760385E-1,9.605797E-3,-3.041169E-3,5.2702767E-3,-4.217876E-3,7.340246E-3,1.3387667E-3,1.0672699E-2,-2.5590413E-4,-5.0638244E-3,3.843671E-3,-5.1066754E-3],"split_indices":[6,13,16,7,13,0,0,0,12,0,6,4,0,0,0,0,0,0,0,0,0,0,0],"split_type":[0,0,0,0,0,0,0,0,0,0,0,0,0,0,0,0,0,0,0,0,0,0,0],"sum_hessian":[4.3270758E2,4.2243396E2,1.0273616E1,1.5126685E2,2.711671E2,7.361004E0,2.9126117E0,1.3301982E2,1.8247023E1,9.3197105E1,1.7797E2,6.0755043E0,1.2854996E0,1.2566421E2,7.3556147E0,7.018439E0,1.1228583E1,7.4922585E1,1.8274525E1,1.568467E2,2.1123308E1,1.6005255E0,4.4749784E0],"tree_param":{"num_deleted":"0","num_feature":"60","num_nodes":"23","size_leaf_vector":"0"}},{"base_weights":[-1.9119805E-2,9.331453E-1,-1.0244257E-1,-4.7596675E-1,1.0866725E0,-1.9099712E-1,2.2982489E-1,-1.735831E-1,1.312301E0,-2.551174E-1,1.5786693E-1,1.4358501E0,7.041245E-2,3.810664E-1,-4.7641748E-1,5.14437E-1,1.5803963E0,-2.7211127E-1,3.6279157E-1,-5.1206075E-2,8.210617E-1,6.893345E-1,1.9923073E0,3.5429022E-1,-2.06121E-1],"categories":[],"categories_nodes":[],"categories_segments":[],"categories_sizes":[],"default_left":[true,true,true,false,true,true,true,true,true,true,true,true,true,false,false,false,false,false,false,false,false,false,false,false,false],"id":13,"left_children":[1,3,5,-1,7,9,11,13,15,17,19,21,23,-1,-1,-1,-1,-1,-1,-1,-1,-1,-1,-1,-1],"loss_changes":[3.5147816E1,8.228182E0,1.2023045E1,0E0,9.453796E0,7.24314E0,1.6457092E1,1.1574404E0,5.0984116E0,2.9589653E0,7.0596323E0,2.7821236E0,6.127276E0,0E0,0E0,0E0,0E0,0E0,0E0,0E0,0E0,0E0,0E0,0E0,0E0],"parents":[2147483647,0,0,1,1,2,2,4,4,5,5,6,6,7,7,8,8,9,9,10,10,11,11,12,12],"right_children":[2,4,6,-1,8,10,12,14,16,18,20,22,24,-1,-1,-1,-1,-1,-1,-1,-1,-1,-1,-1,-1],"split_conditions":[-1.3791001E0,-1.6055217E0,7.211289E-2,-4.7596674E-3,5E-1,9.355556E-1,-1.2791014E-1,-1.1420972E0,-1.1358246E0,2.0540218E0,5E-1,5E-1,-4.1760385E-1,3.810664E-3,-4.7641746E-3,5.1443703E-3,1.5803963E-2,-2.7211127E-3,3.6279156E-3,-5.120607E-4,8.210616E-3,6.893345E-3,1.9923072E-2,3.5429022E-3,-2.0612099E-3],"split_indices":[8,8,13,0,30,8,5,13,13,11,44,16,4,0,0,0,0,0,0,0,0,0,0,0,0],"split_type":[0,0,0,0,0,0,0,0,0,0,0,0,0,0,0,0,0,0,0,0,0,0,0,0,0],"sum_hessian":[4.4076776E2,3.4643284E1,4.0612448E2,3.1973128E0,3.1445972E1,3.2099847E2,8.512602E1,4.8100343E0,2.6635939E1,2.71387E2,4.9611465E1,9.003493E0,7.612253E1,1.6075075E0,3.2025268E0,7.4332113E0,1.9202726E1,2.6466766E2,6.7193294E0,3.842175E1,1.1189717E1,4.801213E0,4.20228E0,3.7423714E1,3.8698814E1],"tree_param":{"num_deleted":"0","num_feature":"60","num_nodes":"25","size_leaf_vector":"0"}},{"base_weights":[-8.839104E-3,-3.9089084E-1,5.2209225E-2,2.983059E-1,-5.11661E-1,-1.9999735E-1,1.69938E-1,1.5232178E0,-1.5550096E-1,7.226845E-4,-5.8671916E-1,8.3321184E-2,-3.8831207E-1,4.2037204E-1,2.9831544E-2,-5.221618E-1,7.6019824E-1,9.652519E-1,-3.5901502E-1,-4.341512E-1,8.826542E-1,5.0602096E-1,-4.7568867E-1,8.41236E-2,6.5059435E-1,-9.272511E-2,6.23987E-1],"categories":[],"categories_nodes":[],"categories_segments":[],"categories_sizes":[],"default_left":[true,true,true,true,true,true,true,false,true,true,false,true,true,true,true,false,false,false,false,false,false,false,false,false,false,false,false],"id":14,"left_children":[1,3,5,7,9,11,13,-1,15,17,-1,19,21,23,25,-1,-1,-1,-1,-1,-1,-1,-1,-1,-1,-1,-1],"loss_changes":[9.8844595E0,5.012354E0,1.0887444E1,5.4272475E0,1.9252224E0,6.2633395E0,8.75045E0,0E0,2.9891326E0,2.911933E0,0E0,2.0011988E1,5.736809E0,6.8752193E0,1.1798026E1,0E0,0E0,0E0,0E0,0E0,0E0,0E0,0E0,0E0,0E0,0E0,0E0],"parents":[2147483647,0,0,1,1,2,2,3,3,4,4,5,5,6,6,8,8,9,9,11,11,12,12,13,13,14,14],"right_children":[2,4,6,8,10,12,14,-1,16,18,-1,20,22,24,26,-1,-1,-1,-1,-1,-1,-1,-1,-1,-1,-1,-1],"split_conditions":[5E-1,5E-1,-1.6129665E0,3.3988735E1,5E-1,-1.2027908E2,-1.3495909E-1,1.5232177E-2,5E-1,-9.675406E-1,-5.8671916E-3,-1.2145131E2,3.289277E1,5E-1,5E-1,-5.221618E-3,7.601982E-3,9.652519E-3,-3.59015E-3,-4.341512E-3,8.826542E-3,5.0602094E-3,-4.7568865E-3,8.41236E-4,6.5059434E-3,-9.272511E-4,6.23987E-3],"split_indices":[51,42,14,2,44,3,7,0,32,15,0,3,2,46,33,0,0,0,0,0,0,0,0,0,0,0,0],"split_type":[0,0,0,0,0,0,0,0,0,0,0,0,0,0,0,0,0,0,0,0,0,0,0,0,0,0,0],"sum_hessian":[4.2192108E2,5.7385986E1,3.645351E2,8.337352E0,4.9048634E1,1.15787796E2,2.487473E2,1.6167905E0,6.7205615E0,6.393543E0,4.2655094E1,4.6454617E1,6.933318E1,8.8520485E1,1.6022682E2,5.1058598E0,1.6147017E0,1.2795638E0,5.113979E0,2.847641E1,1.7978205E1,5.744522E0,6.358866E1,3.6530987E1,5.19895E1,1.3352791E2,2.669891E1],"tree_param":{"num_deleted":"0","num_feature":"60","num_nodes":"27","size_leaf_vector":"0"}},{"base_weights":[1.0788151E-2,9.105933E-1,-5.696515E-2,6.444178E-1,1.746095E0,-3.8901564E-1,5.285349E-3,-6.9965534E-2,8.6010337E-1,5.135522E-1,1.9528072E0,1.395232E-1,-4.65914E-1,6.0020465E-2,-2.7878812E-1,9.457237E-1,-5.0652385E-1,5.505204E-1,1.6791192E0,-3.273575E-1,7.140392E-1,-5.828925E-1,-1.4769492E-1,4.0742388E-1,-8.541619E-3,6.1804116E-1,-3.2373095E-1],"categories":[],"categories_nodes":[],"categories_segments":[],"categories_sizes":[],"default_left":[true,true,true,true,true,true,true,true,true,false,false,true,true,true,true,false,false,false,false,false,false,false,false,false,false,false,false],"id":15,"left_children":[1,3,5,7,9,11,13,15,17,-1,-1,19,21,23,25,-1,-1,-1,-1,-1,-1,-1,-1,-1,-1,-1,-1],"loss_changes":[2.580826E1,5.4671E0,8.142786E0,3.7683115E0,6.728554E-1,2.5926676E0,5.1889806E0,3.3637235E0,3.7816153E0,0E0,0E0,2.5589192E0,1.9434824E0,6.6662736E0,2.3732495E0,0E0,0E0,0E0,0E0,0E0,0E0,0E0,0E0,0E0,0E0,0E0,0E0],"parents":[2147483647,0,0,1,1,2,2,3,3,4,4,5,5,6,6,7,7,8,8,11,11,12,12,13,13,14,14],"right_children":[2,4,6,8,10,12,14,16,18,-1,-1,20,22,24,26,-1,-1,-1,-1,-1,-1,-1,-1,-1,-1,-1,-1],"split_conditions":[3.3184555E1,5.363461E-1,-7.4404407E-1,5E-1,1.2745947E-2,5E-1,5E-1,3.2796677E1,6.4244574E-1,5.1355218E-3,1.9528072E-2,-2.0181295E-1,-1.1769841E2,3.351743E1,-1.1019075E0,9.457237E-3,-5.0652386E-3,5.505204E-3,1.6791193E-2,-3.2735749E-3,7.140392E-3,-5.8289245E-3,-1.4769491E-3,4.0742387E-3,-8.541619E-5,6.1804117E-3,-3.2373094E-3],"split_indices":[2,6,7,31,15,48,33,2,0,0,0,15,3,2,15,0,0,0,0,0,0,0,0,0,0,0,0],"split_type":[0,0,0,0,0,0,0,0,0,0,0,0,0,0,0,0,0,0,0,0,0,0,0,0,0,0,0],"sum_hessian":[4.214799E2,2.864304E1,3.9283685E2,2.3065948E1,5.577091E0,6.1190628E1,3.316462E2,5.505734E0,1.7560215E1,1.3014493E0,4.275642E0,7.668566E0,5.352206E1,2.787295E2,5.291673E1,1.3044666E0,4.2012672E0,1.3956802E1,3.6034122E0,4.4679155E0,3.2006507E0,3.8527485E1,1.4994574E1,4.512733E1,2.3360216E2,1.9167372E0,5.0999992E1],"tree_param":{"num_deleted":"0","num_feature":"60","num_nodes":"27","size_leaf_vector":"0"}},{"base_weights":[-7.279119E-3,1.7154155E0,-2.0579558E-2,-3.0504093E-1,6.3011445E-2,-3.9628747E-1,7.0543475E-2,1.5727445E-1,-2.2331868E-1,-4.828017E-1,2.1508522E-1,7.921974E-1,-2.8964832E-1,1.2352117E-1,1.9108553E0,-4.2979425E-1,2.4243122E-2],"categories":[],"categories_nodes":[],"categories_segments":[],"categories_sizes":[],"default_left":[true,false,true,true,true,true,true,true,true,false,false,false,false,false,false,false,false],"id":16,"left_children":[1,-1,3,5,7,9,11,13,15,-1,-1,-1,-1,-1,-1,-1,-1],"loss_changes":[9.738618E0,0E0,1.0035548E1,3.3125067E0,8.844633E0,4.1902695E0,5.319471E0,1.4332907E1,4.163693E0,0E0,0E0,0E0,0E0,0E0,0E0,0E0,0E0],"parents":[2147483647,0,0,2,2,3,3,4,4,5,5,6,6,7,7,8,8],"right_children":[2,-1,4,6,8,10,12,14,16,-1,-1,-1,-1,-1,-1,-1,-1],"split_conditions":[-1.0715342E0,1.7154155E-2,-5.2255857E-1,5E-1,9.157458E-1,-1.687863E-2,-6.7094684E-1,1.8936844E0,5E-1,-4.8280167E-3,2.1508522E-3,7.921974E-3,-2.8964833E-3,1.2352117E-3,1.9108552E-2,-4.2979424E-3,2.4243121E-4],"split_indices":[9,0,7,41,8,12,9,12,41,0,0,0,0,0,0,0,0],"split_type":[0,0,0,0,0,0,0,0,0,0,0,0,0,0,0,0,0],"sum_hessian":[4.224926E2,2.256471E0,4.2023615E2,9.4841156E1,3.25395E2,7.62592E1,1.8581951E1,2.4514223E2,8.025278E1,6.698988E1,9.269317E0,5.787388E0,1.2794564E1,2.41563E2,3.5792146E0,4.33561E1,3.6896675E1],"tree_param":{"num_deleted":"0","num_feature":"60","num_nodes":"17","size_leaf_vector":"0"}},{"base_weights":[1.9075321E-2,1.5250525E-1,-2.2359608E-1,4.1659247E-2,6.538091E-1,-3.14947E-1,1.8444125E-1,7.7977455E-3,1.3530267E0,2.5661382E-1,1.0117267E0,-9.069273E-2,-4.524638E-1,5.032405E-2,1.5324852E0,5.853941E-1,-7.442946E-2,1.7643905E0,4.840512E-1,8.332931E-1,-6.921882E-2,1.2256228E0,-1.16362296E-1,-4.7970387E-1,1.2866317E-1,-5.214125E-1,-1.4867842E-1,-4.7632572E-1,3.7340906E-1],"categories":[],"categories_nodes":[],"categories_segments":[],"categories_sizes":[],"default_left":[true,true,true,true,true,true,true,true,true,true,true,true,true,true,false,false,false,false,false,false,false,false,false,false,false,false,false,false,false],"id":17,"left_children":[1,3,5,7,9,11,13,15,17,19,21,23,25,27,-1,-1,-1,-1,-1,-1,-1,-1,-1,-1,-1,-1,-1,-1,-1],"loss_changes":[1.4241997E1,1.5738116E1,5.8757577E0,1.035395E1,7.0342197E0,3.9030848E0,5.198678E0,1.0897862E1,1.2440758E0,4.8789434E0,6.5725155E0,4.316904E0,1.5777798E0,4.869723E0,0E0,0E0,0E0,0E0,0E0,0E0,0E0,0E0,0E0,0E0,0E0,0E0,0E0,0E0,0E0],"parents":[2147483647,0,0,1,1,2,2,3,3,4,4,5,5,6,6,7,7,8,8,9,9,10,10,11,11,12,12,13,13],"right_children":[2,4,6,8,10,12,14,16,18,20,22,24,26,28,-1,-1,-1,-1,-1,-1,-1,-1,-1,-1,-1,-1,-1,-1,-1],"split_conditions":[3.7222923E1,3.459964E1,1.2951913E0,1.8343849E0,-7.1288574E-1,-9.5074165E-1,5E-1,-1.0546927E0,-6.6785336E-1,-1.4799825E-2,3.316295E-1,-1.0959889E0,8.040122E-1,5E-1,1.5324852E-2,5.8539407E-3,-7.442946E-4,1.7643904E-2,4.840512E-3,8.3329305E-3,-6.921882E-4,1.2256227E-2,-1.163623E-3,-4.7970386E-3,1.2866317E-3,-5.214125E-3,-1.4867842E-3,-4.763257E-3,3.7340906E-3],"split_indices":[2,2,0,6,15,15,49,0,15,6,5,15,15,44,0,0,0,0,0,0,0,0,0,0,0,0,0,0,0],"split_type":[0,0,0,0,0,0,0,0,0,0,0,0,0,0,0,0,0,0,0,0,0,0,0,0,0,0,0,0,0],"sum_hessian":[4.3779123E2,2.8271524E2,1.5507599E2,2.324091E2,5.0306133E1,1.2689502E2,2.818097E1,2.2753963E2,4.8694725E0,2.4658543E1,2.564759E1,4.886628E1,7.802874E1,2.6574406E1,1.6065626E0,2.7593409E1,1.9994621E2,2.605589E0,2.2638836E0,8.340165E0,1.6318378E1,2.1486998E1,4.1605935E0,1.7191526E1,3.1674753E1,6.301105E1,1.5017692E1,9.923745E0,1.665066E1],"tree_param":{"num_deleted":"0","num_feature":"60","num_nodes":"29","size_leaf_vector":"0"}},{"base_weights":[3.515957E-2,1.0242687E0,-3.5806227E-2,1.4265995E0,-3.9856657E-1,-1.7520499E-1,2.234471E-1,1.0329088E0,1.9887816E0,7.946202E-2,-5.1884556E-1,-2.1226421E-1,1.6998032E-1,8.035026E-1,7.1906604E-2,1.4164366E0,-4.6530637E-1,-2.2959153E-1,5.1868623E-1,1.0772514E0,-4.6061015E-1,1.1656939E0,-4.4296995E-2,2.5621903E-1,-4.946173E-1],"categories":[],"categories_nodes":[],"categories_segments":[],"categories_sizes":[],"default_left":[true,true,true,true,true,true,true,true,false,false,false,true,true,true,true,false,false,false,false,false,false,false,false,false,false],"id":18,"left_children":[1,3,5,7,9,11,13,15,-1,-1,-1,17,19,21,23,-1,-1,-1,-1,-1,-1,-1,-1,-1,-1],"loss_changes":[3.0195501E1,1.7053303E1,1.4562187E1,2.9626274E0,4.5114863E-1,3.3863802E0,1.2332858E1,9.514933E0,0E0,0E0,0E0,3.1201916E0,1.5340846E1,8.987148E0,1.1911289E1,0E0,0E0,0E0,0E0,0E0,0E0,0E0,0E0,0E0,0E0],"parents":[2147483647,0,0,1,1,2,2,3,3,4,4,5,5,6,6,7,7,11,11,12,12,13,13,14,14],"right_children":[2,4,6,8,10,12,14,16,-1,-1,-1,18,20,22,24,-1,-1,-1,-1,-1,-1,-1,-1,-1,-1],"split_conditions":[-1.0485865E0,-1.18163155E2,2.70144E-1,-8.542283E-1,5E-1,5E-1,5E-1,-8.912358E-1,1.9887816E-2,7.946202E-4,-5.1884553E-3,-1.1621982E2,-1.2116054E2,3.97278E-1,3.633831E-1,1.4164365E-2,-4.6530636E-3,-2.2959153E-3,5.1868623E-3,1.0772514E-2,-4.606101E-3,1.1656938E-2,-4.4296993E-4,2.5621902E-3,-4.946173E-3],"split_indices":[7,3,6,12,50,50,36,12,0,0,0,3,3,5,7,0,0,0,0,0,0,0,0,0,0],"split_type":[0,0,0,0,0,0,0,0,0,0,0,0,0,0,0,0,0,0,0,0,0,0,0,0,0],"sum_hessian":[4.2865625E2,2.7796741E1,4.008595E2,2.16673E1,6.1294413E0,2.608997E2,1.3995981E2,1.4412022E1,7.2552786E0,1.3004348E0,4.829006E0,2.3595279E2,2.4946903E1,2.8099684E1,1.1186012E2,1.1518092E1,2.8939295E0,2.3115901E2,4.793771E0,9.938878E0,1.5008025E1,1.9425772E1,8.673912E0,8.481441E1,2.7045713E1],"tree_param":{"num_deleted":"0","num_feature":"60","num_nodes":"25","size_leaf_vector":"0"}},{"base_weights":[-2.5927812E-2,5.4163143E-2,-4.9995908E-1,1.186276E-1,-3.6446303E-1,-5.472358E-1,9.570602E-1,4.2515627E-1,-1.4828411E-2,7.758111E-1,-5.172016E-1,-5.6120867E-1,-1.6737212E-1,7.681738E-1,-6.517219E-2,-1.077891E-1,7.823296E-1,1.5701531E0,-4.3054432E-1,-7.088918E-2,-6.058834E-1,8.666871E-2,-3.4899962E-1],"categories":[],"categories_nodes":[],"categories_segments":[],"categories_sizes":[],"default_left":[true,true,true,true,true,true,false,true,true,true,true,false,true,false,false,false,false,false,false,false,false,true,true],"id":19,"left_children":[1,3,5,7,9,11,-1,13,15,17,19,-1,-1,-1,-1,-1,-1,-1,-1,-1,-1,-1,-1],"loss_changes":[1.6100296E1,9.841317E0,4.7455225E0,1.2907845E1,8.882107E0,2.2453117E-1,0E0,1.6145002E1,1.6438E1,6.5713387E0,1.6804571E0,0E0,1.9421695E-1,0E0,0E0,0E0,0E0,0E0,0E0,0E0,0E0,0E0,0E0],"parents":[2147483647,0,0,1,1,2,2,3,3,4,4,5,5,7,7,8,8,9,9,10,10,12,12],"right_children":[2,4,6,8,10,12,-1,14,16,18,20,-1,-1,-1,-1,-1,-1,-1,-1,-1,-1,-1,-1],"split_conditions":[1.2134781E0,5E-1,4.517403E0,-1.0086163E0,5E-1,1.8486147E0,9.570602E-3,-1.4876853E-1,8.67103E-1,-4.708278E-2,5E-1,-5.6120865E-3,-1.6737212E-3,7.681738E-3,-6.5172184E-4,-1.077891E-3,7.823296E-3,1.570153E-2,-4.3054433E-3,-7.0889184E-4,-6.058834E-3,8.6668704E-4,-3.489996E-3],"split_indices":[6,50,10,13,42,6,0,6,6,8,44,0,5,0,0,0,0,0,0,0,0,2147483647,2147483647],"split_type":[0,0,0,0,0,0,0,0,0,0,0,0,0,0,0,0,0,0,0,0,0,0,0],"sum_hessian":[4.2236246E2,3.6207333E2,6.0289124E1,3.1437863E2,4.76947E1,5.8999157E1,1.2899647E0,9.4694244E1,2.1968437E2,5.152114E0,4.2542587E1,5.644548E1,2.553679E0,5.538328E1,3.9310963E1,1.9751582E2,2.2168549E1,2.9247212E0,2.2273927E0,7.35022E0,3.5192368E1,1.2825745E0,1.2711046E0],"tree_param":{"num_deleted":"2","num_feature":"60","num_nodes":"23","size_leaf_vector":"0"}},{"base_weights":[-1.8077392E-2,1.009314E0,-8.966737E-2,7.292169E-1,1.8526713E0,2.5087583E-1,-2.525023E-1,3.7356746E-1,1.6574256E0,-2.0033492E-1,4.1011703E-1,-2.831648E-1,4.4083086E-1,9.77387E-2,1.3012084E0,5.099729E-1,1.870521E0,-2.742569E-1,9.6296316E-1,1.0839906E0,2.4027616E-1,-3.4101853E-1,1.2992062E-1,6.461139E-1,-4.1019896E-1],"categories":[],"categories_nodes":[],"categories_segments":[],"categories_sizes":[],"default_left":[true,true,true,true,false,true,true,true,true,true,true,true,true,false,false,false,false,false,false,false,false,false,false,false,false],"id":20,"left_children":[1,3,5,7,-1,9,11,13,15,17,19,21,23,-1,-1,-1,-1,-1,-1,-1,-1,-1,-1,-1,-1],"loss_changes":[3.142802E1,5.224571E0,2.2201532E1,6.823453E0,0E0,9.397399E0,5.877243E0,4.3738117E0,5.020523E-1,3.2300942E0,1.0744604E1,6.251528E0,2.3353913E0,0E0,0E0,0E0,0E0,0E0,0E0,0E0,0E0,0E0,0E0,0E0,0E0],"parents":[2147483647,0,0,1,1,2,2,3,3,5,5,6,6,7,7,8,8,9,9,10,10,11,11,12,12],"right_children":[2,4,6,8,-1,10,12,14,16,18,20,22,24,-1,-1,-1,-1,-1,-1,-1,-1,-1,-1,-1,-1],"split_conditions":[3.295913E1,5E-1,-1.6129665E0,5.363461E-1,1.8526712E-2,5E-1,4.012417E1,3.1154988E-2,3.284221E1,1.8213173E0,3.3844208E1,1.0837018E0,3.0801177E-1,9.77387E-4,1.3012083E-2,5.0997287E-3,1.870521E-2,-2.7425692E-3,9.629631E-3,1.0839906E-2,2.4027615E-3,-3.4101852E-3,1.2992062E-3,6.4611384E-3,-4.1019893E-3],"split_indices":[2,19,14,6,0,36,2,7,2,9,2,15,7,0,0,0,0,0,0,0,0,0,0,0,0],"split_type":[0,0,0,0,0,0,0,0,0,0,0,0,0,0,0,0,0,0,0,0,0,0,0,0,0],"sum_hessian":[4.2506558E2,2.683641E1,3.9822916E2,2.1545387E1,5.291024E0,1.2864598E2,2.6958316E2,1.6590923E1,4.954463E0,3.3491E1,9.515498E1,2.587324E2,1.0850788E1,1.3640393E1,2.950531E0,1.3074443E0,3.6470187E0,3.2208546E1,1.2824558E0,1.8071344E1,7.708364E1,2.2710077E2,3.163162E1,8.936047E0,1.9147422E0],"tree_param":{"num_deleted":"0","num_feature":"60","num_nodes":"25","size_leaf_vector":"0"}},{"base_weights":[-4.1373022E-2,9.908614E-2,-2.4062316E-1,-5.707664E-2,3.3564332E-1,-3.0315286E-1,6.4339304E-1,-1.4149925E-1,7.3939353E-1,-2.2860354E-1,4.6037313E-1,1.5057071E0,-3.2966602E-1,1.7360733E0,-7.405681E-2,1.01900175E-1,-3.3039033E-1,-2.5732199E-2,1.3548757E0,-4.6785915E-1,9.615805E-1,5.8791566E-1,-2.7375823E-1,-3.5132417E-1,1.3996308E0,7.895241E-1,-5.228375E-1],"categories":[],"categories_nodes":[],"categories_segments":[],"categories_sizes":[],"default_left":[true,true,true,true,true,true,true,true,true,true,true,false,true,false,true,false,false,false,false,false,false,false,false,false,false,false,false],"id":21,"left_children":[1,3,5,7,9,11,13,15,17,19,21,-1,23,-1,25,-1,-1,-1,-1,-1,-1,-1,-1,-1,-1,-1,-1],"loss_changes":[1.2280027E1,9.534128E0,1.0220289E1,1.0594275E1,7.3236885E0,8.652294E0,9.772067E0,6.557262E0,7.151223E0,5.9276085E0,8.0569935E0,0E0,6.799814E0,0E0,3.6623611E0,0E0,0E0,0E0,0E0,0E0,0E0,0E0,0E0,0E0,0E0,0E0,0E0],"parents":[2147483647,0,0,1,1,2,2,3,3,4,4,5,5,6,6,7,7,8,8,9,9,10,10,12,12,14,14],"right_children":[2,4,6,8,10,12,14,16,18,20,22,-1,24,-1,26,-1,-1,-1,-1,-1,-1,-1,-1,-1,-1,-1,-1],"split_conditions":[1.0840974E-1,3.6633316E1,1.8964955E0,5E-1,-4.6718723E-1,-1.6126869E0,1.9648464E0,-7.934351E-1,-6.7846966E-1,-8.3172455E-2,5E-1,1.5057071E-2,2.1192815E0,1.7360732E-2,5E-1,1.0190017E-3,-3.3039032E-3,-2.5732198E-4,1.3548757E-2,-4.678591E-3,9.615805E-3,5.8791563E-3,-2.7375822E-3,-3.5132417E-3,1.3996308E-2,7.895241E-3,-5.228375E-3],"split_indices":[6,2,12,24,7,8,13,13,9,6,25,0,4,0,47,0,0,0,0,0,0,0,0,0,0,0,0],"split_type":[0,0,0,0,0,0,0,0,0,0,0,0,0,0,0,0,0,0,0,0,0,0,0,0,0,0,0],"sum_hessian":[4.3693198E2,2.5656912E2,1.8036284E2,1.5500294E2,1.0156618E2,1.6906157E2,1.1301272E1,1.4089137E2,1.4111572E1,1.8236404E1,8.332978E1,1.6362679E0,1.674253E2,3.9165542E0,7.384718E0,6.1764286E1,7.912708E1,6.7181787E0,7.3933935E0,1.5689366E1,2.547038E0,7.116523E1,1.2164548E1,1.6614134E2,1.2839546E0,2.265668E0,5.11905E0],"tree_param":{"num_deleted":"0","num_feature":"60","num_nodes":"27","size_leaf_vector":"0"}},{"base_weights":[1.3878084E-2,-1.60558E-1,9.7517475E-2,9.3590724E-1,-2.7948067E-1,-1.0765655E-1,2.2062944E-1,-1.7448235E-1,1.5477006E0,-4.0353176E-1,6.8856016E-2,4.1196597E-1,-2.7941456E-1,1.0193589E0,7.250985E-2,5.2103007E-1,-4.8744076E-1,1.7792158E0,8.569416E-2,3.3024266E-1,-4.3873295E-1,-5.8111125E-1,5.05558E-1,-2.0020764E-1,7.656394E-1,-3.1696355E-1,5.660058E-1,1.4856085E0,4.947362E-1,-8.785248E-2,2.8483254E-1],"categories":[],"categories_nodes":[],"categories_segments":[],"categories_sizes":[],"default_left":[true,true,true,true,true,true,true,true,true,true,true,true,true,true,true,false,false,false,false,false,false,false,false,false,false,false,false,false,false,false,false],"id":22,"left_children":[1,3,5,7,9,11,13,15,17,19,21,23,25,27,29,-1,-1,-1,-1,-1,-1,-1,-1,-1,-1,-1,-1,-1,-1,-1,-1],"loss_changes":[6.26385E0,1.8408852E1,7.351185E0,9.677115E0,5.4864616E0,9.88426E0,2.14141E1,1.5203427E0,2.9038582E0,2.5547237E0,9.952247E0,6.128258E0,2.8098412E0,6.19623E0,5.2784505E0,0E0,0E0,0E0,0E0,0E0,0E0,0E0,0E0,0E0,0E0,0E0,0E0,0E0,0E0,0E0,0E0],"parents":[2147483647,0,0,1,1,2,2,3,3,4,4,5,5,6,6,7,7,8,8,9,9,10,10,11,11,12,12,13,13,14,14],"right_children":[2,4,6,8,10,12,14,16,18,20,22,24,26,28,30,-1,-1,-1,-1,-1,-1,-1,-1,-1,-1,-1,-1,-1,-1,-1,-1],"split_conditions":[-1.6129665E0,-9.4327426E-1,-3.802637E-1,5E-1,1.9726905E-1,5E-1,-1.0428214E0,-1.9033045E-1,1.3468395E-1,-9.3032E-1,-1.0469894E0,-8.987944E-1,1.795395E0,6.272782E-1,6.676495E-1,5.2103004E-3,-4.8744073E-3,1.7792158E-2,8.5694157E-4,3.3024265E-3,-4.3873293E-3,-5.8111125E-3,5.05558E-3,-2.0020762E-3,7.656394E-3,-3.1696355E-3,5.660058E-3,1.4856084E-2,4.947362E-3,-8.7852473E-4,2.8483253E-3],"split_indices":[14,12,6,17,7,48,9,7,5,12,5,9,10,6,8,0,0,0,0,0,0,0,0,0,0,0,0,0,0,0,0],"split_type":[0,0,0,0,0,0,0,0,0,0,0,0,0,0,0,0,0,0,0,0,0,0,0,0,0,0,0,0,0,0,0],"sum_hessian":[4.272597E2,1.3817207E2,2.8908762E2,1.284759E1,1.2532448E2,1.0845909E2,1.8062854E2,4.817944E0,8.029646E0,9.229688E1,3.30276E1,2.6596798E1,8.186229E1,2.7336338E1,1.5329219E2,1.2888272E0,3.529117E0,6.7446346E0,1.285011E0,3.841371E0,8.845551E1,1.31399765E1,1.988762E1,9.898097E0,1.6698702E1,7.897953E1,2.8827622E0,1.3503535E1,1.3832802E1,8.7666214E1,6.5625984E1],"tree_param":{"num_deleted":"0","num_feature":"60","num_nodes":"31","size_leaf_vector":"0"}},{"base_weights":[-8.85794E-3,1.0857437E0,-9.010479E-2,-1.425248E-1,1.4207971E0,3.657812E-1,-1.6129754E-1,-5.138111E-1,6.0136694E-1,1.8778443E0,-2.0503178E-1,-2.933582E-1,6.357602E-1,-2.0191729E-1,5.888455E-1,8.0262244E-2,2.0053885E0,5.194968E-1,-5.0113994E-1,5.379902E-1,-5.771008E-1,-2.1423285E-1,9.35003E-1,-2.3884627E-1,3.9347085E-1,-4.9388862E-1,9.006109E-1],"categories":[],"categories_nodes":[],"categories_segments":[],"categories_sizes":[],"default_left":[true,true,true,true,true,true,true,false,false,true,true,true,true,true,true,false,false,false,false,false,false,false,false,false,false,false,false],"id":23,"left_children":[1,3,5,7,9,11,13,-1,-1,15,17,19,21,23,25,-1,-1,-1,-1,-1,-1,-1,-1,-1,-1,-1,-1],"loss_changes":[3.9448368E1,1.2816059E1,1.3457534E1,2.3743289E0,1.8346916E1,1.0163731E1,1.1020003E1,0E0,0E0,4.187523E0,1.5917021E0,4.3148727E0,1.0397524E1,7.572341E0,6.7344E0,0E0,0E0,0E0,0E0,0E0,0E0,0E0,0E0,0E0,0E0,0E0,0E0],"parents":[2147483647,0,0,1,1,2,2,3,3,4,4,5,5,6,6,9,9,10,10,11,11,12,12,13,13,14,14],"right_children":[2,4,6,8,10,12,14,-1,-1,16,18,20,22,24,26,-1,-1,-1,-1,-1,-1,-1,-1,-1,-1,-1,-1],"split_conditions":[-1.4263906E0,-1.0712488E0,5E-1,-8.165258E-1,5.2489348E-2,-2.2115573E-1,5E-1,-5.138111E-3,6.013669E-3,-1.184423E0,-7.422569E-1,-1.2214415E2,-6.7094684E-1,1.6351671E0,-1.234748E0,8.026224E-4,2.0053884E-2,5.194968E-3,-5.0113993E-3,5.379902E-3,-5.771008E-3,-2.1423285E-3,9.35003E-3,-2.3884627E-3,3.9347084E-3,-4.938886E-3,9.006109E-3],"split_indices":[8,9,36,15,15,15,23,0,0,6,6,3,9,6,6,0,0,0,0,0,0,0,0,0,0,0,0],"split_type":[0,0,0,0,0,0,0,0,0,0,0,0,0,0,0,0,0,0,0,0,0,0,0,0,0,0,0],"sum_hessian":[4.414743E2,2.9649994E1,4.118243E2,6.477783E0,2.317221E1,5.5066383E1,3.5675793E2,4.5273933E0,1.9503895E0,1.7966518E1,5.205692E0,1.5975777E1,3.9090607E1,3.3912534E2,1.7632584E1,1.2982693E0,1.666825E1,1.2914085E0,3.914283E0,3.8371398E0,1.2138637E1,1.0252543E1,2.8838062E1,3.198834E2,1.9241943E1,3.81148E0,1.3821104E1],"tree_param":{"num_deleted":"0","num_feature":"60","num_nodes":"27","size_leaf_vector":"0"}},{"base_weights":[-1.3249214E-2,5.909311E-2,-3.663382E-1,-2.0802057E-1,2.0268264E-1,-4.0380922E-1,9.510827E-1,-2.8149205E-1,7.18731E-1,5.2475166E-1,-4.130718E-3,5.693442E-1,-4.5320842E-1,-3.2598728E-1,1.0849556E0,-4.5012194E-1,1.2245989E0,2.0943391E-1,9.1335845E-1,-8.010725E-2,9.3328637E-1,1.3849105E0,-3.8019344E-1,-1.8711658E-1,-5.5049306E-1],"categories":[],"categories_nodes":[],"categories_segments":[],"categories_sizes":[],"default_left":[true,true,true,true,true,true,false,true,true,true,true,true,true,false,false,false,false,false,false,false,false,false,false,false,false],"id":24,"left_children":[1,3,5,7,9,11,-1,13,15,17,19,21,23,-1,-1,-1,-1,-1,-1,-1,-1,-1,-1,-1,-1],"loss_changes":[1.0861468E1,1.3584061E1,3.9531937E0,8.640914E0,1.5331141E1,3.6713724E0,0E0,7.3790674E0,6.100409E0,1.0836834E1,1.0126742E1,3.5261054E0,1.6606493E0,0E0,0E0,0E0,0E0,0E0,0E0,0E0,0E0,0E0,0E0,0E0,0E0],"parents":[2147483647,0,0,1,1,2,2,3,3,4,4,5,5,7,7,8,8,9,9,10,10,11,11,12,12],"right_children":[2,4,6,8,10,12,-1,14,16,18,20,22,24,-1,-1,-1,-1,-1,-1,-1,-1,-1,-1,-1,-1],"split_conditions":[1.0489674E0,-1.6129665E0,4.2223344E0,8.730032E-1,-8.778574E-1,-1.1088841E0,9.510827E-3,3.2703793E0,5E-1,-1.18144005E2,8.6502063E-1,-7.935945E-1,-1.6129665E0,-3.2598728E-3,1.0849555E-2,-4.5012194E-3,1.22459885E-2,2.094339E-3,9.133584E-3,-8.0107246E-4,9.332864E-3,1.3849105E-2,-3.8019344E-3,-1.8711657E-3,-5.5049304E-3],"split_indices":[6,14,10,6,12,15,0,7,20,3,6,0,14,0,0,0,0,0,0,0,0,0,0,0,0],"split_type":[0,0,0,0,0,0,0,0,0,0,0,0,0,0,0,0,0,0,0,0,0,0,0,0,0],"sum_hessian":[4.2337073E2,3.5206985E2,7.130088E1,1.22933334E2,2.2913652E2,7.000328E1,1.2975969E0,1.1454837E2,8.384964E0,8.9000046E1,1.4013647E2,2.8733592E0,6.712992E1,1.11673416E2,2.8749528E0,2.5660577E0,5.8189063E0,4.998272E1,3.9017326E1,1.3047609E2,9.660386E0,1.299068E0,1.5742912E0,1.8754961E1,4.837496E1],"tree_param":{"num_deleted":"0","num_feature":"60","num_nodes":"25","size_leaf_vector":"0"}},{"base_weights":[-1.6432427E-2,8.249411E-1,-7.3969126E-2,4.5395088E-1,1.6884015E0,1.794032E-1,-1.9334552E-1,1.6237774E-1,1.4361522E0,1.851101E0,4.966654E-1,-2.7662992E-1,3.5050842E-1,-3.18384E-1,-8.312314E-2,9.2834866E-1,-8.24556E-2,1.6618186E0,4.9731097E-1,-4.175912E-1,6.491886E-1,5.283461E-1,7.924819E-2,-3.3870804E-1,9.7149175E-1,-1.2559463E-1,6.4668626E-1],"categories":[],"categories_nodes":[],"categories_segments":[],"categories_sizes":[],"default_left":[true,true,true,true,true,true,true,true,true,false,false,true,true,true,true,false,false,true,true,false,false,false,false,false,false,false,false],"id":25,"left_children":[1,3,5,7,9,11,13,15,-1,-1,-1,19,21,23,25,-1,-1,-1,-1,-1,-1,-1,-1,-1,-1,-1,-1],"loss_changes":[2.1111061E1,8.175549E0,1.2372763E1,5.7502337E0,6.3593674E-1,1.0331135E1,3.8016014E0,3.3092847E0,1.5980053E-1,0E0,0E0,5.0140543E0,4.5802374E0,3.7312784E0,4.698968E0,0E0,0E0,0E0,0E0,0E0,0E0,0E0,0E0,0E0,0E0,0E0,0E0],"parents":[2147483647,0,0,1,1,2,2,3,3,4,4,5,5,6,6,7,7,8,8,11,11,12,12,13,13,14,14],"right_children":[2,4,6,8,10,12,14,16,-1,-1,-1,20,22,24,26,-1,-1,-1,-1,-1,-1,-1,-1,-1,-1,-1,-1],"split_conditions":[3.301853E1,-4.1760385E-1,-1.6129665E0,3.289277E1,3.295913E1,5E-1,2.2609183E-1,5E-1,1.4361522E-2,1.851101E-2,4.966654E-3,1.4020863E0,-4.671889E-2,5E-1,4.012417E1,9.283487E-3,-8.24556E-4,1.6618187E-2,4.9731093E-3,-4.175912E-3,6.4918855E-3,5.283461E-3,7.924819E-4,-3.3870803E-3,9.714917E-3,-1.2559462E-3,6.4668623E-3],"split_indices":[2,4,14,2,2,36,8,40,39,0,0,8,12,22,2,0,0,2147483647,2147483647,0,0,0,0,0,0,0,0],"split_type":[0,0,0,0,0,0,0,0,0,0,0,0,0,0,0,0,0,0,0,0,0,0,0,0,0,0,0],"sum_hessian":[4.3382968E2,2.6914503E1,4.0691516E2,1.9893076E1,7.0214276E0,1.301575E2,2.767577E2,1.6238028E1,3.6550486E0,5.69117E0,1.3302574E0,3.5343243E1,9.4814255E1,1.2877928E2,1.479784E2,3.2569067E0,1.2981121E1,2.3259044E0,1.3291442E0,3.1149498E1,4.1937437E0,5.669643E1,3.811782E1,1.27507614E2,1.2716739E0,1.4062271E2,7.3556747E0],"tree_param":{"num_deleted":"2","num_feature":"60","num_nodes":"27","size_leaf_vector":"0"}},{"base_weights":[9.177824E-3,1.3179466E-1,-1.7507483E-1,6.261853E-2,4.2813075E-1,-2.4585013E-1,6.756004E-1,1.4075519E-1,-2.3148938E-1,2.9722026E-1,1.5490085E0,1.493859E0,-2.7335882E-1,1.422219E0,-3.718403E-1,1.1497881E-1,1.408119E0,-3.211855E-1,7.079092E-1,-2.537734E-1,5.568627E-1,-3.2668915E-1,6.04823E-1,-3.4876317E-1,1.8018703E0,-5.0300795E-1,8.700487E-2],"categories":[],"categories_nodes":[],"categories_segments":[],"categories_sizes":[],"default_left":[true,true,true,true,true,true,true,true,true,true,false,false,true,true,true,false,false,false,false,false,false,false,false,false,false,false,false],"id":26,"left_children":[1,3,5,7,9,11,13,15,17,19,-1,-1,21,23,25,-1,-1,-1,-1,-1,-1,-1,-1,-1,-1,-1,-1],"loss_changes":[9.770166E0,5.2951E0,1.05709E1,4.896443E0,6.7241077E0,8.078754E0,1.1118185E1,5.321283E0,4.00266E0,6.59046E0,0E0,0E0,7.626704E0,6.0831375E0,4.3062872E-1,0E0,0E0,0E0,0E0,0E0,0E0,0E0,0E0,0E0,0E0,0E0,0E0],"parents":[2147483647,0,0,1,1,2,2,3,3,4,4,5,5,6,6,7,7,8,8,9,9,12,12,13,13,14,14],"right_children":[2,4,6,8,10,12,14,16,18,20,-1,-1,22,24,26,-1,-1,-1,-1,-1,-1,-1,-1,-1,-1,-1,-1],"split_conditions":[1.358282E-1,5E-1,6.696328E-1,5E-1,2.366278E-2,-1.6126869E0,6.882496E-1,3.2156587E0,-5.610106E-2,5E-1,1.5490085E-2,1.493859E-2,1.9236829E0,-2.9159647E-1,1.579289E0,1.1497881E-3,1.4081189E-2,-3.211855E-3,7.0790923E-3,-2.5377339E-3,5.568627E-3,-3.2668915E-3,6.04823E-3,-3.4876317E-3,1.8018704E-2,-5.0300793E-3,8.700487E-4],"split_indices":[6,41,4,30,6,8,8,10,6,38,0,0,12,8,6,0,0,0,0,0,0,0,0,0,0,0,0],"split_type":[0,0,0,0,0,0,0,0,0,0,0,0,0,0,0,0,0,0,0,0,0,0,0,0,0,0,0],"sum_hessian":[4.3043094E2,2.586132E2,1.7181773E2,2.1065062E2,4.7962566E1,1.5927704E2,1.2540692E1,1.668456E2,4.3805023E1,4.4079556E1,3.883009E0,1.6495712E0,1.5762747E2,7.1128383E0,5.4278545E0,1.6458882E2,2.256779E0,4.0587704E1,3.2173207E0,1.41256895E1,2.9953867E1,1.4919513E2,8.432344E0,1.2699915E0,5.8428464E0,4.1463203E0,1.2815343E0],"tree_param":{"num_deleted":"0","num_feature":"60","num_nodes":"27","size_leaf_vector":"0"}},{"base_weights":[-6.234773E-3,-2.555159E-2,1.1469699E0,-1.8716533E-1,5.446546E-2,1.8920973E-1,1.5442723E0,4.8906216E-1,-2.7045047E-1,-5.760497E-3,3.5527983E-1,1.7766345E0,5.120709E-1,-2.3778181E-1,1.3344411E0,-3.850314E-1,7.2376736E-2,2.1108879E-1,-1.1633706E-1,-1.374501E-1,7.436071E-1],"categories":[],"categories_nodes":[],"categories_segments":[],"categories_sizes":[],"default_left":[true,true,true,true,true,false,true,true,true,true,true,false,false,false,false,false,false,false,false,false,false],"id":27,"left_children":[1,3,5,7,9,-1,11,13,15,17,19,-1,-1,-1,-1,-1,-1,-1,-1,-1,-1],"loss_changes":[9.627054E0,5.502758E0,2.4170723E0,8.066418E0,5.1627064E0,0E0,2.637291E-1,1.002827E1,4.980193E0,5.7391305E0,9.1972275E0,0E0,0E0,0E0,0E0,0E0,0E0,0E0,0E0,0E0,0E0],"parents":[2147483647,0,0,1,1,2,2,3,3,4,4,6,6,7,7,8,8,9,9,10,10],"right_children":[2,4,6,8,10,-1,12,14,16,18,20,-1,-1,-1,-1,-1,-1,-1,-1,-1,-1],"split_conditions":[2.3147068E0,-1.6129665E0,8.652634E-2,-9.3687314E-1,1.491015E0,1.8920973E-3,-1.1838059E2,5E-1,2.5264043E-1,5E-1,-9.9792504E-1,1.7766343E-2,5.1207086E-3,-2.377818E-3,1.3344411E-2,-3.8503138E-3,7.237673E-4,2.1108878E-3,-1.1633706E-3,-1.3745009E-3,7.436071E-3],"split_indices":[1,14,7,12,0,0,3,33,7,20,13,0,0,0,0,0,0,0,0,0,0],"split_type":[0,0,0,0,0,0,0,0,0,0,0,0,0,0,0,0,0,0,0,0,0],"sum_hessian":[4.2985126E2,4.2373135E2,6.119891E0,1.3987698E2,2.8385437E2,2.2271733E0,3.892718E0,1.4804098E1,1.2507288E2,2.3732121E2,4.6533165E1,2.5887475E0,1.3039706E0,8.346571E0,6.457527E0,9.364981E1,3.1423073E1,7.983992E1,1.5748131E2,2.0794308E1,2.5738857E1],"tree_param":{"num_deleted":"0","num_feature":"60","num_nodes":"21","size_leaf_vector":"0"}},{"base_weights":[4.4024974E-2,7.944841E-1,-2.4422664E-2,1.0464239E0,-5.2877635E-1,4.1001368E-1,-9.4715275E-2,-3.4646906E-2,1.3548985E0,-3.212331E-1,7.560071E-1,-1.1727703E-1,9.42789E-1,-5.121577E-1,7.7081263E-1,3.501341E-2,1.5388238E0,6.111973E-1,-4.6631935E-1,2.4444921E-1,1.2076248E0,-1.3531701E-1,1.1309733E0,1.9357206E0,-4.6344942E-1],"categories":[],"categories_nodes":[],"categories_segments":[],"categories_sizes":[],"default_left":[true,true,true,true,false,true,true,true,true,true,true,true,true,false,false,false,false,false,false,false,false,false,false,false,false],"id":28,"left_children":[1,3,5,7,-1,9,11,13,15,17,19,21,23,-1,-1,-1,-1,-1,-1,-1,-1,-1,-1,-1,-1],"loss_changes":[2.2255697E1,1.2625927E1,1.2182956E1,1.0303646E1,0E0,1.4302765E1,8.141954E0,3.3958836E0,5.7610703E0,2.794575E0,8.488701E0,7.73482E0,1.1247962E1,0E0,0E0,0E0,0E0,0E0,0E0,0E0,0E0,0E0,0E0,0E0,0E0],"parents":[2147483647,0,0,1,1,2,2,3,3,5,5,6,6,7,7,8,8,9,9,10,10,11,11,12,12],"right_children":[2,4,6,8,-1,10,12,14,16,18,20,22,24,-1,-1,-1,-1,-1,-1,-1,-1,-1,-1,-1,-1],"split_conditions":[-9.6552944E-1,4.479084E-1,5E-1,-1.0712488E0,-5.287763E-3,-2.2115573E-1,2.7236834E0,-8.165258E-1,3.3801186E1,-1.1037209E0,5E-1,4.167257E1,5E-1,-5.1215766E-3,7.708126E-3,3.501341E-4,1.5388238E-2,6.111973E-3,-4.6631936E-3,2.4444922E-3,1.20762475E-2,-1.3531701E-3,1.1309733E-2,1.9357204E-2,-4.634494E-3],"split_indices":[7,15,36,9,0,15,15,15,2,15,45,2,57,0,0,0,0,0,0,0,0,0,0,0,0],"split_type":[0,0,0,0,0,0,0,0,0,0,0,0,0,0,0,0,0,0,0,0,0,0,0,0,0],"sum_hessian":[4.3188937E2,3.521252E1,3.9667685E2,2.9756327E1,5.456195E0,5.457133E1,3.421055E2,6.8028703E0,2.2953457E1,1.755048E1,3.702085E1,3.3569244E2,6.413066E0,4.499511E0,2.3033595E0,2.9529405E0,2.0000515E1,1.9305712E0,1.5619908E1,1.8081165E1,1.8939684E1,3.3178894E2,3.9034908E0,3.5382311E0,2.874835E0],"tree_param":{"num_deleted":"0","num_feature":"60","num_nodes":"25","size_leaf_vector":"0"}},{"base_weights":[4.0245954E-2,1.0678353E-1,-3.9061636E-1,3.6902705E-1,-1.1774172E-2,-5.105185E-1,2.9459843E-1,6.6458166E-1,-8.6036455E-3,-2.4913976E-1,1.3445464E-1,-1.4294009E-1,-5.8302695E-1,1.3857845E0,-2.541388E-1,-1.4613278E-1,9.018774E-1,4.7341025E-1,-3.7595108E-1,-9.9004604E-2,-4.9994674E-1,6.3179135E-1,4.332329E-2,3.318647E-1,-5.15793E-1,5.095107E-1,-5.1561296E-1],"categories":[],"categories_nodes":[],"categories_segments":[],"categories_sizes":[],"default_left":[true,true,true,true,true,true,true,true,true,true,true,true,false,false,true,false,false,false,false,false,false,false,false,false,false,false,false],"id":29,"left_children":[1,3,5,7,9,11,13,15,17,19,21,23,-1,-1,25,-1,-1,-1,-1,-1,-1,-1,-1,-1,-1,-1,-1],"loss_changes":[1.2562994E1,1.1791561E1,4.9682255E0,1.3183033E1,9.129338E0,1.2565746E0,5.9609823E0,1.2875511E1,9.531069E0,3.7253203E0,7.351534E0,1.8720654E0,0E0,0E0,1.6759702E0,0E0,0E0,0E0,0E0,0E0,0E0,0E0,0E0,0E0,0E0,0E0,0E0],"parents":[2147483647,0,0,1,1,2,2,3,3,4,4,5,5,6,6,7,7,8,8,9,9,10,10,11,11,14,14],"right_children":[2,4,6,8,10,12,14,16,18,20,22,24,-1,-1,26,-1,-1,-1,-1,-1,-1,-1,-1,-1,-1,-1,-1],"split_conditions":[5E-1,-1.0085917E0,5E-1,-1.8416959E-1,-1.9955066E-1,5E-1,-5.502443E-1,5E-1,-1.3495909E-1,1.4189771E-1,5E-1,2.2495474E-1,-5.8302693E-3,1.3857845E-2,-9.375752E-1,-1.4613278E-3,9.018774E-3,4.734102E-3,-3.7595108E-3,-9.900461E-4,-4.999467E-3,6.3179135E-3,4.332329E-4,3.3186472E-3,-5.1579303E-3,5.095107E-3,-5.1561296E-3],"split_indices":[50,13,43,6,13,44,7,56,7,7,56,7,0,0,5,0,0,0,0,0,0,0,0,0,0,0,0],"split_type":[0,0,0,0,0,0,0,0,0,0,0,0,0,0,0,0,0,0,0,0,0,0,0,0,0,0,0],"sum_hessian":[4.357605E2,3.7812003E2,5.764048E1,1.170652E2,2.610548E2,4.9273346E1,8.367136E0,6.524275E1,5.182245E1,9.9247604E1,1.618072E2,8.607803E0,4.0665543E1,2.2893214E0,6.077814E0,1.485958E1,5.0383175E1,2.2288254E1,2.9534195E1,6.2956226E1,3.6291378E1,2.4139034E1,1.3766818E2,3.8346057E0,4.773198E0,1.308286E0,4.7695284E0],"tree_param":{"num_deleted":"0","num_feature":"60","num_nodes":"27","size_leaf_vector":"0"}},{"base_weights":[2.2224465E-2,8.879874E-1,-3.541426E-2,5.156819E-1,1.7626423E0,2.1306883E-1,-1.5495947E-1,1.4746296E-1,1.539335E0,7.1462536E-1,1.9366215E0,9.252493E-2,4.4754958E-1,4.992035E-2,-2.274282E-1,-8.2003705E-2,1.073294E0,1.8116613E-1,1.8111503E0,-1.5398894E-1,2.4650699E-1,-2.4782611E-1,6.177198E-1,-6.74956E-2,7.5415415E-1,-2.5236169E-1,3.683453E-1],"categories":[],"categories_nodes":[],"categories_segments":[],"categories_sizes":[],"default_left":[true,true,true,true,true,true,true,true,true,true,true,true,true,true,true,false,false,false,false,false,false,false,false,false,false,false,false],"id":30,"left_children":[1,3,5,7,-1,11,13,15,17,-1,-1,19,21,23,25,-1,-1,-1,-1,-1,-1,-1,-1,-1,-1,-1,-1],"loss_changes":[2.190008E1,8.01128E0,1.2266803E1,7.548228E0,3.189659E-2,3.7517405E0,4.1484966E0,3.5459583E0,1.6473665E0,0E0,0E0,3.450212E0,5.5140934E0,6.139026E0,3.1532822E0,0E0,0E0,0E0,0E0,0E0,0E0,0E0,0E0,0E0,0E0,0E0,0E0],"parents":[2147483647,0,0,1,1,2,2,3,3,4,4,5,5,6,6,7,7,8,8,11,11,12,12,13,13,14,14],"right_children":[2,4,6,8,-1,12,14,16,18,-1,-1,20,22,24,26,-1,-1,-1,-1,-1,-1,-1,-1,-1,-1,-1,-1],"split_conditions":[3.301853E1,-4.1760385E-1,-1.6129665E0,3.289277E1,1.7626422E-2,4.176484E-1,5E-1,8.652634E-2,5E-1,7.1462533E-3,1.9366216E-2,3.410819E1,5E-1,1.1902244E0,4.0198833E1,-8.2003704E-4,1.073294E-2,1.8116612E-3,1.8111503E-2,-1.5398894E-3,2.4650698E-3,-2.478261E-3,6.177198E-3,-6.7495595E-4,7.5415415E-3,-2.523617E-3,3.6834527E-3],"split_indices":[2,4,14,2,2,6,48,7,48,2147483647,2147483647,2,51,6,2,0,0,0,0,0,0,0,0,0,0,0,0],"split_type":[0,0,0,0,0,0,0,0,0,0,0,0,0,0,0,0,0,0,0,0,0,0,0,0,0,0,0],"sum_hessian":[4.3723624E2,2.6393055E1,4.1084317E2,1.962785E1,6.765205E0,1.3319849E2,2.776447E2,1.527671E1,4.3511395E0,1.6903572E0,5.0748477E0,8.889379E1,4.430469E1,7.262741E1,2.0501729E2,1.2972829E1,2.3038812E0,1.0034992E0,3.3476405E0,3.417773E1,5.471606E1,8.620784E0,3.5683907E1,6.3023712E1,9.603702E0,1.9733511E2,7.6821785E0],"tree_param":{"num_deleted":"2","num_feature":"60","num_nodes":"27","size_leaf_vector":"0"}},{"base_weights":[3.92488E-2,-3.933393E-2,3.603509E-1,8.772045E-2,-2.348107E-1,-2.4130513E-1,5.091504E-1,1.7840937E-1,-3.9532048E-1,-4.0454444E-1,1.5225288E-2,-5.0857663E-1,7.055639E-1,4.541792E-2,7.603964E-1,-1.6796286E-1,3.286378E-1,-5.352557E-1,5.3547657E-1,-2.301148E-1,-5.817038E-1,6.1497504E-1,-1.8569642E-1,-5.740418E-1,2.582613E-3,4.2926483E-3,1.1259042E0,-4.3974593E-1,2.9101235E-1,8.9152205E-1,-1.9393297E-1],"categories":[],"categories_nodes":[],"categories_segments":[],"categories_sizes":[],"default_left":[true,true,true,true,true,true,true,true,true,true,true,true,true,true,true,false,false,false,false,false,false,false,false,false,false,false,false,false,false,false,false],"id":31,"left_children":[1,3,5,7,9,11,13,15,17,19,21,23,25,27,29,-1,-1,-1,-1,-1,-1,-1,-1,-1,-1,-1,-1,-1,-1,-1,-1],"loss_changes":[1.0748817E1,8.531424E0,7.619853E0,9.200475E0,5.7466607E0,4.732533E0,7.825102E0,9.221706E0,4.618124E0,2.357006E0,6.821054E0,4.7194695E-1,1.2400837E0,3.0792427E0,5.6400986E0,0E0,0E0,0E0,0E0,0E0,0E0,0E0,0E0,0E0,0E0,0E0,0E0,0E0,0E0,0E0,0E0],"parents":[2147483647,0,0,1,1,2,2,3,3,4,4,5,5,6,6,7,7,8,8,9,9,10,10,11,11,12,12,13,13,14,14],"right_children":[2,4,6,8,10,12,14,16,18,20,22,24,26,28,30,-1,-1,-1,-1,-1,-1,-1,-1,-1,-1,-1,-1,-1,-1,-1,-1],"split_conditions":[3.8269356E1,1.09798014E-1,-4.6718723E-1,-1.17258156E2,1.0538263E0,5E-1,-1.6129665E0,-4.6718723E-1,5E-1,-1.1827819E2,3.3419037E1,4.1095078E1,3.939487E1,5E-1,1.268662E0,-1.6796286E-3,3.286378E-3,-5.3525567E-3,5.3547653E-3,-2.301148E-3,-5.8170375E-3,6.14975E-3,-1.8569642E-3,-5.7404176E-3,2.5826128E-5,4.292648E-5,1.1259042E-2,-4.3974593E-3,2.9101234E-3,8.91522E-3,-1.9393297E-3],"split_indices":[2,6,7,3,6,59,14,7,33,3,2,2,2,18,6,0,0,0,0,0,0,0,0,0,0,0,0,0,0,0,0],"split_type":[0,0,0,0,0,0,0,0,0,0,0,0,0,0,0,0,0,0,0,0,0,0,0,0,0,0,0,0,0,0,0],"sum_hessian":[4.2441943E2,3.4167856E2,8.274086E1,2.0741556E2,1.34263E2,1.6282495E1,6.645837E1,1.7516055E2,3.2255005E1,7.960572E1,5.4657284E1,1.3059183E1,3.2233124E0,2.3768639E1,4.2689728E1,5.2952736E1,1.2220781E2,2.8408976E1,3.8460317E0,4.1270264E1,3.833546E1,1.3198649E1,4.1458633E1,1.1467499E1,1.5916847E0,1.5865753E0,1.6367372E0,7.722518E0,1.6046122E1,3.7590565E1,5.0991616E0],"tree_param":{"num_deleted":"0","num_feature":"60","num_nodes":"31","size_leaf_vector":"0"}},{"base_weights":[-1.4659604E-2,7.8533806E-2,-3.5125735E-1,-1.7703624E-1,1.8761303E-1,-4.5278147E-1,1.8670619E-2,-2.4099189E-1,1.1526831E0,6.846352E-2,6.961196E-1,-5.2258664E-1,8.3954245E-2,6.0148877E-1,-4.8804998E-1,5.560717E-1,-2.9392242E-1,1.7905321E0,-3.510454E-1,-1.980241E-1,2.2293028E-1,3.885802E-1,1.429632E0,-1.8624227E-1,-5.7690984E-1,-5.365406E-1,1.4034598E0,-2.136034E-1,1.5451636E0,-2.3793627E-1,-5.528472E-1],"categories":[],"categories_nodes":[],"categories_segments":[],"categories_sizes":[],"default_left":[true,true,true,true,true,true,true,true,true,true,true,true,true,true,true,false,false,false,false,false,false,false,false,false,false,false,false,false,false,true,true],"id":32,"left_children":[1,3,5,7,9,11,13,15,17,19,21,23,25,27,-1,-1,-1,-1,-1,-1,-1,-1,-1,-1,-1,-1,-1,-1,-1,-1,-1],"loss_changes":[1.357446E1,9.484623E0,3.5321894E0,8.946365E0,1.4378626E1,2.8036776E0,6.544108E0,4.301384E0,5.280974E0,8.030385E0,9.616207E0,1.0860538E0,8.399198E0,8.245923E0,6.088972E-2,0E0,0E0,0E0,0E0,0E0,0E0,0E0,0E0,0E0,0E0,0E0,0E0,0E0,0E0,0E0,0E0],"parents":[2147483647,0,0,1,1,2,2,3,3,4,4,5,5,6,6,7,7,8,8,9,9,10,10,11,11,12,12,13,13,14,14],"right_children":[2,4,6,8,10,12,14,16,18,20,22,24,26,28,-1,-1,-1,-1,-1,-1,-1,-1,-1,-1,-1,-1,-1,-1,-1,-1,-1],"split_conditions":[3.8165462E1,3.360115E1,5E-1,1.2288259E0,-1.17903885E2,7.478595E-1,-1.0360968E0,-1.0598755E0,1.8433256E0,3.4226112E1,5E-1,-1.2285379E2,4.4644016E-1,-1.088156E0,-4.8804996E-3,5.560717E-3,-2.9392242E-3,1.7905321E-2,-3.510454E-3,-1.980241E-3,2.229303E-3,3.8858019E-3,1.4296319E-2,-1.8624227E-3,-5.769098E-3,-5.365406E-3,1.4034597E-2,-2.136034E-3,1.5451636E-2,-2.3793627E-3,-5.528472E-3],"split_indices":[2,2,55,5,3,9,15,9,13,2,55,3,7,15,7,0,0,0,0,0,0,0,0,0,0,0,0,0,0,2147483647,2147483647],"split_type":[0,0,0,0,0,0,0,0,0,0,0,0,0,0,0,0,0,0,0,0,0,0,0,0,0,0,0,0,0,0,0],"sum_hessian":[4.308597E2,3.3803503E2,9.282467E1,1.00931625E2,2.3710342E2,7.2659744E1,2.0164925E1,9.708107E1,3.8505535E0,1.9301274E2,4.4090683E1,6.4320854E1,8.338892E0,9.291285E0,1.087364E1,5.453463E0,9.162761E1,2.5697803E0,1.2807732E0,7.0721436E1,1.22291306E2,3.21436E1,1.19470825E1,9.559738E0,5.4761116E1,6.075349E0,2.2635431E0,5.4003873E0,3.890897E0,3.1987295E0,7.67491E0],"tree_param":{"num_deleted":"2","num_feature":"60","num_nodes":"31","size_leaf_vector":"0"}},{"base_weights":[-2.0324675E-2,8.3391917E-1,-7.746217E-2,1.2894623E0,-1.9691644E-2,-1.9613324E-1,1.4149092E-1,-3.4937367E-1,1.8976908E0,1.0286497E0,-5.495088E-1,-2.4543408E-1,1.3346477E-1,6.985685E-2,1.5561575E0,7.1819305E-2,-4.87816E-1,3.9730158E-1,-2.9397437E-1,4.6702343E-1,-5.7256067E-1,-4.7020465E-1,2.1107432E-1,3.7579533E-1,1.8333678E0],"categories":[],"categories_nodes":[],"categories_segments":[],"categories_sizes":[],"default_left":[true,true,true,true,true,true,true,true,false,false,false,true,true,true,true,false,false,false,false,false,false,false,false,false,false],"id":33,"left_children":[1,3,5,7,9,11,13,15,-1,-1,-1,17,19,21,23,-1,-1,-1,-1,-1,-1,-1,-1,-1,-1],"loss_changes":[2.20727E1,1.1050781E1,1.1032916E1,1.9105898E1,6.5922184E0,4.5028753E0,1.503656E1,3.763097E-1,0E0,0E0,0E0,7.593584E0,8.849484E0,1.1027916E1,1.6525497E0,0E0,0E0,0E0,0E0,0E0,0E0,0E0,0E0,0E0,0E0],"parents":[2147483647,0,0,1,1,2,2,3,3,4,4,5,5,6,6,7,7,11,11,12,12,13,13,14,14],"right_children":[2,4,6,8,10,12,14,16,-1,-1,-1,18,20,22,24,-1,-1,-1,-1,-1,-1,-1,-1,-1,-1],"split_conditions":[-1.0485865E0,-2.273011E-1,2.70144E-1,-1.0712726E0,-7.082441E-1,2.2731121E-1,1.9325936E0,-2.0612347E-1,1.8976908E-2,1.0286497E-2,-5.495088E-3,-1.4463401E0,1.029647E-1,-7.935945E-1,-2.457018E-1,7.18193E-4,-4.87816E-3,3.9730156E-3,-2.9397437E-3,4.6702344E-3,-5.7256063E-3,-4.7020465E-3,2.1107432E-3,3.7579532E-3,1.8333677E-2],"split_indices":[7,15,6,9,6,9,15,0,0,0,0,0,12,0,7,0,0,0,0,0,0,0,0,0,0],"split_type":[0,0,0,0,0,0,0,0,0,0,0,0,0,0,0,0,0,0,0,0,0,0,0,0,0],"sum_hessian":[4.4989932E2,2.7353355E1,4.22546E2,1.7502348E1,9.851007E0,2.7409344E2,1.4845255E2,4.8526783E0,1.2649671E1,2.9910815E0,6.859926E0,2.386516E2,3.5441833E1,1.422965E2,6.1560473E0,1.3195007E0,3.5331776E0,1.6253216E1,2.2239839E2,2.4299948E1,1.1141887E1,2.9012732E1,1.1328376E2,1.6188052E0,4.537242E0],"tree_param":{"num_deleted":"0","num_feature":"60","num_nodes":"25","size_leaf_vector":"0"}},{"base_weights":[3.382986E-2,1.0461389E-1,-4.109201E-1,3.6699116E-1,-1.93938E-2,1.8957089E-1,-5.122374E-1,1.1042823E0,1.8661599E-1,-2.723139E-1,8.65265E-2,1.2983251E0,-5.2586436E-1,-9.0947255E-2,-6.062917E-1,1.3464041E0,-4.6389347E-1,7.404473E-2,1.4239597E0,-3.721197E-1,8.0154175E-1,-8.8621065E-2,3.185379E-1,4.6589848E-1,-5.2580464E-1],"categories":[],"categories_nodes":[],"categories_segments":[],"categories_sizes":[],"default_left":[true,true,true,true,true,true,true,true,true,true,true,false,false,true,false,false,false,false,false,false,false,false,false,false,false],"id":34,"left_children":[1,3,5,7,9,11,13,15,17,19,21,-1,-1,23,-1,-1,-1,-1,-1,-1,-1,-1,-1,-1,-1],"loss_changes":[1.3688442E1,1.219968E1,3.730256E0,1.5794865E1,6.8659344E0,8.1002655E0,1.9801693E0,9.526836E0,1.35270405E1,8.404343E0,7.3744926E0,0E0,0E0,2.7998943E0,0E0,0E0,0E0,0E0,0E0,0E0,0E0,0E0,0E0,0E0,0E0],"parents":[2147483647,0,0,1,1,2,2,3,3,4,4,5,5,6,6,7,7,8,8,9,9,10,10,13,13],"right_children":[2,4,6,8,10,12,14,16,18,20,22,-1,-1,24,-1,-1,-1,-1,-1,-1,-1,-1,-1,-1,-1],"split_conditions":[5E-1,-8.772242E-1,5E-1,-6.3330126E-1,5E-1,-1.6111955E-3,5E-1,-9.5945805E-1,-8.8570845E-1,-1.171758E2,6.988506E-2,1.298325E-2,-5.2586435E-3,2.2495474E-1,-6.062917E-3,1.346404E-2,-4.6389345E-3,7.4044726E-4,1.4239597E-2,-3.721197E-3,8.0154175E-3,-8.8621065E-4,3.1853789E-3,4.658985E-3,-5.258046E-3],"split_indices":[50,12,42,7,20,6,44,5,12,3,6,0,0,7,0,0,0,0,0,0,0,0,0,0,0],"split_type":[0,0,0,0,0,0,0,0,0,0,0,0,0,0,0,0,0,0,0,0,0,0,0,0,0],"sum_hessian":[4.3244778E2,3.7373145E2,5.8716328E1,1.19317764E2,2.5441368E2,8.350896E0,5.036543E1,2.2446129E1,9.6871635E1,7.463257E1,1.7978111E2,2.9556336E0,5.3952622E0,9.551058E0,4.0814373E1,1.9566532E1,2.8795962E0,8.976484E1,7.106799E0,6.8883865E1,5.7487E0,1.0279685E2,7.698427E1,4.1567955E0,5.394263E0],"tree_param":{"num_deleted":"0","num_feature":"60","num_nodes":"25","size_leaf_vector":"0"}},{"base_weights":[1.1640986E-2,9.619745E-1,-5.9942726E-2,1.4310522E0,3.63124E-1,2.7820715E-1,-2.1311842E-1,1.7991055E0,3.7545127E-1,-3.3239228E-1,7.036507E-1,-2.4755332E-1,4.4315636E-1,-2.4253634E-1,3.8416517E-1,1.9806063E0,5.809765E-1,-2.455024E-1,1.341604E0,7.326449E-2,-4.7671413E-1,1.1851817E0,-2.468927E-1,-5.426584E-1,-1.436967E-1,5.659127E-1,-1.053723E-1,6.848008E-2,-3.0785647E-1,6.1813E-1,-4.4762695E-1],"categories":[],"categories_nodes":[],"categories_segments":[],"categories_sizes":[],"default_left":[true,true,true,true,true,true,true,true,true,true,true,true,true,true,true,false,false,false,false,false,false,false,false,false,false,false,false,false,false,false,false],"id":35,"left_children":[1,3,5,7,9,11,13,15,17,19,21,23,25,27,29,-1,-1,-1,-1,-1,-1,-1,-1,-1,-1,-1,-1,-1,-1,-1,-1],"loss_changes":[2.9614803E1,8.04619E0,2.1036236E1,5.835869E0,3.7235174E0,1.1097012E1,5.000635E0,1.5384407E0,3.6869092E0,3.582093E-1,4.966837E0,8.689822E-1,6.5774136E0,5.4412603E0,2.9034204E0,0E0,0E0,0E0,0E0,0E0,0E0,0E0,0E0,0E0,0E0,0E0,0E0,0E0,0E0,0E0,0E0],"parents":[2147483647,0,0,1,1,2,2,3,3,4,4,5,5,6,6,7,7,8,8,9,9,10,10,11,11,12,12,13,13,14,14],"right_children":[2,4,6,8,10,12,14,16,18,20,22,24,26,28,30,-1,-1,-1,-1,-1,-1,-1,-1,-1,-1,-1,-1,-1,-1,-1,-1],"split_conditions":[3.3184555E1,-1.1718422E2,-1.6129665E0,5E-1,3.2844727E1,5E-1,4.0198833E1,-8.3405696E-2,-1.17209755E2,3.2750336E1,1.3931031E0,-1.6264476E-1,5E-1,3.3553417E1,4.1874397E1,1.9806063E-2,5.809765E-3,-2.4550238E-3,1.341604E-2,7.3264487E-4,-4.7671413E-3,1.1851817E-2,-2.468927E-3,-5.426584E-3,-1.4369669E-3,5.659127E-3,-1.053723E-3,6.848008E-4,-3.0785645E-3,6.1813E-3,-4.4762692E-3],"split_indices":[2,3,14,25,2,36,2,10,3,2,0,7,50,2,2,0,0,0,0,0,0,0,0,0,0,0,0,0,0,0,0],"split_type":[0,0,0,0,0,0,0,0,0,0,0,0,0,0,0,0,0,0,0,0,0,0,0,0,0,0,0,0,0,0,0],"sum_hessian":[4.3348236E2,2.949347E1,4.039889E2,1.5759465E1,1.3734005E1,1.2569312E2,2.7829578E2,1.1162965E1,4.5965004E0,4.5219455E0,9.212059E0,2.9897331E1,9.579579E1,2.6579837E2,1.2497392E1,9.170607E0,1.9923583E0,3.25219E0,1.3443104E0,1.3158202E0,3.206125E0,5.950685E0,3.2613742E0,6.682932E0,2.32144E1,7.825194E1,1.7543854E1,4.6125805E1,2.1967258E2,9.954328E0,2.5430639E0],"tree_param":{"num_deleted":"0","num_feature":"60","num_nodes":"31","size_leaf_vector":"0"}},{"base_weights":[-1.5539434E-2,3.882479E-2,-4.1600335E-1,1.7103674E-1,-1.4812611E-1,-5.1796246E-1,1.7029847E-1,-1.6804226E-1,2.9055983E-1,-2.0825693E-1,8.0913687E-1,-1.0765465E-1,-5.804884E-1,-3.713573E-1,1.30518E0,-4.3321407E-1,2.1274376E-1,2.4878374E-1,1.691463E0,1.5673462E0,-2.433739E-1,1.7671944E0,8.95574E-2,-5.144082E-1,9.64984E-1,-6.0442156E-1,-3.432664E-1,2.9692517E-3,-4.952326E-1],"categories":[],"categories_nodes":[],"categories_segments":[],"categories_sizes":[],"default_left":[true,true,true,true,true,true,true,true,true,true,true,true,true,true,false,false,false,false,false,false,false,false,false,false,false,true,true,false,false],"id":36,"left_children":[1,3,5,7,9,11,13,15,17,19,21,23,-1,27,-1,-1,-1,-1,-1,-1,-1,-1,-1,-1,-1,-1,-1,-1,-1],"loss_changes":[9.324938E0,9.353252E0,3.1484404E0,9.026527E0,9.197918E0,1.0626364E0,5.6091056E0,5.9857087E0,9.186101E0,9.634186E0,6.374448E0,3.5623128E0,7.297516E-3,2.992329E-1,0E0,0E0,0E0,0E0,0E0,0E0,0E0,0E0,0E0,0E0,0E0,0E0,0E0,0E0,0E0],"parents":[2147483647,0,0,1,1,2,2,3,3,4,4,5,5,6,6,7,7,8,8,9,9,10,10,11,11,12,12,13,13],"right_children":[2,4,6,8,10,12,14,16,18,20,22,24,-1,28,-1,-1,-1,-1,-1,-1,-1,-1,-1,-1,-1,-1,-1,-1,-1],"split_conditions":[-1.17288635E2,1.0389784E-1,-1.1634667E2,-4.6718723E-1,1.925519E0,-6.803105E-1,-3.289011E-1,-6.933201E-1,1.4599344E-1,-1.6126869E0,9.258323E-1,-8.34949E-1,-5.804884E-3,-1.2658179E0,1.30517995E-2,-4.3321406E-3,2.1274376E-3,2.4878373E-3,1.691463E-2,1.5673462E-2,-2.433739E-3,1.7671943E-2,8.95574E-4,-5.1440815E-3,9.64984E-3,-6.0442155E-3,-3.4326639E-3,2.9692517E-5,-4.952326E-3],"split_indices":[3,6,3,7,12,8,15,6,12,8,8,12,3,5,0,0,0,0,0,0,0,0,0,0,0,2147483647,2147483647,0,0],"split_type":[0,0,0,0,0,0,0,0,0,0,0,0,0,0,0,0,0,0,0,0,0,0,0,0,0,0,0,0,0],"sum_hessian":[4.2657913E2,3.7638654E2,5.0192593E1,2.2051976E2,1.5586678E2,4.2856346E1,7.3362474E0,5.7367123E1,1.6315263E2,1.4739082E2,8.475962E0,6.0270925E0,3.6829254E1,5.4214697E0,1.9147779E0,3.3736214E1,2.363091E1,1.5957167E2,3.5809703E0,2.0122883E0,1.4537852E2,3.0110884E0,5.464873E0,4.747303E0,1.2797894E0,3.2048027E1,4.781225E0,1.5907054E0,3.8307643E0],"tree_param":{"num_deleted":"2","num_feature":"60","num_nodes":"29","size_leaf_vector":"0"}},{"base_weights":[-1.9084231E-3,-3.4661822E-2,4.8051533E-1,8.567815E-1,-5.0470725E-2,8.3587134E-1,-5.444976E-1,-3.8306165E-1,1.2798512E0,-3.4037983E-1,-1.1001611E-2,1.3750466E0,-8.961975E-2,1.8450398E0,-3.4969822E-1,-3.9490908E-1,7.548041E-1,7.5565785E-1,-4.288098E-2,3.2515508E-1,1.7703949E0,1.3921397E0,-5.389092E-1],"categories":[],"categories_nodes":[],"categories_segments":[],"categories_sizes":[],"default_left":[true,true,true,true,true,true,false,false,true,true,true,true,true,false,false,false,false,false,false,false,false,false,false],"id":37,"left_children":[1,3,5,7,9,11,-1,-1,13,15,17,19,21,-1,-1,-1,-1,-1,-1,-1,-1,-1,-1],"loss_changes":[6.8788724E0,5.7876053E0,1.0536723E1,4.245064E0,4.589865E0,1.0575936E1,0E0,0E0,5.772853E0,3.168942E0,8.693689E0,4.9436893E0,6.5088367E0,0E0,0E0,0E0,0E0,0E0,0E0,0E0,0E0,0E0,0E0],"parents":[2147483647,0,0,1,1,2,2,3,3,4,4,5,5,8,8,9,9,10,10,11,11,12,12],"right_children":[2,4,6,8,10,12,-1,-1,14,16,18,20,22,-1,-1,-1,-1,-1,-1,-1,-1,-1,-1],"split_conditions":[1.0099976E0,-1.0712845E0,5E-1,-1.0714628E0,-1.0695436E0,1.3179983E-1,-5.444976E-3,-3.8306164E-3,1.8008125E-1,1.3586934E0,-1.0384643E0,5E-1,1.075646E0,1.8450398E-2,-3.4969822E-3,-3.949091E-3,7.5480407E-3,7.556578E-3,-4.2880978E-4,3.2515507E-3,1.7703949E-2,1.3921397E-2,-5.389092E-3],"split_indices":[5,9,55,9,15,15,0,0,15,10,15,20,5,0,0,0,0,0,0,0,0,0,0],"split_type":[0,0,0,0,0,0,0,0,0,0,0,0,0,0,0,0,0,0,0,0,0,0,0],"sum_hessian":[4.3328955E2,4.0661145E2,2.6678091E1,6.158275E0,4.004532E2,1.9947226E1,6.730866E0,1.5908157E0,4.567459E0,4.7072395E1,3.5338077E2,1.2297288E1,7.6499376E0,3.2930627E0,1.2743965E0,4.5448906E1,1.6234906E0,1.3201334E1,3.4017944E2,3.8624835E0,8.434804E0,1.2916224E0,6.358315E0],"tree_param":{"num_deleted":"0","num_feature":"60","num_nodes":"23","size_leaf_vector":"0"}},{"base_weights":[2.7748263E-2,9.2595077E-1,-5.1819656E-2,1.3005006E0,1.3741782E-1,3.8771272E-1,-1.2353348E-1,-4.4988108E-1,1.5302043E0,-5.193651E-1,6.1368924E-1,7.590272E-1,2.9693725E-2,-1.7292105E-1,4.1696626E-1,-3.8487262E-1,1.7037293E0,-4.733482E-1,1.4655876E0,1.252483E0,2.3179539E-1,5.529435E-1,-2.4848984E-1,-1.9914101E-1,6.937638E-1,-2.0281911E-1,7.44927E-1],"categories":[],"categories_nodes":[],"categories_segments":[],"categories_sizes":[],"default_left":[true,true,true,true,true,true,true,false,true,false,true,true,true,true,true,false,false,false,false,false,false,false,false,false,false,false,false],"id":38,"left_children":[1,3,5,7,9,11,13,-1,15,-1,17,19,21,23,25,-1,-1,-1,-1,-1,-1,-1,-1,-1,-1,-1,-1],"loss_changes":[3.1313177E1,1.0351221E1,1.2744926E1,1.0359554E1,4.2599573E0,7.5211267E0,9.336821E0,0E0,7.7972336E0,0E0,7.881509E0,6.946186E0,4.4941263E0,7.380904E0,6.1171813E0,0E0,0E0,0E0,0E0,0E0,0E0,0E0,0E0,0E0,0E0,0E0,0E0],"parents":[2147483647,0,0,1,1,2,2,3,3,4,4,5,5,6,6,8,8,10,10,11,11,12,12,13,13,14,14],"right_children":[2,4,6,8,10,12,14,-1,16,-1,18,20,22,24,26,-1,-1,-1,-1,-1,-1,-1,-1,-1,-1,-1,-1],"split_conditions":[-1.3791001E0,-1.1844942E2,5E-1,-1.6046259E0,-1.5867128E0,5E-1,1.4762094E0,-4.4988105E-3,-1.3381746E0,-5.1936507E-3,-6.304081E-1,1.2337031E0,5E-1,4.0677597E1,-8.0644083E-1,-3.8487262E-3,1.7037293E-2,-4.733482E-3,1.4655876E-2,1.252483E-2,2.3179539E-3,5.5294354E-3,-2.4848983E-3,-1.99141E-3,6.937638E-3,-2.028191E-3,7.4492698E-3],"split_indices":[8,3,36,8,8,44,6,0,6,0,0,8,38,2,9,0,0,0,0,0,0,0,0,0,0,0,0],"split_type":[0,0,0,0,0,0,0,0,0,0,0,0,0,0,0,0,0,0,0,0,0,0,0,0,0,0,0],"sum_hessian":[4.364706E2,3.4652996E1,4.018176E2,2.3053442E1,1.1599555E1,5.5745895E1,3.4607172E2,2.563163E0,2.0490278E1,4.837758E0,6.761797E0,2.6815004E1,2.893089E1,3.1772043E2,2.8351278E1,1.6011808E0,1.8889097E1,3.1661255E0,3.5956714E0,1.3140625E1,1.367438E1,9.699294E0,1.9231596E1,3.0913824E2,8.582186E0,9.942799E0,1.840848E1],"tree_param":{"num_deleted":"0","num_feature":"60","num_nodes":"27","size_leaf_vector":"0"}},{"base_weights":[-3.256363E-2,3.2707304E-2,-4.2854312E-1,3.2477447E-1,-8.399207E-2,1.1326133E-1,-5.3002113E-1,2.3389201E-1,1.7255738E0,2.9990703E-1,-1.560419E-1,6.027498E-1,-5.0129354E-1,-5.830575E-1,-2.1308118E-1,1.0483357E0,1.2990665E-1,1.9320846E0,5.2415067E-1,-2.6449907E-1,1.004572E0,-2.2025174E-1,3.5121503E-1,-4.4540304E-1,1.4435941E0,-2.998574E-1,-6.0488707E-1,-5.1185316E-1,2.4688734E-1],"categories":[],"categories_nodes":[],"categories_segments":[],"categories_sizes":[],"default_left":[true,true,true,true,true,true,true,true,true,true,true,true,false,true,true,false,false,false,false,false,false,false,false,false,false,true,true,false,false],"id":39,"left_children":[1,3,5,7,9,11,13,15,17,19,21,23,-1,-1,27,-1,-1,-1,-1,-1,-1,-1,-1,-1,-1,-1,-1,-1,-1],"loss_changes":[1.0989984E1,1.2485122E1,3.3679895E0,1.2906925E1,7.292297E0,3.4050922E0,7.305212E-1,8.276971E0,5.2884674E-1,1.6864838E1,7.282489E0,6.103549E0,0E0,8.435726E-2,1.3446976E0,0E0,0E0,0E0,0E0,0E0,0E0,0E0,0E0,0E0,0E0,0E0,0E0,0E0,0E0],"parents":[2147483647,0,0,1,1,2,2,3,3,4,4,5,5,6,6,7,7,8,8,9,9,10,10,11,11,13,13,14,14],"right_children":[2,4,6,8,10,12,14,16,18,20,22,24,-1,-1,28,-1,-1,-1,-1,-1,-1,-1,-1,-1,-1,-1,-1,-1,-1],"split_conditions":[5E-1,-9.415069E-1,5E-1,-9.59286E-1,5E-1,1.6074857E-1,-5.260804E-1,-1.22038086E2,-4.2493507E-1,9.998258E-2,-1.1720274E2,5E-1,-5.0129355E-3,-5.8305752E-3,-1.5059307E-2,1.0483356E-2,1.2990665E-3,1.9320846E-2,5.2415067E-3,-2.6449906E-3,1.004572E-2,-2.2025174E-3,3.5121504E-3,-4.45403E-3,1.443594E-2,-2.998574E-3,-6.0488707E-3,-5.1185316E-3,2.4688733E-3],"split_indices":[50,9,42,9,56,8,12,3,15,12,3,56,0,3,15,0,0,0,0,0,0,0,0,0,0,2147483647,2147483647,0,0],"split_type":[0,0,0,0,0,0,0,0,0,0,0,0,0,0,0,0,0,0,0,0,0,0,0,0,0,0,0,0,0],"sum_hessian":[4.2366876E2,3.6450354E2,5.9165222E1,1.0355363E2,2.609499E2,9.315015E0,4.985021E1,9.834037E1,5.2132554E0,4.0736008E1,2.202139E2,5.1958036E0,4.1192107E0,4.1984856E1,7.8653536E0,1.0105961E1,8.8234406E1,3.9296336E0,1.2836219E0,2.2965935E1,1.7770073E1,1.9597295E2,2.4240944E1,2.5221336E0,2.6736703E0,4.059266E0,3.7925587E1,4.699803E0,3.1655512E0],"tree_param":{"num_deleted":"2","num_feature":"60","num_nodes":"29","size_leaf_vector":"0"}},{"base_weights":[1.5059861E-3,2.9260123E-1,-1.4548157E-1,3.945978E-1,-2.0578459E-1,-2.1115202E-1,1.391825E-1,3.7773788E-2,5.4539657E-1,-5.573327E-2,-5.4292244E-1,-2.509882E-1,2.567137E-1,1.36305E0,1.9539775E-2,7.9667425E-1,-5.1286608E-2,6.801708E-1,-1.6331439E-1,-4.452737E-1,2.8003037E-1,-3.453011E-1,-1.0319361E-1,8.273756E-1,-2.1000755E-1,8.948948E-2,1.7935822E0,-2.3399226E-1,4.4513902E-1],"categories":[],"categories_nodes":[],"categories_segments":[],"categories_sizes":[],"default_left":[true,true,true,true,true,true,true,true,true,true,false,true,true,true,true,false,false,false,false,false,false,false,false,false,false,false,false,false,false],"id":40,"left_children":[1,3,5,7,9,11,13,15,17,19,-1,21,23,25,27,-1,-1,-1,-1,-1,-1,-1,-1,-1,-1,-1,-1,-1,-1],"loss_changes":[1.8523203E1,7.4648476E0,5.4070354E0,6.485819E0,1.2513057E0,4.428342E0,7.9574423E0,2.5412953E0,8.222532E0,2.563368E0,0E0,2.9790068E0,5.1985025E0,2.493926E0,5.573216E0,0E0,0E0,0E0,0E0,0E0,0E0,0E0,0E0,0E0,0E0,0E0,0E0,0E0,0E0],"parents":[2147483647,0,0,1,1,2,2,3,3,4,4,5,5,6,6,7,7,8,8,9,9,11,11,12,12,13,13,14,14],"right_children":[2,4,6,8,10,12,14,16,18,20,-1,22,24,26,28,-1,-1,-1,-1,-1,-1,-1,-1,-1,-1,-1,-1,-1,-1],"split_conditions":[-1.6129665E0,9.105762E-3,1.0243254E0,5E-1,-1.4451185E-1,7.235203E-1,1.1523938E0,-1.1951822E0,5E-1,4.3975508E-1,-5.429224E-3,1.2024931E-1,1.344456E0,4.4662207E-1,1.4189771E-1,7.966742E-3,-5.1286607E-4,6.8017077E-3,-1.6331439E-3,-4.452737E-3,2.8003037E-3,-3.453011E-3,-1.031936E-3,8.273756E-3,-2.1000754E-3,8.948948E-4,1.7935822E-2,-2.3399226E-3,4.45139E-3],"split_indices":[14,12,6,28,11,9,6,6,50,12,0,0,9,0,7,0,0,0,0,0,0,0,0,0,0,0,0,0,0],"split_type":[0,0,0,0,0,0,0,0,0,0,0,0,0,0,0,0,0,0,0,0,0,0,0,0,0,0,0,0,0],"sum_hessian":[4.3091788E2,1.4425116E2,2.8666672E2,1.1991778E2,2.4333384E1,2.3314069E2,5.352604E1,3.599529E1,8.392249E1,1.7645252E1,6.6881313E0,2.1527478E2,1.7865911E1,3.8411274E0,4.9684914E1,2.9460568E0,3.304923E1,7.054698E1,1.337551E1,8.017498E0,9.627754E0,1.3059877E2,8.4676E1,7.69026E0,1.01756525E1,1.2756059E0,2.5655215E0,3.1418768E1,1.8266144E1],"tree_param":{"num_deleted":"0","num_feature":"60","num_nodes":"29","size_leaf_vector":"0"}},{"base_weights":[-1.4854776E-2,-2.6416695E-1,5.5333856E-2,1.256302E0,-3.1076297E-1,2.0844372E-1,-1.277957E-1,-4.4764295E-1,-1.0217544E-1,1.6552411E-1,1.1771263E0,-1.9757257E-1,6.003377E-1,-3.1253693E-1,-5.6511676E-1,-3.0908903E-1,2.533352E-1,1.23085566E-1,8.725858E-1,1.6602011E0,-3.8374978E-1,2.285033E-1,-2.8949103E-1,9.438241E-2,1.8044307E0],"categories":[],"categories_nodes":[],"categories_segments":[],"categories_sizes":[],"default_left":[true,true,true,false,true,true,true,true,true,true,true,true,true,false,false,false,false,false,false,false,false,false,false,false,false],"id":41,"left_children":[1,3,5,-1,7,9,11,13,15,17,19,21,23,-1,-1,-1,-1,-1,-1,-1,-1,-1,-1,-1,-1],"loss_changes":[7.4589844E0,7.023914E0,9.357698E0,0E0,2.5709438E0,7.3565354E0,7.84932E0,6.969385E-1,2.844761E0,5.146408E0,6.324279E0,5.533671E0,8.086915E0,0E0,0E0,0E0,0E0,0E0,0E0,0E0,0E0,0E0,0E0,0E0,0E0],"parents":[2147483647,0,0,1,1,2,2,4,4,5,5,6,6,7,7,8,8,9,9,10,10,11,11,12,12],"right_children":[2,4,6,-1,8,10,12,14,16,18,20,22,24,-1,-1,-1,-1,-1,-1,-1,-1,-1,-1,-1,-1],"split_conditions":[-5.2255857E-1,-1.6108955E0,3.9984882E-1,1.256302E-2,5.673362E-1,8.5681766E-1,5E-1,5E-1,5E-1,6.696328E-1,1.3931031E0,-1.9033045E-1,1.0537632E0,-3.125369E-3,-5.6511676E-3,-3.0908904E-3,2.533352E-3,1.2308556E-3,8.725857E-3,1.660201E-2,-3.8374977E-3,2.285033E-3,-2.8949103E-3,9.438241E-4,1.8044306E-2],"split_indices":[7,8,8,0,8,5,22,57,44,4,0,7,5,0,0,0,0,0,0,0,0,0,0,0,0],"split_type":[0,0,0,0,0,0,0,0,0,0,0,0,0,0,0,0,0,0,0,0,0,0,0,0,0],"sum_hessian":[4.244196E2,9.263029E1,3.317893E2,1.9823668E0,9.064792E1,1.8063055E2,1.5115874E2,5.4039734E1,3.660819E1,1.7408807E2,6.5424786E0,1.3860492E2,1.2553822E1,2.6836126E1,2.7203608E1,2.3222723E1,1.3385465E1,1.6533838E2,8.749695E0,4.9476113E0,1.5948675E0,2.4331863E1,1.1427306E2,9.59882E0,2.9550023E0],"tree_param":{"num_deleted":"0","num_feature":"60","num_nodes":"25","size_leaf_vector":"0"}},{"base_weights":[-1.7094938E-2,8.2735606E-2,-2.4547438E-1,-2.2593972E-1,2.3040615E-1,-3.4542948E-1,2.0887667E-1,5.603975E-1,-2.925009E-1,1.9319741E-1,1.2038212E0,-3.8739386E-1,3.4779987E-1,-2.6508802E-1,9.259877E-1,-1.460285E-1,1.4732752E0,-3.7554204E-1,1.8386945E-1,2.6437673E-1,-5.351719E-1,-3.4836453E-1,1.5788816E0,1.7386338E-1,-4.0884256E-1,1.3848177E0,-4.859806E-1,1.7576954E-1,-4.0763444E-1,1.2162055E0,-3.823957E-1],"categories":[],"categories_nodes":[],"categories_segments":[],"categories_sizes":[],"default_left":[true,true,true,true,true,true,true,true,true,true,true,true,true,true,true,false,false,false,false,false,false,false,false,false,false,false,false,false,false,false,false],"id":42,"left_children":[1,3,5,7,9,11,13,15,17,19,21,23,25,27,29,-1,-1,-1,-1,-1,-1,-1,-1,-1,-1,-1,-1,-1,-1,-1,-1],"loss_changes":[1.0018358E1,1.3995146E1,6.1412315E0,5.371097E0,7.2793617E0,3.3322878E0,8.647843E0,5.4432793E0,3.7235007E0,1.055998E1,4.88412E0,1.3244419E0,6.553315E0,1.05585E0,4.2849674E0,0E0,0E0,0E0,0E0,0E0,0E0,0E0,0E0,0E0,0E0,0E0,0E0,0E0,0E0,0E0,0E0],"parents":[2147483647,0,0,1,1,2,2,3,3,4,4,5,5,6,6,7,7,8,8,9,9,10,10,11,11,12,12,13,13,14,14],"right_children":[2,4,6,8,10,12,14,16,18,20,22,24,26,28,30,-1,-1,-1,-1,-1,-1,-1,-1,-1,-1,-1,-1,-1,-1,-1,-1],"split_conditions":[3.758129E1,3.360115E1,1.2951913E0,-1.4463401E0,3.74553E1,5E-1,3.319223E-1,5E-1,3.3285153E-1,3.7233574E1,-9.341784E-1,-1.5768892E0,-1.02998E-2,-3.9657593E-1,5E-1,-1.460285E-3,1.4732751E-2,-3.7554204E-3,1.8386944E-3,2.6437673E-3,-5.351719E-3,-3.4836452E-3,1.5788816E-2,1.7386337E-3,-4.0884255E-3,1.3848177E-2,-4.859806E-3,1.7576953E-3,-4.0763444E-3,1.2162055E-2,-3.8239572E-3],"split_indices":[2,2,0,0,2,26,6,58,13,2,13,0,0,6,23,0,0,0,0,0,0,0,0,0,0,0,0,0,0,0,0],"split_type":[0,0,0,0,0,0,0,0,0,0,0,0,0,0,0,0,0,0,0,0,0,0,0,0,0,0,0,0,0,0,0],"sum_hessian":[4.3752545E2,3.0488855E2,1.326369E2,9.8488434E1,2.064001E2,1.08915695E2,2.3721207E1,7.107144E0,9.138129E1,1.999553E2,6.4448056E0,1.0311485E2,5.800848E0,1.4661337E1,9.05987E0,4.4801984E0,2.6269455E0,7.799655E1,1.3384741E1,1.8273473E2,1.7220577E1,1.2680724E0,5.1767335E0,3.5339694E0,9.958088E1,2.2907846E0,3.5100632E0,3.5253415E0,1.1135996E1,7.4727592E0,1.5871111E0],"tree_param":{"num_deleted":"0","num_feature":"60","num_nodes":"31","size_leaf_vector":"0"}},{"base_weights":[-1.1163715E-2,-8.873468E-2,4.724695E-1,-1.03862785E-1,1.4693165E0,1.0282145E0,-1.2887003E-1,2.3920853E-1,-1.5763877E-1,-3.485199E-1,1.2958971E0,9.855708E-2,-5.639362E-1,-5.678866E-1,4.5157352E-1,4.354025E-2,-2.0871258E-1,-4.875262E-1,7.4314326E-2,-4.3044838E-1,1.4741406E0,-5.389917E-1,4.3027386E-1],"categories":[],"categories_nodes":[],"categories_segments":[],"categories_sizes":[],"default_left":[true,true,true,true,false,true,true,true,true,true,true,true,false,false,false,false,false,false,false,false,false,false,false],"id":43,"left_children":[1,3,5,7,-1,9,11,13,15,17,19,21,-1,-1,-1,-1,-1,-1,-1,-1,-1,-1,-1],"loss_changes":[1.6153574E1,8.895858E0,2.0023365E1,6.83265E0,0E0,1.1892124E1,2.9720712E0,8.878847E0,3.2868404E0,3.7957025E-1,8.697243E0,4.505655E0,0E0,0E0,0E0,0E0,0E0,0E0,0E0,0E0,0E0,0E0,0E0],"parents":[2147483647,0,0,1,1,2,2,3,3,5,5,6,6,7,7,8,8,9,9,10,10,11,11],"right_children":[2,4,6,8,-1,10,12,14,16,18,20,22,-1,-1,-1,-1,-1,-1,-1,-1,-1,-1,-1],"split_conditions":[5E-1,2.6827402E0,6.8492286E-2,5E-1,1.4693164E-2,-1.0712488E0,9.0918265E-2,-1.0469894E0,-1.0355244E0,5E-1,3.3199684E1,1.2020053E0,-5.6393617E-3,-5.6788656E-3,4.515735E-3,4.354025E-4,-2.0871258E-3,-4.875262E-3,7.4314326E-4,-4.3044835E-3,1.4741406E-2,-5.3899167E-3,4.3027387E-3],"split_indices":[50,13,11,36,0,9,5,5,9,57,2,11,0,0,0,0,0,0,0,0,0,0,0],"split_type":[0,0,0,0,0,0,0,0,0,0,0,0,0,0,0,0,0,0,0,0,0,0,0],"sum_hessian":[4.2846194E2,3.699426E2,5.8519356E1,3.6730948E2,2.6331024E0,3.0043724E1,2.8475632E1,4.930611E1,3.180034E2,4.8414392E0,2.5202286E1,1.9208185E1,9.267447E0,9.922281E0,3.938383E1,6.441623E1,2.5358714E2,3.5284643E0,1.3129753E0,2.2261703E0,2.2976114E1,6.3598695E0,1.2848315E1],"tree_param":{"num_deleted":"0","num_feature":"60","num_nodes":"23","size_leaf_vector":"0"}},{"base_weights":[-3.7574049E-3,-2.9569745E-2,1.0826365E0,-5.3796107E-1,1.3390217E-2,1.4937E0,-4.0659764E-1,-5.961508E-1,-2.1182482E-1,3.5512596E-1,-8.554286E-2,1.9391928E0,5.533441E-1,5.301408E-1,-5.00593E-1,7.902948E-1,-2.8755622E-2,-7.1206745E-3,-3.6599234E-1,1.367721E0,-3.848248E-1],"categories":[],"categories_nodes":[],"categories_segments":[],"categories_sizes":[],"default_left":[true,true,true,true,true,true,false,false,true,true,true,false,true,false,false,false,false,false,false,false,false],"id":44,"left_children":[1,3,5,7,9,11,-1,-1,13,15,17,-1,19,-1,-1,-1,-1,-1,-1,-1,-1],"loss_changes":[1.1749922E1,8.943013E0,6.5603704E0,4.7917843E-1,1.2818164E1,2.2091656E0,0E0,0E0,1.6326773E0,1.4240753E1,6.4662375E0,0E0,3.519679E0,0E0,0E0,0E0,0E0,0E0,0E0,0E0,0E0],"parents":[2147483647,0,0,1,1,2,2,3,3,4,4,5,5,8,8,9,9,10,10,12,12],"right_children":[2,4,6,8,10,12,-1,-1,14,16,18,-1,20,-1,-1,-1,-1,-1,-1,-1,-1],"split_conditions":[2.88278E0,-9.6552944E-1,6.7968565E-1,6.682348E-1,-4.1181588E-1,5E-1,-4.0659765E-3,-5.961508E-3,1.073275E0,-3.5041577E-1,7.5971013E-1,1.9391928E-2,-1.2220521E0,5.301408E-3,-5.00593E-3,7.902948E-3,-2.875562E-4,-7.120674E-5,-3.6599233E-3,1.367721E-2,-3.848248E-3],"split_indices":[7,7,6,15,7,34,0,0,15,6,15,0,5,0,0,0,0,0,0,0,0],"split_type":[0,0,0,0,0,0,0,0,0,0,0,0,0,0,0,0,0,0,0,0,0],"sum_hessian":[4.1686447E2,4.0813998E2,8.724483E0,3.0903488E1,3.772365E2,6.8348923E0,1.8895899E0,2.5521906E1,5.3815813E0,8.4110725E1,2.9312576E2,3.9170187E0,2.9178739E0,1.2735169E0,4.1080647E0,3.892574E1,4.5184986E1,2.2987198E2,6.325379E1,1.3168879E0,1.600986E0],"tree_param":{"num_deleted":"0","num_feature":"60","num_nodes":"21","size_leaf_vector":"0"}},{"base_weights":[-2.3297016E-2,3.491055E-1,-1.3408214E-1,8.022574E-2,8.30621E-1,2.0427643E-1,-1.915666E-1,-5.210981E-3,1.0406519E0,1.0843385E0,1.6996144E-1,9.602832E-1,-2.9817584E-1,-2.428069E-1,1.0177887E-1,-2.1592547E-1,2.1825494E-1,1.5077829E0,-7.491009E-4,1.364444E0,-1.4844678E-1,-4.177482E-1,1.2662475E0,1.8176024E0,4.5738775E-1,-4.6736243E-1,2.6747954E-1,-2.1723777E-1,-5.3327805E-1,-1.0950582E-1,5.939217E-1],"categories":[],"categories_nodes":[],"categories_segments":[],"categories_sizes":[],"default_left":[true,true,true,true,true,true,true,true,true,true,true,true,true,true,true,false,false,false,false,false,false,false,false,false,false,false,false,false,false,false,false],"id":45,"left_children":[1,3,5,7,9,11,13,15,17,19,21,23,25,27,29,-1,-1,-1,-1,-1,-1,-1,-1,-1,-1,-1,-1,-1,-1,-1,-1],"loss_changes":[1.7437346E1,1.2482045E1,6.3721137E0,5.199638E0,5.6191654E0,1.8431082E1,4.2158327E0,2.8311782E0,2.5191321E0,8.776499E0,7.4827456E0,7.493351E0,2.944253E0,1.6492958E0,4.4496503E0,0E0,0E0,0E0,0E0,0E0,0E0,0E0,0E0,0E0,0E0,0E0,0E0,0E0,0E0,0E0,0E0],"parents":[2147483647,0,0,1,1,2,2,3,3,4,4,5,5,6,6,7,7,8,8,9,9,10,10,11,11,12,12,13,13,14,14],"right_children":[2,4,6,8,10,12,14,16,18,20,22,24,26,28,30,-1,-1,-1,-1,-1,-1,-1,-1,-1,-1,-1,-1,-1,-1,-1,-1],"split_conditions":[3.3553417E1,-1.17244514E2,-1.2223628E2,5E-1,5E-1,3.836218E1,1.0903983E0,-8.614655E-3,-1.9355865E-1,-1.1683548E2,-1.4148009E-1,-1.22441086E2,4.0715622E1,5E-1,5E-1,-2.1592546E-3,2.1825493E-3,1.5077829E-2,-7.4910085E-6,1.364444E-2,-1.4844678E-3,-4.177482E-3,1.2662475E-2,1.8176023E-2,4.5738774E-3,-4.6736244E-3,2.6747952E-3,-2.1723777E-3,-5.3327805E-3,-1.0950582E-3,5.9392173E-3],"split_indices":[2,3,3,50,30,2,8,6,5,3,6,3,2,35,28,0,0,0,0,0,0,0,0,0,0,0,0,0,0,0,0],"split_type":[0,0,0,0,0,0,0,0,0,0,0,0,0,0,0,0,0,0,0,0,0,0,0,0,0,0,0,0,0,0,0],"sum_hessian":[4.205207E2,9.592364E1,3.2459708E2,6.2301113E1,3.3622524E1,4.6767265E1,2.778298E2,5.8125053E1,4.1760616E0,2.3829735E1,9.79279E0,1.8308493E1,2.8458773E1,2.3666286E2,4.1166935E1,2.993343E1,2.8191624E1,2.5737424E0,1.6023192E0,1.9330734E1,4.499001E0,6.778068E0,3.0147223E0,5.8024306E0,1.25060625E1,2.204032E1,6.418454E0,2.1912221E2,1.7540653E1,2.934581E1,1.1821128E1],"tree_param":{"num_deleted":"0","num_feature":"60","num_nodes":"31","size_leaf_vector":"0"}},{"base_weights":[-2.7182683E-2,2.4182674E-2,-4.5656937E-1,-2.0601176E-1,1.0716332E-1,-5.4952633E-1,-1.06069356E-1,1.3355792E0,-2.3991252E-1,5.45532E-1,4.0680762E-2,-6.607547E-2,-5.746514E-1,-4.3548906E-1,8.0593723E-1,-5.348251E-1,-1.1191273E-1,-2.4992245E-1,9.0144444E-1,1.1465129E0,1.0509263E-2,9.108086E-2,-5.3887826E-1],"categories":[],"categories_nodes":[],"categories_segments":[],"categories_sizes":[],"default_left":[true,true,true,true,true,true,true,false,true,true,true,false,false,true,false,false,false,false,false,false,false,false,false],"id":46,"left_children":[1,3,5,7,9,11,13,-1,15,17,19,-1,-1,21,-1,-1,-1,-1,-1,-1,-1,-1,-1],"loss_changes":[9.477081E0,7.3625345E0,1.4374132E0,5.6596293E0,8.228998E0,3.998518E-1,3.614301E0,0E0,3.745728E0,1.0757815E1,8.226227E0,0E0,0E0,5.1885617E-1,0E0,0E0,0E0,0E0,0E0,0E0,0E0,0E0,0E0],"parents":[2147483647,0,0,1,1,2,2,3,3,4,4,5,5,6,6,8,8,9,9,10,10,13,13],"right_children":[2,4,6,8,10,12,14,-1,16,18,20,-1,-1,22,-1,-1,-1,-1,-1,-1,-1,-1,-1],"split_conditions":[-1.17288635E2,-4.6718723E-1,-1.16801926E2,-1.0715222E0,-9.352586E-1,3.278094E1,-7.0621145E-1,1.3355792E-2,-5.504406E-1,-1.2131082E2,-1.2350346E2,-6.607546E-4,-5.746514E-3,-1.2220521E0,8.059372E-3,-5.3482507E-3,-1.1191273E-3,-2.4992244E-3,9.014444E-3,1.14651285E-2,1.0509262E-4,9.1080857E-4,-5.3887824E-3],"split_indices":[3,7,3,9,12,2,15,0,8,3,3,0,0,5,0,0,0,0,0,0,0,0,0],"split_type":[0,0,0,0,0,0,0,0,0,0,0,0,0,0,0,0,0,0,0,0,0,0,0],"sum_hessian":[4.2818985E2,3.832833E2,4.490656E1,1.0116407E2,2.8211923E2,3.5044487E1,9.862071E0,1.350601E0,9.981347E1,3.6202663E1,2.4591656E2,1.9106182E0,3.313387E1,7.62896E0,2.2331111E0,2.924785E1,7.056561E1,1.1283083E1,2.4919579E1,5.548689E0,2.4036787E2,1.2716067E0,6.357353E0],"tree_param":{"num_deleted":"0","num_feature":"60","num_nodes":"23","size_leaf_vector":"0"}},{"base_weights":[-1.3305751E-2,4.457801E-1,-5.0910804E-2,1.3705583E0,-3.272829E-1,4.98157E-1,-9.1591895E-2,-4.4952285E-1,1.7710361E0,7.39776E-2,-5.7193846E-1,1.8882246E-1,1.8859813E0,-1.6694166E-1,1.9868715E-1,-3.4781402E-1,2.0345724E0,-4.4966418E-1,4.0064836E-1,-2.204754E-1,1.3993096E0,2.727435E-3,-2.519546E-1,5.914787E-1,-5.1105516E-3],"categories":[],"categories_nodes":[],"categories_segments":[],"categories_sizes":[],"default_left":[true,true,true,true,true,true,true,false,true,true,false,true,false,true,true,false,false,false,false,false,false,false,false,false,false],"id":47,"left_children":[1,3,5,7,9,11,13,-1,15,17,-1,19,-1,21,23,-1,-1,-1,-1,-1,-1,-1,-1,-1,-1],"loss_changes":[7.575061E0,2.42004E1,9.097365E0,1.1962984E1,1.8980639E0,1.1711125E1,8.303847E0,0E0,7.832508E0,1.5564159E0,0E0,1.2247329E1,0E0,4.3387117E0,6.277588E0,0E0,0E0,0E0,0E0,0E0,0E0,0E0,0E0,0E0,0E0],"parents":[2147483647,0,0,1,1,2,2,3,3,4,4,5,5,6,6,8,8,9,9,11,11,13,13,14,14],"right_children":[2,4,6,8,10,12,14,-1,16,18,-1,20,-1,22,24,-1,-1,-1,-1,-1,-1,-1,-1,-1,-1],"split_conditions":[-9.5215726E-1,-2.6858085E-1,-1.1242044E0,-1.1229298E0,2.3513767E-1,-1.1253784E0,1.2951913E0,-4.4952286E-3,-1.0824893E0,-1.129873E0,-5.7193846E-3,1.2090522E0,1.8859813E-2,5E-1,-2.555849E-1,-3.47814E-3,2.0345723E-2,-4.4966415E-3,4.0064836E-3,-2.204754E-3,1.3993096E-2,2.727435E-5,-2.5195458E-3,5.914787E-3,-5.1105515E-5],"split_indices":[12,15,13,13,15,13,0,0,15,13,0,15,0,20,15,0,0,0,0,0,0,0,0,0,0],"split_type":[0,0,0,0,0,0,0,0,0,0,0,0,0,0,0,0,0,0,0,0,0,0,0,0,0],"sum_hessian":[4.3646454E2,3.2223457E1,4.042411E2,1.4320107E1,1.7903349E1,2.7108978E1,3.771321E2,2.5605457E0,1.1759562E1,7.045547E0,1.0857802E1,2.3096922E1,4.012056E0,2.9974902E2,7.7383064E1,1.2654499E0,1.0494112E1,2.562094E0,4.483453E0,1.7871841E1,5.2250814E0,1.00379395E2,1.9936963E2,2.5784592E1,5.1598476E1],"tree_param":{"num_deleted":"0","num_feature":"60","num_nodes":"25","size_leaf_vector":"0"}},{"base_weights":[3.77009E-2,-2.0145647E-2,9.374045E-1,-7.414172E-2,6.006117E-1,1.287335E0,-1.2122288E-1,-3.2463282E-1,1.645889E-2,1.1863333E0,1.7714041E-1,3.6530218E-1,1.4140682E0,-5.0568855E-1,5.9016585E-1,3.7415168E-1,-3.8929954E-1,1.0931463E0,-9.083093E-3,1.4384204E0,-3.831657E-1,-5.18145E-1,4.417588E-1,-3.5523927E-1,9.170254E-1,1.6736764E0,8.930407E-1],"categories":[],"categories_nodes":[],"categories_segments":[],"categories_sizes":[],"default_left":[true,true,true,true,true,true,true,true,true,true,true,true,true,false,false,false,false,false,false,false,false,false,false,false,false,false,false],"id":48,"left_children":[1,3,5,7,9,11,13,15,17,19,21,23,25,-1,-1,-1,-1,-1,-1,-1,-1,-1,-1,-1,-1,-1,-1],"loss_changes":[2.1656784E1,1.3170976E1,9.468048E0,8.201967E0,7.590229E0,1.7011051E0,2.2564125E0,4.4829016E0,7.3302903E0,5.7028008E0,3.8033276E0,1.7734724E0,7.150955E-1,0E0,0E0,0E0,0E0,0E0,0E0,0E0,0E0,0E0,0E0,0E0,0E0,0E0,0E0],"parents":[2147483647,0,0,1,1,2,2,3,3,4,4,5,5,6,6,7,7,8,8,9,9,10,10,11,11,12,12],"right_children":[2,4,6,8,10,12,14,16,18,20,22,24,26,-1,-1,-1,-1,-1,-1,-1,-1,-1,-1,-1,-1,-1,-1],"split_conditions":[5E-1,1.4762094E0,-1.18163155E2,-9.012586E-1,1.6362083E0,-1.0712726E0,5E-1,-1.4463401E0,-1.0424647E0,3.975099E1,1.7621944E0,3.9190674E1,5E-1,-5.0568855E-3,5.9016584E-3,3.7415167E-3,-3.8929954E-3,1.0931463E-2,-9.083093E-5,1.4384204E-2,-3.8316569E-3,-5.18145E-3,4.417588E-3,