{"learner":{"attributes":{"best_iteration":"152","best_ntree_limit":"153","scikit_learn":"{\"use_label_encoder\": false, \"n_estimators\": 153, \"objective\": \"binary:logistic\", \"max_depth\": 10, \"learning_rate\": 0.1, \"verbosity\": 0, \"booster\": null, \"tree_method\": null, \"gamma\": 0.0, \"min_child_weight\": 0, \"max_delta_step\": null, \"subsample\": 0.8, \"colsample_bytree\": 0.6, \"colsample_bylevel\": null, \"colsample_bynode\": null, \"reg_alpha\": 0, \"reg_lambda\": null, \"scale_pos_weight\": null, \"base_score\": null, \"missing\": NaN, \"num_parallel_tree\": null, \"random_state\": null, \"n_jobs\": null, \"monotone_constraints\": null, \"interaction_constraints\": null, \"importance_type\": null, \"gpu_id\": null, \"validate_parameters\": null, \"predictor\": null, \"enable_categorical\": false, \"kwargs\": {\"nthread\": 4, \"seed\": 9}, \"classes_\": [0, 1], \"n_classes_\": 2, \"_estimator_type\": \"classifier\"}"},"feature_names":["Age","Number of Dependents","Latitude","Longitude","Number of Referrals","Tenure in Months","Avg Monthly Long Distance Charges","Avg Monthly GB Download","Monthly Charge","Total Charges","Total Refunds","Total Extra Data Charges","Total Long Distance Charges","Total Revenue","Satisfaction Score","Population","Gender_Female","Gender_Male","Married_No","Married_Yes","Offer_None","Offer_Offer A","Offer_Offer B","Offer_Offer C","Offer_Offer D","Offer_Offer E","Phone Service_No","Phone Service_Yes","Multiple Lines_No","Multiple Lines_Yes","Internet Service_No","Internet Service_Yes","Internet Type_Cable","Internet Type_DSL","Internet Type_Fiber Optic","Internet Type_None","Online Security_No","Online Security_Yes","Online Backup_No","Online Backup_Yes","Device Protection Plan_No","Device Protection Plan_Yes","Premium Tech Support_No","Premium Tech Support_Yes","Streaming TV_No","Streaming TV_Yes","Streaming Movies_No","Streaming Movies_Yes","Streaming Music_No","Streaming Music_Yes","Unlimited Data_No","Unlimited Data_Yes","Contract_Month-to-Month","Contract_One Year","Contract_Two Year","Paperless Billing_No","Paperless Billing_Yes","Payment Method_Bank Withdrawal","Payment Method_Credit Card","Payment Method_Mailed Check"],"feature_types":["float","float","float","float","float","float","float","float","float","float","float","float","float","float","float","float","int","int","int","int","int","int","int","int","int","int","int","int","int","int","int","int","int","int","int","int","int","int","int","int","int","int","int","int","int","int","int","int","int","int","int","int","int","int","int","int","int","int","int","int"],"gradient_booster":{"model":{"gbtree_model_param":{"num_trees":"153","size_leaf_vector":"0"},"tree_info":[0,0,0,0,0,0,0,0,0,0,0,0,0,0,0,0,0,0,0,0,0,0,0,0,0,0,0,0,0,0,0,0,0,0,0,0,0,0,0,0,0,0,0,0,0,0,0,0,0,0,0,0,0,0,0,0,0,0,0,0,0,0,0,0,0,0,0,0,0,0,0,0,0,0,0,0,0,0,0,0,0,0,0,0,0,0,0,0,0,0,0,0,0,0,0,0,0,0,0,0,0,0,0,0,0,0,0,0,0,0,0,0,0,0,0,0,0,0,0,0,0,0,0,0,0,0,0,0,0,0,0,0,0,0,0,0,0,0,0,0,0,0,0,0,0,0,0,0,0,0,0,0,0],"trees":[{"base_weights":[-4.4764983E-3,1.9929266E0,-7.8507257E-1,-2.6541686E-1,-1.9908152E0,4.4126417E-2,-1.7288135E0,3.2200885E-1,-1.1070336E0,-1.7393768E0,4E-1,7.9415673E-1,-2.677686E-1,-1.6335878E0,-7.4E-1,-1.9526627E0,-1.5106384E0,-1.012987E0,9.941176E-1,4.631579E-1,-5.966587E-1,-7.368421E-1,-1.9175258E0,-1.2592592E0,-1.25E-1,-1.5976331E0,-6.086956E-1,-1.1780822E0,1E0,1.2525252E0,-7.5555557E-1,-1.0588236E0,7.75E-1,-1.3913044E0,-3.6858007E-1,-1.0588236E0,1E0,-5.4545456E-1,-1.6470588E0,1.8181819E-1,-1.1304348E0,4E-1,-1.6190476E0,8E-1,-1.2941177E0,-0E0,-1.5087719E0,1.5982533E0,1.0243902E0,6.666667E-1,-1.2835821E0,-0E0,-1.2857143E0,1.3061224E0,-6.0606062E-2,-1.5402299E0,6.666667E-1,9.0909094E-1,-4.536741E-1,-1.4074074E0,1.8181819E-1,-1.1515151E0,9.3333334E-1,-1.7014925E0,4E-1,-1E0,4.6153846E-1,-1.5789474E0,5E-1,-1E0,-1.7575758E0,-4E-1,1.1111112E0,4E-1,-1.5E0,-8.5714287E-1,1.2E0,-1.8181819E-1,-1.68E0,-6.666667E-1,1.6607143E0,3.3766234E-1,1.1891892E0,1.0476191E0,-4E-1,8.5714287E-1,-1.4375E0,5E-1,-6.666667E-1,-4.6153846E-1,-1.5789474E0,8.4745765E-1,1.8139535E0,8.5714287E-1,-6.666667E-1,-1.7222222E0,-5.263158E-1,1E0,-4E-1,1.4285715E0,-0E0,-6.367713E-1,-0E0,-1.68E0,6.666667E-1,1E0,-8.5714287E-1,2.2222222E-1,-1.4285715E0,1.3846154E0,-6.666667E-1,-5.4545456E-1,-1.8E0,-1.2E0,4E-1,-8.5714287E-1,7.6363635E-1,-4E-1,8.5714287E-1,-1.4285715E0,1.1111112E0,-1.8596492E0,-9.0909094E-1,-1.3333334E0,6.666667E-1,-1E0,8.5714287E-1,-0E0,-1.75E0,-1E0,4E-1,-5E-1,1.709091E0,1.1428572E0,-1.1320755E-1,1.2439862E0,-1.1111112E0,-2.857143E-1,1.3333334E0,-1E0,6.666667E-1,-1.4920635E0,4E-1,8.5714287E-1,-4E-1,-1.2E0,8.5714287E-1,-0E0,1.3513514E0,1.2727273E0,-4E-1,-1.1515151E0,7.692308E-1,-1.768116E0,-2.857143E-1,-1E0,8.5714287E-1,-1E0,1E0,-1.15384616E-1,-1.0569105E0,3.0769232E-1,-1.2E0,8.5714287E-1,-6.666667E-1,-1.68E0,2.857143E-1,2.857143E-1,-1E0,-0E0,-1.3846154E0,6.666667E-1,-1.3333334E0,1.2631578E0,-2.857143E-1,-1.7419355E0,5E-1,-1.8918918E0,-2.857143E-1,4E-1,-1.5E0],"categories":[],"categories_nodes":[],"categories_segments":[],"categories_sizes":[],"default_left":[true,false,true,true,false,true,true,true,true,true,false,true,true,true,true,false,true,true,true,true,true,true,false,true,true,true,true,true,false,true,true,true,true,true,true,true,false,true,true,true,true,false,true,true,true,true,true,true,true,true,true,true,true,true,true,true,true,true,true,true,true,true,true,true,false,true,true,false,true,true,true,false,false,false,false,true,false,true,true,true,true,true,true,true,true,false,true,true,false,true,false,true,false,true,true,true,true,false,false,false,true,true,true,false,false,false,false,true,true,false,false,true,false,true,false,true,true,false,false,true,false,true,true,false,false,false,false,false,false,false,false,false,false,false,false,false,false,false,false,false,false,false,false,false,false,false,false,false,false,false,false,false,false,false,false,false,false,false,false,false,false,false,false,false,false,false,false,false,false,false,false,false,false,false,false,false,false,false,false,false,false],"id":0,"left_children":[1,-1,3,5,-1,7,9,11,13,15,-1,17,19,21,23,-1,25,27,29,31,33,35,-1,37,39,41,43,45,-1,47,49,51,53,55,57,59,-1,61,63,65,67,-1,69,71,73,75,77,79,81,83,85,87,89,91,93,95,97,99,101,103,105,107,109,111,-1,113,115,-1,117,119,121,-1,-1,-1,-1,123,-1,125,127,129,131,133,135,137,139,-1,141,143,-1,145,-1,147,-1,149,151,153,155,-1,-1,-1,157,159,161,-1,-1,-1,-1,163,165,-1,-1,167,-1,169,-1,171,173,-1,-1,175,-1,177,179,-1,-1,-1,-1,-1,-1,-1,-1,-1,-1,-1,-1,-1,-1,-1,-1,-1,-1,-1,-1,-1,-1,-1,-1,-1,-1,-1,-1,-1,-1,-1,-1,-1,-1,-1,-1,-1,-1,-1,-1,-1,-1,-1,-1,-1,-1,-1,-1,-1,-1,-1,-1,-1,-1,-1,-1,-1,-1],"loss_changes":[1.5689152E3,0E0,4.5279572E2,2.2962625E2,0E0,1.3446916E2,2.685852E0,9.447209E1,1.4590401E1,1.3556824E0,0E0,6.9032715E1,3.6636017E1,6.9258957E0,1.5809816E1,0E0,2.715355E0,7.5755215E0,7.780826E1,2.3364939E1,1.8472263E1,6.3715167E0,0E0,6.5755577E0,7.6091895E0,2.4549942E0,6.5872126E0,7.109827E0,0E0,1.0075348E1,1.7752571E1,2.042017E0,1.7831526E1,8.075962E0,9.409193E0,3.9318676E0,0E0,1.0933333E1,2.574894E0,6.825175E0,4.994279E0,0E0,1.8441544E0,1.3777777E0,2.0823526E0,6.1714287E0,2.932312E0,9.206253E0,1.0038582E1,3.1619048E0,6.751198E0,1.1666667E0,9.629841E-1,4.1693954E0,9.748918E0,3.1069756E0,1.2E0,2.5974026E0,6.4999504E0,4.9362955E0,3.1948051E0,3.4574308E0,3.630769E0,9.256401E-1,0E0,1.5999999E0,7.128072E0,0E0,9.857143E-1,1.0634922E1,1.1674652E0,0E0,0E0,0E0,0E0,3.4285715E0,0E0,3.1948051E0,1.4700012E0,1.2E0,6.7081146E0,7.1178637E0,1.0709885E1,2.3809528E0,2.2666667E0,0E0,2.2009926E0,9.857143E-1,0E0,4.193406E0,0E0,6.298671E0,0E0,4.1662335E0,8.195805E0,6.815033E-1,3.9699247E0,0E0,0E0,0E0,4E0,1.2090366E1,9.046154E0,0E0,0E0,0E0,0E0,1.8412697E0,3.4971418E0,0E0,0E0,1.3246753E0,0E0,8.3076906E-1,0E0,3.4285715E0,7.568285E0,0E0,0E0,6.158985E0,0E0,9.057846E-1,4.854545E0,0E0,0E0,0E0,0E0,0E0,0E0,0E0,0E0,0E0,0E0,0E0,0E0,0E0,0E0,0E0,0E0,0E0,0E0,0E0,0E0,0E0,0E0,0E0,0E0,0E0,0E0,0E0,0E0,0E0,0E0,0E0,0E0,0E0,0E0,0E0,0E0,0E0,0E0,0E0,0E0,0E0,0E0,0E0,0E0,0E0,0E0,0E0,0E0,0E0,0E0,0E0,0E0,0E0,0E0,0E0,0E0,0E0,0E0],"parents":[2147483647,0,0,2,2,3,3,5,5,6,6,7,7,8,8,9,9,11,11,12,12,13,13,14,14,16,16,17,17,18,18,19,19,20,20,21,21,23,23,24,24,25,25,26,26,27,27,29,29,30,30,31,31,32,32,33,33,34,34,35,35,37,37,38,38,39,39,40,40,42,42,43,43,44,44,45,45,46,46,47,47,48,48,49,49,50,50,51,51,52,52,53,53,54,54,55,55,56,56,57,57,58,58,59,59,60,60,61,61,62,62,63,63,65,65,66,66,68,68,69,69,70,70,75,75,77,77,78,78,79,79,80,80,81,81,82,82,83,83,84,84,86,86,87,87,89,89,91,91,93,93,94,94,95,95,96,96,100,100,101,101,102,102,107,107,108,108,111,111,113,113,115,115,116,116,119,119,121,121,122,122],"right_children":[2,-1,4,6,-1,8,10,12,14,16,-1,18,20,22,24,-1,26,28,30,32,34,36,-1,38,40,42,44,46,-1,48,50,52,54,56,58,60,-1,62,64,66,68,-1,70,72,74,76,78,80,82,84,86,88,90,92,94,96,98,100,102,104,106,108,110,112,-1,114,116,-1,118,120,122,-1,-1,-1,-1,124,-1,126,128,130,132,134,136,138,140,-1,142,144,-1,146,-1,148,-1,150,152,154,156,-1,-1,-1,158,160,162,-1,-1,-1,-1,164,166,-1,-1,168,-1,170,-1,172,174,-1,-1,176,-1,178,180,-1,-1,-1,-1,-1,-1,-1,-1,-1,-1,-1,-1,-1,-1,-1,-1,-1,-1,-1,-1,-1,-1,-1,-1,-1,-1,-1,-1,-1,-1,-1,-1,-1,-1,-1,-1,-1,-1,-1,-1,-1,-1,-1,-1,-1,-1,-1,-1,-1,-1,-1,-1,-1,-1,-1,-1,-1,-1],"split_conditions":[-6.641825E-1,1.9929266E-1,2.8460154E-1,5E-1,-1.9908153E-1,5E-1,4.193743E1,-5.4679704E-1,5E-1,5E-1,4.0000003E-2,5E-1,5E-1,-1.21750916E2,1.5317939E-2,-1.9526628E-1,5E-1,-1.16456955E2,5E-1,5E-1,5E-1,-1.2198952E2,-1.9175258E-1,-7.990011E-1,8.056321E-1,-1.2413098E2,5E-1,-1.22226944E2,1E-1,-1.062557E0,-1.133642E0,5E-1,4.0067863E-1,1.491015E0,-3.032143E-1,6.5018475E-1,1E-1,-8.495015E-1,4.5955963E0,-7.6095724E-1,5E-1,4.0000003E-2,-9.6552944E-1,-6.630454E-1,-6.6098696E-1,1.6775858E-1,5E-1,-1.6095264E0,-1.3348004E0,-1.19550186E2,3.312475E1,1.2299168E0,-7.935945E-1,1.2951913E0,-1.21275764E2,1.53417E0,1.9805741E0,5.4974757E-2,3.810469E1,2.1787207E0,-3.564445E-1,3.3615448E1,-1.3800937E-1,5E-1,4.0000003E-2,3.0765796E0,-3.8720506E-1,-1.5789475E-1,1.262554E0,-1.0485865E0,5E-1,-4.0000003E-2,1.1111112E-1,4.0000003E-2,-1.5E-1,-1.2225099E2,1.20000005E-1,-7.6169276E-1,-1.1197479E0,5E-1,5E-1,5E-1,2.9935226E0,-1.209759E0,-4.2937078E-2,8.571429E-2,1.7497E0,6.1255425E-1,-6.666667E-2,-1.1804996E2,-1.5789475E-1,3.25328E-1,1.8139535E-1,8.761203E-2,1.2606757E0,9.3618125E-1,5E-1,1E-1,-4.0000003E-2,1.4285715E-1,-3.8304025E-1,5E-1,6.426561E-2,-1.68E-1,6.666667E-2,1E-1,-8.571429E-2,-3.6930984E-1,1.4533029E0,1.3846155E-1,-6.666667E-2,-1.08412E0,-1.7999999E-1,-9.164856E-1,4.0000003E-2,-1.3128386E0,7.4979365E-1,-4.0000003E-2,8.571429E-2,3.8547417E1,1.1111112E-1,1.7583766E0,4.7787666E-1,-1.3333334E-1,6.666667E-2,-1E-1,8.571429E-2,-0E0,-1.75E-1,-1E-1,4.0000003E-2,-5E-2,1.7090909E-1,1.1428572E-1,-1.1320755E-2,1.2439863E-1,-1.1111112E-1,-2.857143E-2,1.3333334E-1,-1E-1,6.666667E-2,-1.4920636E-1,4.0000003E-2,8.571429E-2,-4.0000003E-2,-1.20000005E-1,8.571429E-2,-0E0,1.3513514E-1,1.2727273E-1,-4.0000003E-2,-1.1515152E-1,7.692308E-2,-1.768116E-1,-2.857143E-2,-1E-1,8.571429E-2,-1E-1,1E-1,-1.1538462E-2,-1.0569105E-1,3.0769233E-2,-1.20000005E-1,8.571429E-2,-6.666667E-2,-1.68E-1,2.857143E-2,2.857143E-2,-1E-1,-0E0,-1.3846155E-1,6.666667E-2,-1.3333334E-1,1.2631579E-1,-2.857143E-2,-1.7419355E-1,5E-2,-1.8918918E-1,-2.857143E-2,4.0000003E-2,-1.5E-1],"split_indices":[14,0,14,54,0,53,2,12,36,57,0,36,28,3,13,0,32,3,35,42,34,3,0,13,0,3,51,3,0,13,13,51,13,0,6,6,0,13,10,0,58,0,7,0,7,6,51,0,6,3,2,0,0,0,3,6,0,0,2,13,7,2,6,38,0,7,6,0,0,7,30,0,0,0,0,3,0,6,13,32,42,42,7,6,0,0,6,7,0,3,0,6,0,0,12,0,24,0,0,0,6,17,12,0,0,0,0,0,6,0,0,6,0,6,0,6,6,0,0,2,0,6,13,0,0,0,0,0,0,0,0,0,0,0,0,0,0,0,0,0,0,0,0,0,0,0,0,0,0,0,0,0,0,0,0,0,0,0,0,0,0,0,0,0,0,0,0,0,0,0,0,0,0,0,0,0,0,0,0,0,0],"split_type":[0,0,0,0,0,0,0,0,0,0,0,0,0,0,0,0,0,0,0,0,0,0,0,0,0,0,0,0,0,0,0,0,0,0,0,0,0,0,0,0,0,0,0,0,0,0,0,0,0,0,0,0,0,0,0,0,0,0,0,0,0,0,0,0,0,0,0,0,0,0,0,0,0,0,0,0,0,0,0,0,0,0,0,0,0,0,0,0,0,0,0,0,0,0,0,0,0,0,0,0,0,0,0,0,0,0,0,0,0,0,0,0,0,0,0,0,0,0,0,0,0,0,0,0,0,0,0,0,0,0,0,0,0,0,0,0,0,0,0,0,0,0,0,0,0,0,0,0,0,0,0,0,0,0,0,0,0,0,0,0,0,0,0,0,0,0,0,0,0,0,0,0,0,0,0,0,0,0,0,0,0],"sum_hessian":[1.00425E3,2.8175E2,7.225E2,5.0575E2,2.1675E2,4.1825E2,8.75E1,3.375E2,8.075E1,8.725E1,2.5E-1,1.8725E2,1.5025E2,3.175E1,4.9E1,4.125E1,4.6E1,1.825E1,1.69E2,4.65E1,1.0375E2,8.5E0,2.325E1,2.6E1,2.3E1,4.125E1,4.75E0,1.725E1,1E0,1.475E2,2.15E1,7.5E0,3.9E1,2.2E1,8.175E1,7.5E0,1E0,1E1,1.6E1,1.825E1,4.75E0,2.5E-1,4.1E1,1.5E0,3.25E0,4E0,1.325E1,5.625E1,9.125E1,5.75E0,1.575E1,1.5E0,6E0,2.35E1,1.55E1,2.075E1,1.25E0,4.5E0,7.725E1,5.75E0,1.75E0,7.25E0,2.75E0,1.575E1,2.5E-1,3E0,1.525E1,3.75E0,1E0,9E0,3.2E1,2.5E-1,1.25E0,2.5E-1,3E0,2.5E0,1.5E0,1.75E0,1.15E1,1.25E0,5.5E1,1.825E1,7.3E1,4.25E0,1.5E0,7.5E-1,1.5E1,1E0,5E-1,2.25E0,3.75E0,1.375E1,9.75E0,6E0,9.5E0,1.7E1,3.75E0,1E0,2.5E-1,2.5E0,2E0,5.475E1,2.25E1,5.25E0,5E-1,1E0,7.5E-1,1.25E0,6E0,2.25E0,5E-1,1.75E0,1.4E1,2.75E0,2.5E-1,2.5E0,1.275E1,2.5E-1,7.5E-1,7.75E0,1.25E0,2.75E1,4.5E0,2E0,5E-1,1E0,7.5E-1,5E-1,1.1E1,1E0,2.5E-1,1E0,5.4E1,6E0,1.225E1,7.175E1,1.25E0,7.5E-1,3.5E0,1E0,5E-1,1.475E1,2.5E-1,7.5E-1,2.5E-1,1.5E0,7.5E-1,5.5E0,8.25E0,4.5E0,1.5E0,7.25E0,2.25E0,1.625E1,7.5E-1,3E0,7.5E-1,1E0,1E0,2.5E1,2.975E1,1.85E1,4E0,7.5E-1,5E-1,5.25E0,7.5E-1,7.5E-1,1E0,5E-1,2.25E0,5E-1,2E0,8.5E0,4.25E0,6.75E0,1E0,2.675E1,7.5E-1,1.5E0,3E0],"tree_param":{"num_deleted":"0","num_feature":"60","num_nodes":"181","size_leaf_vector":"0"}},{"base_weights":[1.3227723E-2,1.8128802E0,-7.060825E-1,-2.453769E-1,-1.8107435E0,-1.2914264E0,2.6600832E-1,-1.001921E0,-1.6412121E0,4.9236828E-1,-1.1570548E0,-1.4581195E0,-5.371514E-1,-1.716244E0,9.0196687E-1,-7.941047E-1,6.21953E-1,7.695563E-1,-1.3184552E0,-7.8830016E-1,-1.5925691E0,6.5019524E-1,-7.930157E-1,-1.7657636E0,-7.527905E-1,1.1719655E0,-3.6175567E-1,5.157276E-1,-1.2515572E0,1.0463747E0,1.3955863E-1,1.2521759E0,-2.1510696E-1,-7.178243E-1,-1.7990814E0,-1.3321943E0,5.5959773E-1,-1.7360004E0,-1.099807E0,-1.169698E0,1.2494979E0,-2.5114474E-1,-1.0945017E0,1.0143883E0,-1.4110786E0,-4.6493374E-2,1.3084719E0,-2.9727107E-1,-1.4142839E0,1.0947511E0,-6.705752E-1,2.555305E-1,-1.125311E0,-8.1203693E-1,6.249219E-1,1.0820001E-1,-1.3774914E0,-1.548592E0,9.461836E-3,1.2195971E0,-7.988303E-1,-1.5197147E-2,-1.4084307E0,-2.5375625E-1,1.4616662E0,-1.3089833E0,2.6391745E-1,-1.190766E0,8.69463E-1,-5.158813E-1,7.242705E-1,-1.2365624E0,1.0832195E0,-6.838896E-1,-1.5828576E0,1.2310737E0,4.589484E-1,-1.1344124E0,4.7690597E-1,3.5330944E-2,1.3794336E0,-1.3881522E0,1.43934E-1,-8.695163E-1,1.3092324E0,-1.69547E-2,-1.7427888E0,6.254467E-1,-6.1345744E-1,7.522083E-1,-9.6637183E-1,-6.1345744E-1,3.8020644E-1,-3.624288E-1,1.5923043E0,-2.4893688E-1,-1.4297359E0,6.488064E-1,-1.1642762E0,8.3642375E-1,-1.2906715E0,-1.2050382E0,3.8063967E-1,1.0422522E0,-4.2700565E-1,-1.3274504E0,4.9099162E-1,-2.8571434E-2,-1.6417851E0,1.4550543E0,9.055451E-1,7.296113E-1,-4.2178452E-1,8.058257E-1,-3.656461E-1,5.8456665E-1,-2.7214593E-1,1.470458E0,-6.600625E-1,-1.4763235E0,3.680694E-2,9.346621E-1,-8.404518E-1,-1.3940774E0,6.811126E-1,1.4833487E0,-3.97695E-1,-9.7901565E-1,7.593038E-1,-3.6292022E-1,1.0370632E0,-6.0368997E-1,3.7506878E-1,9.424257E-1,-9.2427295E-1,-7.865556E-1,-1.6819141E0,9.513736E-1,-6.338884E-1,-3.70625E-1,7.517214E-1,-4.1728547E-1,3.8300815E-1,1.4786721E0,1.3312976E-1,-2.2189073E-1,1.0324935E0,9.176612E-1,-5.3690374E-1,-1.0805473E0,1.1284708E0,-9.247995E-1,8.479188E-1,-5.026929E-1,4.4452518E-1,1.6309161E0,3.172051E-1,-1.5618519E0,-3.5327286E-2,-3.7724465E-1,4.2135346E-1,3.6441633E-1,-1.563001E0,9.938594E-1,-3.656461E-1,-3.656461E-1,1.0464327E0],"categories":[],"categories_nodes":[],"categories_segments":[],"categories_sizes":[],"default_left":[true,false,true,true,false,true,true,true,true,true,true,true,true,true,true,true,true,true,true,true,true,true,true,false,true,false,false,true,true,true,true,false,true,true,false,true,true,false,true,false,true,true,true,false,false,true,false,true,true,true,true,true,true,false,false,true,true,false,true,false,false,true,false,true,true,true,true,true,false,true,true,false,false,true,true,true,true,false,true,true,true,true,true,true,true,true,false,false,false,true,false,false,false,false,false,true,false,true,false,false,true,false,true,false,false,false,true,true,false,true,true,true,true,false,false,true,true,true,false,true,true,false,false,true,true,false,false,false,true,false,false,false,false,false,false,false,false,false,false,false,false,false,false,false,false,false,false,false,false,false,false,false,false,false,false,false,false,false,false,false,false,false,false,false,false,false,false],"id":1,"left_children":[1,-1,3,5,-1,7,9,11,13,15,17,19,21,23,25,27,29,31,33,35,37,39,41,-1,43,-1,-1,45,47,49,51,-1,53,55,-1,57,59,-1,61,-1,63,65,67,-1,-1,69,-1,71,73,75,77,79,81,-1,-1,83,85,-1,87,-1,-1,89,-1,91,93,95,97,99,-1,101,103,-1,-1,105,107,109,111,-1,113,115,117,119,121,123,125,127,-1,-1,-1,129,-1,-1,-1,-1,-1,131,-1,133,-1,-1,135,-1,137,-1,-1,-1,139,141,-1,143,145,147,149,-1,-1,151,153,155,-1,157,159,-1,-1,161,163,-1,-1,-1,165,-1,-1,-1,-1,-1,-1,-1,-1,-1,-1,-1,-1,-1,-1,-1,-1,-1,-1,-1,-1,-1,-1,-1,-1,-1,-1,-1,-1,-1,-1,-1,-1,-1,-1,-1,-1,-1,-1],"loss_changes":[1.2826547E3,0E0,3.5982922E2,2.6819727E2,0E0,1.5022156E1,1.0917047E2,1.8854424E1,1.5471146E1,4.9101227E1,1.5494621E1,2.9013367E0,1.4934413E1,2.068573E0,1.3610837E0,1.6896185E1,5.4202194E1,2.2799683E0,1.1218529E1,7.853919E0,7.383728E-1,1.123811E1,6.177717E0,0E0,7.509347E0,0E0,0E0,3.505361E0,2.7463455E0,1.2450302E1,1.8681602E1,0E0,1.633209E0,1.1551995E1,0E0,2.1062956E0,4.1049356E0,0E0,3.71906E0,0E0,2.6758308E0,8.745755E0,5.776968E0,0E0,0E0,2.358876E0,0E0,6.833483E0,1.0298309E0,1.1358917E1,2.928458E0,2.8579628E1,3.77493E0,0E0,0E0,1.3138121E1,5.789217E0,0E0,1.1490057E0,0E0,0E0,3.2716243E0,0E0,6.313706E-1,2.1214628E0,3.1180477E-1,6.9126043E0,6.007099E0,0E0,2.9266138E0,1.3576555E0,0E0,0E0,4.415534E0,1.1600838E0,6.898712E0,6.477852E0,0E0,8.475996E-1,1.6667393E1,4.483879E0,1.1815758E0,2.921846E0,6.0203047E0,2.0714312E0,3.348191E0,0E0,0E0,0E0,1.1678927E0,0E0,0E0,0E0,0E0,0E0,6.125506E-1,0E0,5.2430253E0,0E0,0E0,3.3279533E0,0E0,2.0483017E0,0E0,0E0,0E0,8.383609E-1,3.9965713E-1,0E0,1.8358917E0,7.182129E0,5.295395E0,8.080297E0,0E0,0E0,1.4856116E1,1.0690821E1,2.8923988E0,0E0,9.891453E-1,3.9754385E-1,0E0,0E0,2.0508127E0,1.0992026E0,0E0,0E0,0E0,1.188062E0,0E0,0E0,0E0,0E0,0E0,0E0,0E0,0E0,0E0,0E0,0E0,0E0,0E0,0E0,0E0,0E0,0E0,0E0,0E0,0E0,0E0,0E0,0E0,0E0,0E0,0E0,0E0,0E0,0E0,0E0,0E0,0E0,0E0,0E0,0E0,0E0,0E0,0E0],"parents":[2147483647,0,0,2,2,3,3,5,5,6,6,7,7,8,8,9,9,10,10,11,11,12,12,13,13,14,14,15,15,16,16,17,17,18,18,19,19,20,20,21,21,22,22,24,24,27,27,28,28,29,29,30,30,32,32,33,33,35,35,36,36,38,38,40,40,41,41,42,42,45,45,47,47,48,48,49,49,50,50,51,51,52,52,55,55,56,56,58,58,61,61,63,63,64,64,65,65,66,66,67,67,69,69,70,70,73,73,74,74,75,75,76,76,78,78,79,79,80,80,81,81,82,82,83,83,84,84,85,85,89,89,95,95,97,97,100,100,102,102,106,106,107,107,109,109,110,110,111,111,112,112,115,115,116,116,117,117,119,119,120,120,123,123,124,124,128,128],"right_children":[2,-1,4,6,-1,8,10,12,14,16,18,20,22,24,26,28,30,32,34,36,38,40,42,-1,44,-1,-1,46,48,50,52,-1,54,56,-1,58,60,-1,62,-1,64,66,68,-1,-1,70,-1,72,74,76,78,80,82,-1,-1,84,86,-1,88,-1,-1,90,-1,92,94,96,98,100,-1,102,104,-1,-1,106,108,110,112,-1,114,116,118,120,122,124,126,128,-1,-1,-1,130,-1,-1,-1,-1,-1,132,-1,134,-1,-1,136,-1,138,-1,-1,-1,140,142,-1,144,146,148,150,-1,-1,152,154,156,-1,158,160,-1,-1,162,164,-1,-1,-1,166,-1,-1,-1,-1,-1,-1,-1,-1,-1,-1,-1,-1,-1,-1,-1,-1,-1,-1,-1,-1,-1,-1,-1,-1,-1,-1,-1,-1,-1,-1,-1,-1,-1,-1,-1,-1,-1,-1],"split_conditions":[-6.641825E-1,1.8128802E-1,2.8460154E-1,5E-1,-1.8107435E-1,-5.519163E-2,1.0210785E-1,2.2050041E-1,5E-1,-1.0485865E0,-1.1037774E0,-1.221514E2,4.3477356E-1,2.8250575E0,1.2084073E0,-1.133642E0,-5.6244206E-1,5E-1,5E-1,-1.2230751E2,-2.4216369E-2,5E-1,3.3924988E1,-1.7657636E-1,2.8955903E0,1.1719655E-1,-3.6175568E-2,5E-1,5E-1,1.032045E0,-5.519163E-2,1.252176E-1,-9.029301E-1,3.465614E1,-1.7990814E-1,1.5317939E-2,1.9726905E-1,-1.7360005E-1,-7.7422965E-1,-1.169698E-1,-1.2146289E2,5E-1,3.2925105E0,1.01438835E-1,-1.4110786E-1,-4.1760385E-1,1.308472E-1,-1.903854E-1,-1.0837058E0,5E-1,-5.8303845E-1,-4.1760385E-1,5E-1,-8.120369E-2,6.249219E-2,4.1875446E-1,-8.510499E-1,-1.548592E-1,3.815111E1,1.2195971E-1,-7.988303E-2,-8.012845E-1,-1.4084308E-1,3.9526634E1,-4.1181585E-1,5E-1,5E-1,-1.2397281E2,8.69463E-2,-9.3434685E-1,3.841649E1,-1.23656236E-1,1.0832196E-1,-1.1170921E0,3.3075203E1,-9.7848594E-1,5E-1,-1.13441244E-1,3.8608337E1,-1.2097168E2,2.5782375E0,-1.1659456E2,-1.2134734E2,3.3991272E1,5.417362E-1,-9.7746205E-1,-1.7427889E-1,6.2544666E-2,-6.1345745E-2,-9.322313E-1,-9.663718E-2,-6.1345745E-2,3.8020644E-2,-3.6242884E-2,1.5923044E-1,3.3251923E1,-1.4297359E-1,1.0210785E-1,-1.1642762E-1,8.364238E-2,5E-1,-1.2050382E-1,5E-1,1.0422522E-1,-4.2700566E-2,-1.3274504E-1,3.58021E1,3.273817E1,-1.6417852E-1,3.9816216E1,-9.515178E-1,8.8941103E-1,5.294972E-1,8.0582574E-2,-3.656461E-2,3.757547E1,3.305775E-2,5E-1,-6.600625E-2,5E-1,3.3287216E1,9.3466215E-2,-8.404518E-2,5E-1,1.3944572E0,1.4833488E-1,-3.97695E-2,-9.790157E-2,3.6994232E1,-3.6292024E-2,1.0370632E-1,-6.0368996E-2,3.750688E-2,9.424257E-2,-9.24273E-2,-7.865556E-2,-1.6819142E-1,9.513736E-2,-6.338885E-2,-3.70625E-2,7.517214E-2,-4.172855E-2,3.8300816E-2,1.4786722E-1,1.3312976E-2,-2.2189073E-2,1.0324935E-1,9.176612E-2,-5.3690374E-2,-1.08054735E-1,1.1284708E-1,-9.247995E-2,8.4791884E-2,-5.0269287E-2,4.445252E-2,1.6309161E-1,3.172051E-2,-1.561852E-1,-3.5327286E-3,-3.7724465E-2,4.2135347E-2,3.6441635E-2,-1.5630011E-1,9.938594E-2,-3.656461E-2,-3.656461E-2,1.0464328E-1],"split_indices":[14,0,14,52,0,4,1,13,25,7,13,3,13,12,1,13,12,55,17,3,7,28,2,0,12,0,0,59,50,4,4,0,12,2,0,13,7,0,13,0,3,20,12,0,0,4,0,12,13,58,12,4,24,0,0,7,12,0,2,0,0,12,0,2,7,17,55,3,0,12,2,0,0,13,2,13,55,0,2,3,7,3,3,2,12,13,0,0,0,13,0,0,0,0,0,2,0,1,0,0,54,0,20,0,0,0,2,2,0,2,12,7,7,0,0,2,12,55,0,23,2,0,0,28,4,0,0,0,2,0,0,0,0,0,0,0,0,0,0,0,0,0,0,0,0,0,0,0,0,0,0,0,0,0,0,0,0,0,0,0,0,0,0,0,0,0,0],"split_type":[0,0,0,0,0,0,0,0,0,0,0,0,0,0,0,0,0,0,0,0,0,0,0,0,0,0,0,0,0,0,0,0,0,0,0,0,0,0,0,0,0,0,0,0,0,0,0,0,0,0,0,0,0,0,0,0,0,0,0,0,0,0,0,0,0,0,0,0,0,0,0,0,0,0,0,0,0,0,0,0,0,0,0,0,0,0,0,0,0,0,0,0,0,0,0,0,0,0,0,0,0,0,0,0,0,0,0,0,0,0,0,0,0,0,0,0,0,0,0,0,0,0,0,0,0,0,0,0,0,0,0,0,0,0,0,0,0,0,0,0,0,0,0,0,0,0,0,0,0,0,0,0,0,0,0,0,0,0,0,0,0,0,0,0,0,0,0],"sum_hessian":[9.8885425E2,2.8194122E2,7.06913E2,4.9972275E2,2.0719029E2,1.635836E2,3.3613913E2,9.1618546E1,7.196506E1,2.9057306E2,4.5566082E1,4.515702E1,4.6461525E1,7.0218544E1,1.7465107E0,2.6121326E1,2.6445172E2,3.2309365E0,4.2335144E1,8.696212E0,3.646081E1,7.9638515E0,3.8497673E1,6.599384E1,4.2247043E0,1.4988787E0,2.4763203E-1,6.728396E0,1.9392931E1,1.4005711E2,1.243946E2,1.9858963E0,1.2450402E0,1.992665E1,2.2408497E1,6.2043333E0,2.4918783E0,2.628645E1,1.017436E1,1.7370901E0,6.226761E0,1.4417547E1,2.4080126E1,9.9979603E-1,3.224908E0,4.4873095E0,2.2410865E0,3.2369764E0,1.6155954E1,1.3657149E2,3.4856257E0,1.1467811E2,9.716493E0,7.473155E-1,4.977246E-1,9.218886E0,1.0707762E1,5.2097983E0,9.94535E-1,1.7458483E0,7.460299E-1,2.4862084E0,7.688152E0,7.459003E-1,5.4808607E0,4.216421E0,1.0201126E1,2.333028E1,7.4984705E-1,2.9944227E0,1.4928868E0,1.9883523E0,1.2486241E0,3.9778197E0,1.2178134E1,1.11688156E2,2.4883335E1,2.4903574E0,9.952684E-1,9.6753265E1,1.7924847E1,7.9719424E0,1.7445506E0,5.2340584E0,3.9848285E0,2.487939E0,8.219823E0,4.980108E-1,4.965242E-1,1.4918042E0,9.944043E-1,4.965242E-1,2.4937604E-1,2.4771595E-1,5.2331448E0,7.442695E-1,3.4721518E0,8.465456E0,1.7356702E0,7.495225E-1,2.2580757E1,1.4984413E0,1.4959813E0,1.2439946E0,2.4889217E-1,2.4861374E0,1.4916824E0,4.9908274E-1,1.1679051E1,6.410841E1,4.7579742E1,1.9165169E1,5.718167E0,7.471728E-1,2.4809566E-1,3.440162E1,6.2351643E1,1.7426115E1,4.987327E-1,7.473466E0,4.984762E-1,9.9544847E-1,7.491022E-1,3.9864461E0,1.2476121E0,3.7348368E0,2.4999169E-1,9.943665E-1,1.4935725E0,2.4777624E-1,1.244028E0,4.9526405E-1,2.490054E-1,7.4717402E0,9.937157E-1,1.1182507E1,1.1398251E1,9.972292E-1,4.9875212E-1,2.4861373E-1,1.2430687E0,2.4954137E-1,2.4954137E-1,6.286665E1,1.2417682E0,4.7395597E0,4.2840183E1,1.692728E1,2.2378888E0,4.225555E0,1.4926124E0,4.737523E0,2.9664097E1,4.7401543E1,1.4950101E1,1.4934072E1,2.4920437E0,6.97557E0,4.9789554E-1,2.4917309E-1,2.4930313E-1,2.4795471E-1,3.7384915E0,9.995164E-1,2.4809566E-1,2.4809566E-1,1.2454767E0],"tree_param":{"num_deleted":"0","num_feature":"60","num_nodes":"167","size_leaf_vector":"0"}},{"base_weights":[-1.0309042E-2,1.6769958E0,-6.270268E-1,-1.8333068E-1,-1.6757958E0,-1.1869861E0,2.969349E-1,-9.7427624E-1,-1.5151587E0,4.9074838E-1,-9.4425327E-1,-1.374969E0,-4.0290484E-1,-1.0028288E0,-1.6840221E0,2.3622096E-2,9.159834E-1,1.0800173E0,-1.0951102E0,-1.4334601E0,-3.2693338E-1,-1.22345515E-1,-1.525985E0,-1.1852944E0,1.0390303E0,8.143464E-1,-3.1125316E-1,1.0872672E0,-2.4593644E-1,-3.741179E-1,1.2925899E0,-1.5324231E0,-5.626332E-1,3.4725346E-2,-1.4603722E0,1.0199811E0,-1.1724123E0,-1.1829911E0,1.8206865E-1,-1.3075087E0,-6.823425E-2,1.0898321E0,-8.7752724E-1,-1.3409835E0,-8.571029E-2,1.1816006E0,-4.6641898E-1,-8.381426E-1,3.5464823E-1,-1.6451712E0,-4.0979424E-1,1.1218871E-1,-1.3473853E0,-5.587883E-1,6.0130984E-1,-1.1896747E0,-1.6573515E0,3.7558934E-1,-1.2804499E0,3.7110984E-1,-1.3035681E0,-6.115306E-1,-1.5586665E0,8.3981955E-1,-8.395853E-1,-8.147374E-1,1.2508625E0,-1.4900172E0,1.9370191E-1,3.513681E-1,-1.434762E0,-1.8759118E-1,1.1125584E0,1.2498231E0,7.510165E-2,-1.1606559E0,5.0531495E-1,5.024821E-1,-1.3037945E0,-3.375244E-1,1.3323199E0,-1.687797E0,-5.316545E-1,9.372719E-1,-1.123626E0,-4.9047238E-1,1.1975943E0,-1.6048391E0,2.469893E-1,-5.418684E-1,-1.4074845E0,3.6298332E-1,-1.3819407E0,-4.7657653E-3,1.0139905E0,-1.3449451E0,1.1008134E0,2.5577906E-1,-1.1990876E0,1.2752371E0,-4.1621497E-1,1.1299022E0,-9.5926744E-1,-3.4533504E-1,6.9568354E-1,-4.8690936E-1,-1.6367471E0,-5.6211572E-2,-1.1584883E0,-4.5578796E-1,1.2435678E0,1.2638546E0,-7.026034E-1,-6.668627E-1,1.3353839E0,3.5157102E-1,-1.3063065E0,-8.312201E-1,1.0306205E0,1.154146E0,-8.068936E-1,-1.514905E0,6.508143E-1,9.169189E-1,-9.895923E-1,1.5166352E0,-3.955671E-1,4.5857987E-1,-8.8500994E-1,2.87117E-1,-1.3823501E0,-3.922023E-1,1.3752983E0,8.2019544E-1,-5.9003305E-1,-1.2035593E0,4.0219536E-1,-1.4845752E0,-2.8076386E-1,4.9255904E-2,-1.4891177E0,4.859197E-1,-8.3187973E-1,1.4105551E0,-7.017253E-1,-3.7065035E-1,6.0787153E-1,-3.593106E-1,1.2977613E0,7.64865E-1,-1.20904E0,6.6541845E-1,-2.0838805E-1,-1.3340176E0,6.346557E-1,1.3611213E0,-3.3947107E-1,5.7226485E-1,1.3210489E0,-1.3147948E0,7.650936E-1,-1.3475568E-2,-1.4478462E0,1.2430555E0,-3.4641603E-1,4.107947E-1,-1.634464E0,-3.6655697E-1,1.1673508E0,8.2033086E-1,-1.4749758E0,-1.1184286E0,1.0966259E0],"categories":[],"categories_nodes":[],"categories_segments":[],"categories_sizes":[],"default_left":[true,false,true,true,false,true,true,true,true,true,true,true,true,true,false,true,true,true,true,true,true,true,false,true,false,true,true,true,true,false,false,true,true,true,true,false,false,true,true,true,true,true,true,true,true,true,true,true,true,true,true,true,true,false,false,true,false,false,true,true,false,true,false,false,false,true,true,false,true,true,true,true,true,true,true,true,true,true,true,true,true,false,true,false,false,true,true,false,true,true,true,false,true,true,true,false,false,true,false,true,false,false,false,false,false,true,false,true,true,false,true,true,false,true,false,false,true,false,true,false,false,true,false,true,true,false,false,false,false,true,false,false,false,false,false,false,false,false,false,false,false,false,false,false,false,false,false,false,false,false,false,false,false,false,false,false,false,false,false,false,false,false,false,false,false,false,false,false,false,false,false,false,false],"id":2,"left_children":[1,-1,3,5,-1,7,9,11,13,15,17,19,21,23,-1,25,27,29,31,33,35,37,-1,39,-1,41,43,45,47,-1,-1,49,51,53,55,-1,-1,57,59,61,63,65,67,69,71,73,75,77,79,81,83,85,87,-1,-1,89,-1,-1,91,93,-1,95,-1,-1,-1,97,99,-1,101,103,105,107,109,111,113,115,117,119,121,123,125,-1,127,-1,-1,129,131,-1,133,135,137,-1,139,141,143,-1,-1,145,-1,147,-1,-1,-1,-1,-1,149,-1,151,153,-1,155,157,-1,159,-1,-1,161,-1,163,-1,-1,165,-1,167,169,-1,-1,-1,-1,171,-1,-1,-1,-1,-1,-1,-1,-1,-1,-1,-1,-1,-1,-1,-1,-1,-1,-1,-1,-1,-1,-1,-1,-1,-1,-1,-1,-1,-1,-1,-1,-1,-1,-1,-1,-1,-1,-1,-1,-1,-1,-1,-1],"loss_changes":[1.0117331E3,0E0,3.310152E2,2.420658E2,0E0,9.866852E0,8.224449E1,2.2659348E1,3.6839294E0,5.8518097E1,1.5308746E1,3.15934E0,1.3428192E1,7.888216E0,0E0,3.7711643E1,3.0964615E1,1.6309037E0,9.277927E0,2.2538834E0,6.2337203E0,1.1729097E1,0E0,2.2136688E0,0E0,2.0700977E1,2.3132908E1,2.0280365E1,7.6354284E0,0E0,0E0,2.2787323E0,1.1386839E1,1.0019848E0,9.492035E-1,0E0,0E0,1.7091179E0,8.508737E0,1.6950188E0,2.6092715E0,1.2328941E1,4.54413E0,3.3476906E0,1.036361E1,9.5074005E0,6.268227E0,7.325892E0,7.857184E0,9.3193054E-2,4.381077E0,8.653133E0,4.4544506E0,0E0,0E0,2.992813E0,0E0,0E0,1.8087215E0,6.318266E0,0E0,8.592493E0,0E0,0E0,0E0,1.7387242E0,1.9284401E0,0E0,4.5858583E0,6.586037E-1,2.4908905E0,9.822952E0,1.9357347E0,4.1683044E0,8.792444E0,1.6080866E0,3.8099058E0,3.8977382E0,4.3733597E0,6.8023543E0,2.1093416E0,0E0,1.185875E0,0E0,0E0,6.3873234E0,1.8651395E0,0E0,1.5591791E0,5.6834E0,1.2589455E0,0E0,1.2374144E0,7.4996243E0,7.5518055E0,0E0,0E0,6.098895E-1,0E0,1.7234764E0,0E0,0E0,0E0,0E0,0E0,4.9384146E0,0E0,7.7522483E0,3.7387133E0,0E0,1.6562252E0,3.960617E0,0E0,6.5597887E0,0E0,0E0,8.898754E-1,0E0,1.4445288E0,0E0,0E0,2.4464264E0,0E0,1.3870008E0,5.7982464E0,0E0,0E0,0E0,0E0,7.4190645E0,0E0,0E0,0E0,0E0,0E0,0E0,0E0,0E0,0E0,0E0,0E0,0E0,0E0,0E0,0E0,0E0,0E0,0E0,0E0,0E0,0E0,0E0,0E0,0E0,0E0,0E0,0E0,0E0,0E0,0E0,0E0,0E0,0E0,0E0,0E0,0E0,0E0,0E0,0E0,0E0,0E0,0E0,0E0],"parents":[2147483647,0,0,2,2,3,3,5,5,6,6,7,7,8,8,9,9,10,10,11,11,12,12,13,13,15,15,16,16,17,17,18,18,19,19,20,20,21,21,23,23,25,25,26,26,27,27,28,28,31,31,32,32,33,33,34,34,37,37,38,38,39,39,40,40,41,41,42,42,43,43,44,44,45,45,46,46,47,47,48,48,49,49,50,50,51,51,52,52,55,55,58,58,59,59,61,61,65,65,66,66,68,68,69,69,70,70,71,71,72,72,73,73,74,74,75,75,76,76,77,77,78,78,79,79,80,80,82,82,85,85,86,86,88,88,89,89,90,90,92,92,93,93,94,94,97,97,99,99,105,105,107,107,108,108,110,110,111,111,113,113,116,116,118,118,121,121,123,123,124,124,129,129],"right_children":[2,-1,4,6,-1,8,10,12,14,16,18,20,22,24,-1,26,28,30,32,34,36,38,-1,40,-1,42,44,46,48,-1,-1,50,52,54,56,-1,-1,58,60,62,64,66,68,70,72,74,76,78,80,82,84,86,88,-1,-1,90,-1,-1,92,94,-1,96,-1,-1,-1,98,100,-1,102,104,106,108,110,112,114,116,118,120,122,124,126,-1,128,-1,-1,130,132,-1,134,136,138,-1,140,142,144,-1,-1,146,-1,148,-1,-1,-1,-1,-1,150,-1,152,154,-1,156,158,-1,160,-1,-1,162,-1,164,-1,-1,166,-1,168,170,-1,-1,-1,-1,172,-1,-1,-1,-1,-1,-1,-1,-1,-1,-1,-1,-1,-1,-1,-1,-1,-1,-1,-1,-1,-1,-1,-1,-1,-1,-1,-1,-1,-1,-1,-1,-1,-1,-1,-1,-1,-1,-1,-1,-1,-1,-1,-1],"split_conditions":[-6.641825E-1,1.6769958E-1,2.8460154E-1,5E-1,-1.6757958E-1,5E-1,1.0210785E-1,1.4658053E-1,-1.219571E2,1.8310043E-1,-1.0577245E0,3.1561532E0,1.0210785E-1,-1.2196318E2,-1.6840221E-1,-9.189993E-1,5E-1,-1.2192317E2,5E-1,-1.0634408E0,-1.22179245E2,-1.2099326E2,-1.525985E-1,1.8212525E0,1.0390303E-1,-7.8439534E-1,-1.4111645E0,1.0986986E0,7.0155096E-1,-3.741179E-2,1.2925899E-1,-1.1706954E2,-6.226161E-2,-1.1895904E2,5E-1,1.0199811E-1,-1.17241226E-1,-1.2411328E2,-8.3405696E-2,3.9847022E-1,3.3504587E-1,-1.6010432E0,5E-1,-1.0712845E0,1.5827596E0,2.3927513E-1,1.8302903E0,-1.2213344E2,9.0354395E-1,1.5562896E0,-1.1699365E2,-4.008859E-1,1.0340931E0,-5.587883E-2,6.0130984E-2,-1.1941409E0,-1.6573516E-1,3.7558936E-2,4.7152586E-2,2.5264043E-1,-1.3035682E-1,6.935574E-2,-1.5586665E-1,8.398195E-2,-8.395853E-2,-1.1413678E0,3.1190424E0,-1.4900172E-1,-3.5644454E-1,-1.0299802E-2,-6.558366E-1,5E-1,5E-1,-1.1537904E2,1.1972795E0,5.076654E-1,5E-1,2.5079843E-1,2.111123E0,-3.5409775E-2,1.3163573E0,-1.687797E-1,1.6215641E0,9.3727194E-2,-1.123626E-1,-1.0032237E0,-1.2209434E2,-1.6048391E-1,2.3147068E0,1.5288658E-1,-1.1725129E2,3.629833E-2,-1.4463401E0,5E-1,1.9691525E0,-1.3449451E-1,1.1008134E-1,-8.915063E-1,-1.19908765E-1,-1.674801E0,-4.16215E-2,1.1299022E-1,-9.592675E-2,-3.4533504E-2,6.956836E-2,-1.5983564E0,-1.6367471E-1,-7.6408076E-1,4.7299573E-1,-4.5578796E-2,-9.788071E-2,-1.1852418E0,-7.026034E-2,5E-1,1.335384E-1,3.5157103E-2,8.3493483E-1,-8.312201E-2,1.6445999E0,1.154146E-1,-8.068936E-2,-1.3533492E0,6.508143E-2,-5.651336E-1,1.0194664E0,1.5166353E-1,-3.955671E-2,4.585799E-2,-8.8501E-2,-1.1782866E0,-1.3823502E-1,-3.922023E-2,1.3752984E-1,8.2019545E-2,-5.9003305E-2,-1.2035593E-1,4.0219538E-2,-1.4845751E-1,-2.8076386E-2,4.9255905E-3,-1.4891177E-1,4.859197E-2,-8.3187975E-2,1.4105551E-1,-7.017253E-2,-3.7065037E-2,6.0787152E-2,-3.5931062E-2,1.2977614E-1,7.64865E-2,-1.20904006E-1,6.654184E-2,-2.0838805E-2,-1.3340177E-1,6.346557E-2,1.3611214E-1,-3.3947106E-2,5.7226487E-2,1.3210489E-1,-1.3147949E-1,7.6509364E-2,-1.3475568E-3,-1.4478461E-1,1.2430555E-1,-3.4641605E-2,4.1079473E-2,-1.6344641E-1,-3.6655698E-2,1.1673508E-1,8.203309E-2,-1.4749758E-1,-1.1184286E-1,1.0966259E-1],"split_indices":[14,0,14,52,0,37,1,9,3,8,9,10,1,3,0,12,37,3,16,9,3,3,0,8,0,5,8,9,6,0,0,3,5,3,54,0,0,3,10,9,6,8,45,9,6,12,13,3,0,0,3,9,0,0,0,6,0,0,5,7,0,9,0,0,0,13,11,0,7,0,6,37,40,3,0,8,57,0,0,12,5,0,0,0,0,5,3,0,1,0,3,0,0,43,7,0,0,0,0,0,0,0,0,0,0,8,0,12,10,0,8,0,0,30,0,0,5,0,5,0,0,5,0,0,6,0,0,0,0,5,0,0,0,0,0,0,0,0,0,0,0,0,0,0,0,0,0,0,0,0,0,0,0,0,0,0,0,0,0,0,0,0,0,0,0,0,0,0,0,0,0,0,0],"split_type":[0,0,0,0,0,0,0,0,0,0,0,0,0,0,0,0,0,0,0,0,0,0,0,0,0,0,0,0,0,0,0,0,0,0,0,0,0,0,0,0,0,0,0,0,0,0,0,0,0,0,0,0,0,0,0,0,0,0,0,0,0,0,0,0,0,0,0,0,0,0,0,0,0,0,0,0,0,0,0,0,0,0,0,0,0,0,0,0,0,0,0,0,0,0,0,0,0,0,0,0,0,0,0,0,0,0,0,0,0,0,0,0,0,0,0,0,0,0,0,0,0,0,0,0,0,0,0,0,0,0,0,0,0,0,0,0,0,0,0,0,0,0,0,0,0,0,0,0,0,0,0,0,0,0,0,0,0,0,0,0,0,0,0,0,0,0,0,0,0,0,0,0,0],"sum_hessian":[9.702574E2,2.5924863E2,7.110088E2,5.0045795E2,2.1055081E2,1.6149513E2,3.389628E2,1.0039285E2,6.110228E1,2.9370493E2,4.5257874E1,5.8183414E1,4.2209442E1,1.6866926E1,4.4235355E1,1.4046158E2,1.5324336E2,2.711704E0,4.254617E1,5.4759514E1,3.4238992E0,3.4659904E1,7.5495358E0,1.586839E1,9.985355E-1,4.1362522E1,9.909906E1,1.3361136E2,1.9632E1,2.4892716E-1,2.4627767E0,2.2329483E1,2.0216686E1,9.804585E-1,5.3779057E1,1.2408047E0,2.1830945E0,7.085689E0,2.7574217E1,1.4149809E1,1.7185813E0,3.5876617E1,5.485903E0,1.691715E1,8.218191E1,1.2618916E2,7.4221997E0,9.685789E0,9.946212E0,1.9868576E1,2.4609067E0,1.1330463E1,8.886223E0,4.8557E-1,4.948885E-1,2.5616016E1,2.8163038E1,2.4904697E-1,6.836642E0,2.5127098E1,2.4471188E0,4.6630297E0,9.486779E0,7.4857527E-1,9.70006E-1,2.4804013E0,3.3396217E1,3.241557E0,2.244346E0,7.439971E-1,1.6173153E1,7.651941E1,5.662494E0,1.1873866E2,7.450495E0,4.215849E0,3.2063508E0,2.476573E0,7.2092166E0,6.206732E0,3.7394795E0,1.863932E1,1.2292562E0,7.439637E-1,1.716943E0,7.63778E0,3.6926835E0,7.645149E0,1.2410738E0,7.3232183E0,1.8292799E1,2.4778391E-1,6.588858E0,1.6482687E1,8.644411E0,3.4149365E0,1.2480932E0,7.436518E-1,1.7367495E0,3.314662E1,2.4959597E-1,1.2496493E0,9.9469674E-1,2.4509656E-1,4.9890053E-1,3.4401636E0,1.2732989E1,6.8330925E1,8.18849E0,2.454236E-1,5.4170704E0,1.1824157E2,4.9709827E-1,4.985972E0,2.4645226E0,2.4617055E-1,3.9696782E0,7.403422E-1,2.4660087E0,1.7327514E0,7.438215E-1,6.7095037E0,4.9971282E-1,1.9839168E0,4.222815E0,3.4895103E0,2.4996917E-1,2.4497059E-1,9.842855E-1,4.442571E0,3.1952088E0,2.4990427E-1,3.4427793E0,7.485549E-1,4.9251902E-1,4.1439013E0,3.1793165E0,1.6824081E1,1.468716E0,4.9669048E-1,6.0921674E0,1.0604235E1,5.878452E0,7.1659584E0,1.4784533E0,2.4861616E-1,4.9503565E-1,2.4731396E-1,3.2899307E1,1.2368951E0,2.2032685E0,1.1312707E1,5.7018215E1,7.6916103E0,4.9687946E-1,5.1731095E0,2.4396095E-1,9.872264E0,1.083693E2,3.4890602E0,1.4969119E0,4.997887E-1,3.4698896E0,2.220716E0,2.4529256E-1,2.4981992E-1,6.459684E0,2.4819674E-1,1.7357199E0,7.4706244E-1,3.4757528E0,1.4841086E0,2.9584627E0],"tree_param":{"num_deleted":"0","num_feature":"60","num_nodes":"173","size_leaf_vector":"0"}},{"base_weights":[-1.3435518E-2,1.5719708E0,-6.17343E-1,-2.1938919E-1,-1.5705262E0,4.0917303E-3,-1.3142366E0,-9.608068E-1,2.1199214E-1,-1.5676134E0,-1.0635021E0,-1.213826E0,-3.62658E-1,4.0381867E-1,-1.0065745E0,-1.470334E0,-7.5873834E-1,-1.329677E0,5.9847743E-3,1.0186633E-1,-1.3442395E0,5.7420814E-1,-7.486794E-1,8.6851144E-1,-1.1646868E0,-9.4887584E-1,6.525154E-1,-1.3824395E0,8.051263E-1,8.511007E-1,-7.1772E-1,-8.797548E-1,4.961413E-1,-1.4381212E0,7.6327957E-3,9.807733E-1,9.3414456E-2,7.2300214E-1,-1.0524083E0,-2.9477632E-1,1.2081578E0,-2.2282238E-1,-1.3908143E0,-1.2246279E0,2.7436814E-1,1.165427E0,-6.794546E-1,-4.7726244E-1,-1.4223405E0,1.0771278E0,-3.263435E-1,3.0613637E-1,-1.1078612E0,1.5042885E-1,-1.2441872E0,6.817321E-1,-8.404392E-1,3.2508186E-1,-3.1657225E-1,1.1152326E0,4.8722997E-1,-1.6524285E-1,6.115206E-1,-5.0715417E-1,1.2136097E0,8.582962E-1,-1.1259456E0,3.4617585E-1,-6.307896E-1,-1.2305727E0,6.979084E-1,-7.6914537E-1,-1.5926931E0,-1.3853042E0,-3.726257E-1,1.2425966E0,-6.525666E-1,-9.471543E-1,2.0999931E-1,-1.5176817E0,-9.4777495E-1,-3.1519476E-1,6.158308E-1,-6.111836E-1,7.2251457E-1,-1.2994614E-1,1.0415175E0,1.3439782E0,7.6218265E-1,-1.2937279E0,6.351394E-1,-2.8549695E-1,8.773947E-1,8.782347E-1,-6.111648E-1,-1.0117295E0,5.890567E-1,-3.961477E-1,1.3696907E0,6.7210776E-1,-1.1771785E0,1.16763E0,-5.553094E-1,1.0678595E-1,-1.4141147E0,-1.6239264E0,-3.983126E-1,-1.5132703E0,-4.2844585E-1,8.719505E-1,-9.4881845E-1,3.02455E-1,-1.0317514E0,7.2623336E-1,-5.3617895E-1,-1.6483268E0,-9.2406684E-1,-1.0736926E0,2.6448655E-1,-1.00096E0,6.272401E-1,2.9475715E-2,1.3525867E0,-1.5815423E-1,1.3810931E0,9.8421425E-1,9.494376E-2,7.411702E-1,-1.0003985E0,-6.166405E-1,2.6914274E-2,1.1191322E0,-4.6550268E-1,9.999271E-1,-8.3866817E-1,-1.0120789E0,3.6003265E-1,-6.407372E-1,-1.4393058E0,-3.562178E-1,1.3440534E0,3.2966197E-1,-8.321536E-1,-1.1016861E0,1.25247E0,3.36854E-1,-6.981799E-1,-1.0160931E0,7.214783E-1,-1.1685688E0,4.0506655E-1,-3.387676E-1,6.329127E-1],"categories":[],"categories_nodes":[],"categories_segments":[],"categories_sizes":[],"default_left":[true,false,true,true,false,true,true,true,true,false,true,true,true,true,true,false,true,true,true,true,true,true,true,true,true,true,true,true,false,true,true,true,true,false,true,true,true,true,true,true,false,true,true,true,true,false,false,true,true,false,false,true,false,true,false,true,false,false,false,true,true,true,true,true,true,false,true,false,false,false,true,true,true,true,true,false,true,false,true,true,true,false,false,false,false,true,true,true,true,false,true,true,true,true,true,false,false,false,false,false,true,true,true,true,false,false,true,false,true,false,true,true,false,false,false,false,false,false,false,false,false,false,false,false,false,false,false,false,false,false,false,false,false,false,false,false,false,false,false,false,false,false,false,false,false,false,false,false,false,false,false,false,false],"id":3,"left_children":[1,-1,3,5,-1,7,9,11,13,-1,15,17,19,21,23,-1,25,27,29,31,33,35,37,39,41,43,45,47,-1,49,51,53,55,-1,57,59,61,63,65,67,-1,69,71,73,75,-1,-1,77,79,-1,-1,81,-1,83,-1,85,-1,-1,-1,87,89,91,93,95,97,-1,99,-1,-1,-1,101,103,105,107,109,-1,111,-1,113,115,117,-1,-1,-1,-1,119,121,123,125,-1,127,129,131,133,135,-1,-1,-1,-1,-1,137,139,141,143,-1,-1,145,-1,147,-1,149,151,-1,-1,-1,-1,-1,-1,-1,-1,-1,-1,-1,-1,-1,-1,-1,-1,-1,-1,-1,-1,-1,-1,-1,-1,-1,-1,-1,-1,-1,-1,-1,-1,-1,-1,-1,-1,-1,-1,-1,-1,-1],"loss_changes":[9.170793E2,0E0,2.6275946E2,1.2001607E2,0E0,8.2117E1,3.6153412E0,1.0542145E1,7.91276E1,0E0,4.451729E0,7.1541443E0,1.062288E1,5.770809E1,1.4676075E1,0E0,8.062065E0,6.3154373E0,3.9023714E0,6.8377137E0,9.574747E-1,4.9691116E1,1.7747833E1,1.9986119E0,8.834049E0,8.718796E0,3.4466343E0,9.623947E-1,0E0,1.1339731E0,1.7138985E0,2.1019075E0,3.6586137E0,0E0,2.5512776E-1,8.606888E0,1.5886557E1,4.89695E0,5.4498177E0,5.9381855E-1,0E0,9.67614E0,3.096054E0,2.2851315E0,5.6471004E0,0E0,0E0,1.3044882E0,5.079422E-1,0E0,0E0,5.2759075E-1,0E0,1.4109795E0,0E0,3.4863205E0,0E0,0E0,0E0,7.6642456E0,9.066214E0,1.0200154E1,1.339733E1,2.1048112E0,1.8908777E0,0E0,3.6615105E0,0E0,0E0,0E0,3.9472024E0,6.011759E0,2.8788376E-1,1.4146538E0,4.1366243E0,0E0,1.5464478E0,0E0,1.2401989E0,1.125885E0,1.78899E0,0E0,0E0,0E0,0E0,3.538476E0,2.4980192E0,3.7852402E0,6.515497E0,0E0,5.8691864E0,7.4552317E0,3.264586E0,7.688486E0,3.343727E0,0E0,0E0,0E0,0E0,0E0,3.3889046E0,1.6612577E0,8.146689E-1,8.758079E0,0E0,0E0,6.680481E-1,0E0,3.0187333E0,0E0,1.5543067E0,5.835489E-1,0E0,0E0,0E0,0E0,0E0,0E0,0E0,0E0,0E0,0E0,0E0,0E0,0E0,0E0,0E0,0E0,0E0,0E0,0E0,0E0,0E0,0E0,0E0,0E0,0E0,0E0,0E0,0E0,0E0,0E0,0E0,0E0,0E0,0E0,0E0,0E0,0E0,0E0,0E0,0E0,0E0],"parents":[2147483647,0,0,2,2,3,3,5,5,6,6,7,7,8,8,10,10,11,11,12,12,13,13,14,14,16,16,17,17,18,18,19,19,20,20,21,21,22,22,23,23,24,24,25,25,26,26,27,27,29,29,30,30,31,31,32,32,34,34,35,35,36,36,37,37,38,38,39,39,41,41,42,42,43,43,44,44,47,47,48,48,51,51,53,53,55,55,59,59,60,60,61,61,62,62,63,63,64,64,66,66,70,70,71,71,72,72,73,73,74,74,76,76,78,78,79,79,80,80,85,85,86,86,87,87,88,88,90,90,91,91,92,92,93,93,94,94,100,100,101,101,102,102,103,103,106,106,108,108,110,110,111,111],"right_children":[2,-1,4,6,-1,8,10,12,14,-1,16,18,20,22,24,-1,26,28,30,32,34,36,38,40,42,44,46,48,-1,50,52,54,56,-1,58,60,62,64,66,68,-1,70,72,74,76,-1,-1,78,80,-1,-1,82,-1,84,-1,86,-1,-1,-1,88,90,92,94,96,98,-1,100,-1,-1,-1,102,104,106,108,110,-1,112,-1,114,116,118,-1,-1,-1,-1,120,122,124,126,-1,128,130,132,134,136,-1,-1,-1,-1,-1,138,140,142,144,-1,-1,146,-1,148,-1,150,152,-1,-1,-1,-1,-1,-1,-1,-1,-1,-1,-1,-1,-1,-1,-1,-1,-1,-1,-1,-1,-1,-1,-1,-1,-1,-1,-1,-1,-1,-1,-1,-1,-1,-1,-1,-1,-1,-1,-1,-1,-1],"split_conditions":[-6.641825E-1,1.5719709E-1,2.8460154E-1,5E-1,-1.5705262E-1,5E-1,5E-1,7.536114E-1,1.0210785E-1,-1.5676133E-1,5E-1,5E-1,1.4006014E0,5E-1,-1.0514494E0,-1.4703341E-1,5E-1,2.75177E0,5E-1,-2.9579842E-1,1.7517824E0,-4.9209934E-1,-1.133642E0,-1.0643084E0,-9.8208165E-1,1.879761E0,5E-1,-9.1015804E-1,8.0512635E-2,3.7012657E1,-9.4304E-1,-5.6532925E-1,1.9414668E0,-1.4381212E-1,3.3526466E1,5E-1,5E-1,-1.0714152E0,-1.1115537E0,3.312475E1,1.2081578E-1,-1.2881967E0,5E-1,3.856883E1,-6.6098696E-1,1.165427E-1,-6.7945465E-2,-9.0158075E-2,5E-1,1.0771278E-1,-3.263435E-2,3.648049E1,-1.1078612E-1,-9.4232696E-1,-1.2441873E-1,5E-1,-8.404392E-2,3.2508187E-2,-3.1657226E-2,-8.1341696E-1,-1.0489919E0,1.4068625E0,5E-1,5E-1,-1.2750081E0,8.582962E-2,-1.0712965E0,3.4617584E-2,-6.307896E-2,-1.2305727E-1,3.4274483E1,3.4634438E1,1.7882247E0,3.3569747E-1,3.8632477E1,1.24259666E-1,-9.0583515E-1,-9.471543E-2,-5.3324506E-2,2.6181433E-1,1.8030384E0,-3.1519476E-2,6.158308E-2,-6.111836E-2,7.225146E-2,1.0899019E-1,5E-1,-1.0653067E0,5E-1,-1.2937279E-1,-5.6056166E-1,3.5183235E1,3.587569E1,1.8662283E0,3.4127472E1,-1.0117295E-1,5.890567E-2,-3.961477E-2,1.3696907E-1,6.721078E-2,-5.3887427E-1,3.358464E1,-1.2364833E0,3.4056557E1,-1.4141147E-1,-1.6239265E-1,1.2084074E0,-1.5132703E-1,5E-1,8.719505E-2,4.193743E1,1.2138251E0,-1.0317514E-1,7.2623335E-2,-5.3617895E-2,-1.6483268E-1,-9.240668E-2,-1.0736926E-1,2.6448656E-2,-1.00096E-1,6.272402E-2,2.9475715E-3,1.3525867E-1,-1.5815424E-2,1.3810931E-1,9.8421425E-2,9.494376E-3,7.411703E-2,-1.00039855E-1,-6.1664052E-2,2.6914275E-3,1.1191322E-1,-4.655027E-2,9.9992715E-2,-8.386682E-2,-1.0120789E-1,3.6003266E-2,-6.407372E-2,-1.4393058E-1,-3.562178E-2,1.3440534E-1,3.2966197E-2,-8.321536E-2,-1.1016861E-1,1.25247E-1,3.36854E-2,-6.981799E-2,-1.0160931E-1,7.214783E-2,-1.1685689E-1,4.0506657E-2,-3.3876758E-2,6.3291274E-2],"split_indices":[14,0,14,54,0,36,57,6,1,0,36,25,12,35,9,0,32,9,38,13,6,12,13,9,6,13,49,7,0,2,9,12,7,0,2,55,29,9,15,2,0,6,19,2,7,0,0,12,22,0,0,2,0,9,0,46,0,0,0,9,15,15,43,59,6,0,9,0,0,0,2,2,6,7,2,0,15,0,6,6,7,0,0,0,0,9,34,9,16,0,12,2,2,9,2,0,0,0,0,0,6,2,6,2,0,0,1,0,30,0,2,6,0,0,0,0,0,0,0,0,0,0,0,0,0,0,0,0,0,0,0,0,0,0,0,0,0,0,0,0,0,0,0,0,0,0,0,0,0,0,0,0,0],"split_type":[0,0,0,0,0,0,0,0,0,0,0,0,0,0,0,0,0,0,0,0,0,0,0,0,0,0,0,0,0,0,0,0,0,0,0,0,0,0,0,0,0,0,0,0,0,0,0,0,0,0,0,0,0,0,0,0,0,0,0,0,0,0,0,0,0,0,0,0,0,0,0,0,0,0,0,0,0,0,0,0,0,0,0,0,0,0,0,0,0,0,0,0,0,0,0,0,0,0,0,0,0,0,0,0,0,0,0,0,0,0,0,0,0,0,0,0,0,0,0,0,0,0,0,0,0,0,0,0,0,0,0,0,0,0,0,0,0,0,0,0,0,0,0,0,0,0,0,0,0,0,0,0,0],"sum_hessian":[9.558329E2,2.632179E2,6.92615E2,4.894852E2,2.031298E2,4.0733582E2,8.214937E1,7.156587E1,3.3576996E2,3.8247128E1,4.390224E1,4.9568787E1,2.199709E1,2.906798E2,4.5090145E1,1.7164577E1,2.6737665E1,4.5187096E1,4.381691E0,1.5539424E1,6.4576654E0,2.5367705E2,3.7002758E1,3.1570473E0,4.1933098E1,2.3851765E1,2.8858995E0,4.4441143E1,7.459531E-1,1.9400909E0,2.4416E0,4.1001105E0,1.1439313E1,5.9786725E0,4.7899297E-1,1.3688525E2,1.16791794E2,6.0941043E0,3.0908655E1,7.4331224E-1,2.413735E0,8.502779E0,3.3430317E1,1.9463123E1,4.388641E0,2.1738386E0,7.120609E-1,2.4235184E0,4.2017624E1,1.6991191E0,2.4097179E-1,7.330801E-1,1.7085199E0,1.2248651E0,2.8752456E0,1.0474781E1,9.645318E-1,2.406517E-1,2.3834127E-1,1.06587326E2,3.029793E1,7.835514E1,3.8436653E1,1.7278762E0,4.366228E0,7.499987E-1,3.0158655E1,2.4524938E-1,4.980629E-1,3.8988864E0,4.603893E0,9.373951E0,2.4056368E1,1.5848386E1,3.6147387E0,1.9799466E0,2.4086945E0,1.2147903E0,1.2087281E0,3.3158062E1,8.859562E0,2.379424E-1,4.951377E-1,4.9608672E-1,7.2877836E-1,3.4132621E0,7.061519E0,6.2976967E1,4.361036E1,1.7292693E0,2.856866E1,7.090356E1,7.4515843E0,3.1784882E1,6.651772E0,1.2360165E0,4.9185967E-1,2.4997674E-1,4.1162515E0,4.9978197E-1,2.9658875E1,3.3984182E0,1.2054746E0,4.3290753E0,5.044875E0,2.3092846E1,9.6352273E-1,1.3466002E1,2.3823826E0,9.8146904E-1,2.6332695E0,7.4206656E-1,1.666628E0,7.30246E-1,4.7848207E-1,2.572061E1,7.437452E0,8.129461E0,7.3010063E-1,1.4376006E0,1.9756615E0,1.9175762E0,5.143943E0,1.4398899E0,6.1537075E1,3.2365353E1,1.1245006E1,2.7342875E1,1.2257859E0,3.394713E1,3.6956425E1,6.4560475E0,9.955368E-1,3.0071072E1,1.7138103E0,4.6784115E0,1.9733605E0,1.0866022E1,1.8792852E1,2.4688207E-1,3.1515362E0,2.4178614E-1,9.636885E-1,2.1254966E0,2.203579E0,2.4341454E-1,7.201082E-1,1.653682E0,7.2870076E-1,2.3833094E0,2.499601E-1,2.438165E-1,4.9825007E-1],"tree_param":{"num_deleted":"0","num_feature":"60","num_nodes":"153","size_leaf_vector":"0"}},{"base_weights":[-7.4901716E-3,1.4879438E0,-5.694512E-1,-1.9378364E-1,-1.4865383E0,9.4916485E-2,-1.2398187E0,-9.3537825E-1,2.956447E-1,-4.9500751E-1,-1.4567839E0,1.4228074E-1,-1.0805207E0,-8.8743687E-1,5.070219E-1,-9.824811E-1,5.4619414E-1,-1.5041473E0,-6.5056604E-1,5.7464105E-1,-9.8620284E-1,-3.213431E-2,-1.1808256E0,5.4076433E-1,-1.0760045E0,9.4983953E-1,1.3990079E-1,8.221401E-1,-1.1142194E0,1.2940357E0,-1.881472E-1,9.9530673E-1,-1.2642789E0,1.0262632E0,-6.1542726E-1,-6.334051E-1,1.0290726E0,-1.3285052E0,-5.947616E-1,1.0733948E0,-5.546233E-1,-1.2706745E0,-2.8011385E-1,1.0610161E0,2.6051742E-1,-1.4044534E-1,1.1025273E0,-2.1432579E-1,-1.4914308E0,8.4429985E-1,-6.945067E-1,-3.2459953E-1,1.1596311E0,3.399466E-1,-8.785323E-1,-1.0616916E0,1.404764E-1,1.0389886E-2,-1.3637015E0,-9.732032E-1,2.2175917E-1,1.2483758E0,-3.8828802E-1,-7.6797813E-1,3.1841493E-1,6.8741804E-1,-1.3203088E0,5.0510854E-1,-9.440872E-1,5.9397006E-1,1.2077286E0,-5.948094E-1,7.6128066E-1,-3.893296E-1,4.0241748E-1,1.2906702E0,-5.739409E-1,5.452787E-1,-6.924568E-1,6.9322914E-1,-1.2044313E0,5.174893E-1,-4.6807277E-1,-6.300558E-1,6.440317E-1,-6.46085E-1,-1.4424318E0,5.4140574E-1,-1.1372141E0,1.0553821E0,-5.1609516E-1,-1.0258348E0,3.1678262E-1,-5.3729093E-1,-1.402196E0,9.6627414E-1,-7.5672567E-1,-1.9820001E-2,-1.190052E0,-1.2420919E0,7.8850037E-1,-5.2307993E-1,1.2195543E0,9.0750366E-1,-1.0416061E0,-7.5033796E-1,1.0877975E0,-5.782572E-1,6.182499E-1,4.864615E-1,-9.886784E-1,1.391331E0,-4.3523452E-1,7.619726E-1,-1.101826E0,9.754486E-1,-5.3417826E-1,4.8986495E-1,-1.2070935E0,-2.7555564E-1,7.7750933E-1,-1.1393937E0,8.299557E-1,-1.4657383E0,-1.632405E-1,1.1335767E-1,-1.235745E0,-9.4424313E-1,5.7639325E-1,-1.0001706E0,8.443395E-1,-1.666686E-1,-1.4272245E0,1.1192814E0,-3.0375275E-1,-5.3890604E-1,4.3981493E-1,8.5343456E-1,-8.140338E-1,-3.3204797E-1,1.2286811E0,-1.3293104E0,5.9258625E-2,-1.0207047E0,3.8064596E-1,-4.233145E-1,1.1684123E0,-4.703525E-1,-1.4064552E0,9.2993677E-1,-5.235573E-1,2.689169E-1,1.1178801E0,-4.3617344E-1,1.4224302E0,-9.022658E-1,4.9254885E-1,-2.917111E-1,7.609992E-1],"categories":[],"categories_nodes":[],"categories_segments":[],"categories_sizes":[],"default_left":[true,false,true,true,false,true,true,true,true,true,true,true,true,true,true,true,true,false,true,true,false,true,true,true,true,true,true,false,true,false,true,false,false,true,true,true,false,true,true,true,true,true,true,true,true,true,true,true,false,false,true,false,false,false,false,false,true,true,true,true,true,false,false,true,false,false,true,true,true,true,true,true,true,true,true,true,true,true,true,false,false,true,false,false,false,true,true,false,true,false,true,false,false,true,true,true,false,true,false,false,true,false,true,false,true,true,true,true,true,true,false,true,true,false,false,false,false,true,false,false,false,false,false,false,false,false,false,false,false,false,false,false,false,false,false,false,false,false,false,false,false,false,false,false,false,false,false,false,false,false,false,false,false,false,false,false,false,false,false],"id":4,"left_children":[1,-1,3,5,-1,7,9,11,13,15,17,19,21,23,25,27,29,-1,31,33,-1,35,37,39,41,43,45,-1,47,-1,49,-1,-1,51,53,55,-1,57,59,61,63,65,67,69,71,73,75,77,-1,-1,79,-1,-1,-1,-1,-1,81,83,85,87,89,-1,-1,91,-1,-1,93,95,97,99,101,103,105,107,109,111,113,115,117,-1,-1,119,-1,-1,-1,121,123,-1,125,-1,127,-1,-1,129,131,133,-1,135,-1,-1,137,-1,139,-1,141,143,145,147,149,151,-1,153,155,-1,-1,-1,-1,157,-1,-1,-1,-1,-1,-1,-1,-1,-1,-1,-1,-1,-1,-1,-1,-1,-1,-1,-1,-1,-1,-1,-1,-1,-1,-1,-1,-1,-1,-1,-1,-1,-1,-1,-1,-1,-1,-1,-1,-1,-1],"loss_changes":[7.751942E2,0E0,2.3070274E2,1.4410251E2,0E0,7.774463E1,1.5955627E1,9.744991E0,7.904088E1,1.3121587E1,2.0534973E0,4.5490856E0,5.6571655E0,1.3509251E1,4.3315964E1,5.0159683E0,4.9386177E0,0E0,7.4887E0,4.1428194E0,0E0,4.3252473E0,3.4854584E0,4.2500076E0,6.265625E0,8.994377E0,3.9905167E1,0E0,5.2802143E0,0E0,3.2979534E0,0E0,0E0,1.2971616E0,9.0753824E-1,1.5723258E0,0E0,1.8353806E0,3.8476653E0,1.6498361E0,7.4907774E-1,4.2174263E0,5.5246058E0,6.398239E0,8.21665E0,1.5688979E1,1.1255035E1,2.571402E0,0E0,0E0,3.6858008E0,0E0,0E0,0E0,0E0,0E0,7.958165E-1,1.2102418E0,1.1960526E0,2.656817E0,3.335153E0,0E0,0E0,1.0158125E0,0E0,0E0,1.3982048E0,3.691584E0,1.2482362E0,1.0548229E1,2.235527E0,5.8149667E0,6.6756134E0,1.545894E1,4.7634106E0,5.865944E0,3.6996932E0,1.8643514E0,3.114973E0,0E0,0E0,6.1940545E-1,0E0,0E0,0E0,4.975932E0,7.484436E-1,0E0,1.093358E0,0E0,1.9840553E0,0E0,0E0,3.9130907E0,6.823387E-1,1.1493163E0,0E0,7.6019955E-1,0E0,0E0,3.2791271E0,0E0,1.5100632E0,0E0,1.9973135E0,1.2143126E0,1.7336073E0,5.3547535E0,5.1168175E0,4.536256E0,0E0,2.2600021E0,1.4974995E0,0E0,0E0,0E0,0E0,6.392815E-1,0E0,0E0,0E0,0E0,0E0,0E0,0E0,0E0,0E0,0E0,0E0,0E0,0E0,0E0,0E0,0E0,0E0,0E0,0E0,0E0,0E0,0E0,0E0,0E0,0E0,0E0,0E0,0E0,0E0,0E0,0E0,0E0,0E0,0E0,0E0,0E0,0E0,0E0,0E0,0E0,0E0],"parents":[2147483647,0,0,2,2,3,3,5,5,6,6,7,7,8,8,9,9,10,10,11,11,12,12,13,13,14,14,15,15,16,16,18,18,19,19,21,21,22,22,23,23,24,24,25,25,26,26,28,28,30,30,33,33,34,34,35,35,37,37,38,38,39,39,40,40,41,41,42,42,43,43,44,44,45,45,46,46,47,47,50,50,56,56,57,57,58,58,59,59,60,60,63,63,66,66,67,67,68,68,69,69,70,70,71,71,72,72,73,73,74,74,75,75,76,76,77,77,78,78,81,81,85,85,86,86,88,88,90,90,93,93,94,94,95,95,97,97,100,100,102,102,104,104,105,105,106,106,107,107,108,108,109,109,111,111,112,112,117,117],"right_children":[2,-1,4,6,-1,8,10,12,14,16,18,20,22,24,26,28,30,-1,32,34,-1,36,38,40,42,44,46,-1,48,-1,50,-1,-1,52,54,56,-1,58,60,62,64,66,68,70,72,74,76,78,-1,-1,80,-1,-1,-1,-1,-1,82,84,86,88,90,-1,-1,92,-1,-1,94,96,98,100,102,104,106,108,110,112,114,116,118,-1,-1,120,-1,-1,-1,122,124,-1,126,-1,128,-1,-1,130,132,134,-1,136,-1,-1,138,-1,140,-1,142,144,146,148,150,152,-1,154,156,-1,-1,-1,-1,158,-1,-1,-1,-1,-1,-1,-1,-1,-1,-1,-1,-1,-1,-1,-1,-1,-1,-1,-1,-1,-1,-1,-1,-1,-1,-1,-1,-1,-1,-1,-1,-1,-1,-1,-1,-1,-1,-1,-1,-1,-1],"split_conditions":[-6.641825E-1,1.4879438E-1,2.8460154E-1,-5.519163E-2,-1.4865384E-1,5E-1,-5.2180123E-1,-8.5478675E-1,-1.0485865E0,6.148059E-1,2.8344536E0,1.0322921E0,-1.2263185E2,-1.133642E0,-6.9686395E-1,-1.1105211E0,-1.2023926E2,-1.5041474E-1,2.8914876E0,5E-1,-9.862029E-2,-1.22716446E2,-4.1760385E-1,-1.19166046E2,-1.4335558E0,-6.403826E-1,-4.1760385E-1,8.221401E-2,-1.2220521E0,1.2940358E-1,6.577973E-1,9.9530675E-2,-1.2642789E-1,-1.2244324E2,-1.21891655E2,6.237624E-1,1.0290726E-1,-1.1197479E0,9.6231985E-1,-1.3533492E0,-1.570591E0,-1.7292498E0,-1.2108583E2,5E-1,5E-1,5.377718E-1,1.0210785E-1,5E-1,-1.4914308E-1,8.442999E-2,-8.864366E-1,-3.2459956E-2,1.1596312E-1,3.399466E-2,-8.785323E-2,-1.06169164E-1,-1.2326272E2,-1.1254904E0,-1.22226944E2,-1.1345208E0,8.3493483E-1,1.2483758E-1,-3.88288E-2,-4.1760385E-1,3.1841494E-2,6.8741806E-2,-1.1136005E0,-2.2045739E-1,5E-1,-1.0489919E0,-6.1433214E-1,-1.2253841E2,-3.3906615E-1,1.1276218E0,2.675326E-2,4.7574937E-1,-1.9755274E-1,-1.175166E2,5E-1,6.9322914E-2,-1.2044313E-1,-3.2875884E-1,-4.6807278E-2,-6.300558E-2,6.440317E-2,-1.2227134E2,1.7624457E0,5.4140575E-2,-1.2206569E2,1.0553821E-1,2.306438E0,-1.0258348E-1,3.1678263E-2,-1.1178749E0,-1.3533492E0,1.7615571E0,-7.567257E-2,6.903541E-2,-1.190052E-1,-1.2420919E-1,1.8233874E0,-5.2307993E-2,-1.5222256E0,9.075037E-2,1.244451E0,-6.684361E-1,-1.0972986E0,5E-1,-1.1754675E2,2.4358295E-2,-9.886784E-2,-6.382147E-1,-1.17709145E2,7.619726E-2,-1.101826E-1,9.7544864E-2,-5.3417828E-2,-1.17782974E2,-1.2070935E-1,-2.7555564E-2,7.7750936E-2,-1.1393937E-1,8.299557E-2,-1.4657383E-1,-1.632405E-2,1.1335767E-2,-1.23574495E-1,-9.4424315E-2,5.7639327E-2,-1.0001706E-1,8.443395E-2,-1.666686E-2,-1.4272246E-1,1.1192814E-1,-3.0375276E-2,-5.3890605E-2,4.3981493E-2,8.534346E-2,-8.140338E-2,-3.3204798E-2,1.2286811E-1,-1.3293104E-1,5.9258626E-3,-1.0207047E-1,3.8064595E-2,-4.2331453E-2,1.16841234E-1,-4.703525E-2,-1.4064552E-1,9.299368E-2,-5.2355733E-2,2.6891692E-2,1.1178801E-1,-4.3617345E-2,1.4224301E-1,-9.022658E-2,4.9254887E-2,-2.917111E-2,7.6099925E-2],"split_indices":[14,0,14,4,0,36,5,7,7,8,12,13,3,13,5,15,3,0,12,43,0,3,4,3,8,12,4,0,5,0,8,0,0,3,3,8,0,13,8,5,8,8,3,56,48,15,1,30,0,0,12,0,0,0,0,0,3,13,3,5,5,0,0,4,0,0,13,13,50,15,10,3,8,8,10,10,8,3,20,0,0,7,0,0,0,3,10,0,3,0,13,0,0,13,5,1,0,5,0,0,15,0,8,0,8,13,15,33,3,12,0,8,3,0,0,0,0,3,0,0,0,0,0,0,0,0,0,0,0,0,0,0,0,0,0,0,0,0,0,0,0,0,0,0,0,0,0,0,0,0,0,0,0,0,0,0,0,0,0],"split_type":[0,0,0,0,0,0,0,0,0,0,0,0,0,0,0,0,0,0,0,0,0,0,0,0,0,0,0,0,0,0,0,0,0,0,0,0,0,0,0,0,0,0,0,0,0,0,0,0,0,0,0,0,0,0,0,0,0,0,0,0,0,0,0,0,0,0,0,0,0,0,0,0,0,0,0,0,0,0,0,0,0,0,0,0,0,0,0,0,0,0,0,0,0,0,0,0,0,0,0,0,0,0,0,0,0,0,0,0,0,0,0,0,0,0,0,0,0,0,0,0,0,0,0,0,0,0,0,0,0,0,0,0,0,0,0,0,0,0,0,0,0,0,0,0,0,0,0,0,0,0,0,0,0,0,0,0,0,0,0],"sum_hessian":[9.204295E2,2.5095793E2,6.694716E2,4.7578604E2,1.9368556E2,3.7358722E2,1.0219883E2,6.0319626E1,3.1326758E2,2.3795103E1,7.8403725E1,7.1620803E0,5.3157547E1,4.7001434E1,2.6626614E2,1.6245583E1,7.5495195E0,7.323563E1,5.168098E0,5.532989E0,1.629091E0,4.757067E0,4.840048E1,5.264051E0,4.173738E1,1.19971054E2,1.4629509E2,7.4870545E-1,1.5496877E1,3.362763E0,4.1867566E0,1.2347991E0,3.9332986E0,4.110665E0,1.4223241E0,3.2938995E0,1.4631677E0,3.764713E1,1.0753349E1,3.5553467E0,1.7087041E0,3.3055637E1,8.681746E0,1.0284465E2,1.7126404E1,1.1396045E2,3.233465E1,5.0404124E0,1.0456465E1,1.1580817E0,3.028675E0,2.405278E-1,3.8701372E0,2.4405761E-1,1.1782665E0,1.8809997E0,1.4129E0,9.8235524E-1,3.6664776E1,7.2166715E0,3.5366778E0,3.3055637E0,2.4978319E-1,1.46984E0,2.38864E-1,4.9952564E-1,3.255611E1,4.08731E0,4.594435E0,2.5790737E1,7.705391E1,6.2549148E0,1.087149E1,7.83311E1,3.5629345E1,2.9278927E1,3.0557232E0,1.8928354E0,3.147577E0,7.17247E-1,2.311428E0,9.648087E-1,4.480912E-1,4.9136925E-1,4.9098596E-1,4.5350146E0,3.212976E1,4.8028603E-1,6.7363853E0,1.4585164E0,2.0781615E0,1.2314385E0,2.3840159E-1,3.798232E0,2.875788E1,3.1648684E0,9.224417E-1,1.1928012E0,3.4016337E0,1.9548573E0,2.383588E1,2.2951281E-1,7.68244E1,1.1974534E0,5.0574613E0,1.7005836E0,9.170906E0,6.6321495E1,1.2009609E1,3.4212666E1,1.4166784E0,2.7848555E1,1.4303718E0,7.3987776E-1,2.3158453E0,1.4223666E0,4.7046888E-1,9.691638E-1,2.1784134E0,2.2347516E-1,7.4133354E-1,3.5699677E0,9.650471E-1,3.1411617E1,7.1814203E-1,4.8099795E-1,6.2553873E0,1.5905266E0,4.8763496E-1,3.0518742E0,7.46358E-1,7.230631E-1,2.8034817E1,2.9305081E0,2.3436007E-1,4.7917843E-1,7.136228E-1,2.3356913E1,4.78968E-1,2.4234705E-1,7.6582054E1,3.8450627E0,1.2123985E0,1.4511799E0,2.4940369E-1,2.49171E-1,8.921735E0,6.0063793E1,6.2576995E0,9.580038E0,2.4295714E0,2.6506271E1,7.7063937E0,2.4803232E-1,2.7600521E1,9.697293E-1,4.606424E-1,2.300696E-1,7.3909414E-1],"tree_param":{"num_deleted":"0","num_feature":"60","num_nodes":"159","size_leaf_vector":"0"}},{"base_weights":[-1.7943867E-2,-9.5711696E-1,3.6251962E-1,-1.2227733E0,-6.8370783E-1,2.8443018E-2,6.9720215E-1,-1.0386378E0,-1.4171188E0,-1.0889032E0,-3.6713305E-1,5.662251E-1,-1.9987357E-1,8.426407E-1,-1.666098E-1,-1.3463174E0,-6.196422E-1,-7.083836E-1,-1.2556044E0,-8.549904E-2,-8.473168E-1,6.159227E-1,-1.0526516E0,-1.0360138E0,-4.1721355E-2,1.6996984E-1,9.5575523E-1,4.947025E-1,-6.640271E-1,-1.398742E0,-3.8551116E-1,3.9387688E-1,-8.641864E-1,-1.0172472E0,-3.4645785E-2,3.9976195E-2,-1.314877E0,-4.193122E-1,5.042127E-1,-1.0045432E0,8.4328574E-1,-3.517324E-1,6.7644167E-1,-1.0926946E0,4.103874E-1,-1.7512797E-1,7.3087114E-1,5.0603557E-1,-8.790799E-1,2.8309733E-1,1.0134047E0,9.656901E-1,-1.692889E-1,-2.6679894E-1,-1.3177658E0,-1.4205369E0,-3.7187728E-1,6.7366225E-1,-9.122681E-1,-6.235017E-1,7.9745966E-1,-1.0128161E0,7.243497E-1,-1.0830039E0,4.918813E-1,4.692832E-1,-9.867154E-1,-6.819991E-1,7.88738E-1,-1.3366734E0,3.6131597E-1,-1.7500372E-1,-1.1492014E0,7.0060754E-1,-6.7457736E-1,-1.2490724E-1,-1.1738634E0,1.0235413E0,-2.4697442E-1,7.731197E-1,-7.475209E-1,4.6576044E-1,9.6527606E-1,-1.1521316E0,-6.8540454E-2,-2.8290522E-1,6.498241E-1,-9.53633E-2,-1.0851959E0,8.24595E-1,-6.4351296E-1,-6.442819E-1,7.437998E-1,4.374109E-1,-1.0798815E0,8.8536596E-1,-2.662931E-1,1.0545473E0,1.0020821E-1,1.1863102E0,-8.790086E-2,7.1873796E-1,-5.319118E-1,2.3177695E-2,-1.1450135E0,2.4684502E-1,-1.3771237E0,-7.0516974E-1,4.255976E-1,-8.1186837E-1,2.4684502E-1,1.1124237E0,-5.749172E-1,6.1240476E-1,-1.0737135E0,-2.6429418E-1,9.124264E-1,-1.1993847E0,-3.6688853E-4,-5.511142E-1,9.292111E-1,-1.3530108E0,2.4684502E-1,-3.9244336E-1,8.4779596E-1,-1.2789328E0,-7.355077E-2,-5.357621E-1,9.2180884E-1,-1.0122397E0,4.2082343E-1,-6.846495E-1,1.1221054E0,-1.2698811E0,-2.1705538E-1,-1.1836077E0,2.9525566E-1,7.168273E-1,8.556825E-2,1.0671432E0,1.869309E-2,1.8382135E-1,-1.1971327E0,-5.4666287E-1,6.209445E-1,-1.1314366E-2,-8.303394E-1,-1.2313246E0,-2.3763336E-1,1.173626E0,6.2613183E-1,2.4684502E-1,-8.4609085E-1,3.5079706E-1,-1.0786209E0,8.8873684E-1,-1.0591209E0,-2.4697442E-1,6.498241E-1,-1.1520898E0,3.084743E-1,1.0297868E0,-6.4418966E-1,5.892584E-1,-7.004285E-1,9.36261E-1,1.3196265E0,-1.0772027E0,5.156574E-1,-1.355908E-2,1.2979022E0,-8.0253047E-1,7.4380857E-1,9.3140465E-1,-3.504684E-1,-7.4594563E-1,6.1696476E-1,-4.8801738E-1,4.865146E-1,1.2322527E0,-2.4697442E-1,5.5221444E-1,-1.1323661E0,-1.2472727E0,2.4684502E-1,-5.5044585E-1,5.5004996E-1,-7.5106084E-1,2.4684502E-1,1.2340626E0,-4.7101948E-1,-1.3685172E0,-3.2515857E-1,-7.3379534E-1,6.09118E-1,1.0164708E0,-4.1442323E-1,4.2082343E-1,-5.049606E-1,-8.528477E-1,2.2217028E-1,-5.701395E-2,1.1857684E0,5.5004996E-1,-1.0554893E0,-1.2986381E0,-3.3857417E-4,4.374109E-1,-7.576164E-1,6.8238735E-1,-4.2102683E-1,7.7162373E-1,-7.167034E-1,-8.133438E-1,4.5631576E-1,1.0833527E0,-2.4697442E-1,-5.097285E-1,6.290266E-1,6.4445525E-1,-4.29938E-1,-2.7582273E-1,-1.2412143E0,-7.467251E-1,2.4684502E-1,4.5579278E-1,-1.1070423E-1,-1.015609E0,3.556166E-1,-1.379607E0,-9.545269E-2,6.498241E-1,-8.42244E-1,1.3509747E-1,1.318268E0,4.624458E-1,1.2341026E0,-2.4379154E-1,6.9232404E-1,-1.2250587E0,2.8679466E-1,9.587767E-1,-6.3741755E-1,-2.7196902E-1,-1.2194455E0,-1.5158595E-1,1.1854769E0,-7.1054405E-1,1.0478812E0,2.1399197E-1,-1.2117909E0,1.1195538E0,7.4989283E-1,-5.118639E-1,1.3352712E0,-2.9090685E-1,9.075904E-1,4.2082343E-1,-4.355675E-1,1.3611579E0,-2.4697442E-1,3.8544223E-1,-9.888882E-1,2.2587943E-1,-9.1565454E-1,-4.5111364E-1,7.746851E-1,-1.1775473E0,1.7469579E-1,-1.3054783E0,-2.557275E-1,2.4684502E-1,-5.502992E-1,-9.5946866E-1,2.4657455E-1,9.2140275E-1,-6.815629E-1,-3.3167285E-1,1.1776913E0,4.9200687E-1,-2.791089E-1,-6.3751435E-1,5.8909684E-1,1.2436292E0,-2.791089E-1,-1.1143216E-2,-1.3283142E0,-2.4720275E-1,2.4684502E-1,-2.4697442E-1,6.498241E-1,8.5986936E-1,-7.113856E-2,1.5801148E-1,-1.206102E0,6.20137E-1,-5.710246E-1,5.5646944E-1,1.1687281E0,-7.047272E-1,3.2916537E-1,8.486669E-1,-2.940388E-1,5.5004996E-1,-7.855704E-1,3.7421014E-2,-1.2615514E0,5.7800376E-1,-9.3138057E-1,-4.0124476E-1,1.8156813E-2,-1.2666217E0,3.942148E-1,-6.0044503E-1,9.257988E-1,5.5004996E-1,-6.599245E-1,4.2062372E-1,-4.0815407E-1,1.3986886E0,-2.4697442E-1,-8.993743E-1,6.2136686E-1,2.4684502E-1,-4.8432854E-1,-6.9679046E-1,1.0205429E0,-6.140864E-1,4.008079E-1,-6.673202E-1,4.825632E-1,1.3004036E0,-5.2339745E-1,7.487736E-1,-6.932196E-1,-1.891154E-4,-1.4479799E0,1.1695002E0,-6.336147E-2,4.8369455E-1,1.2634534E0,-4.9647582E-1,1.3508487E0,-8.4748507E-1,3.4825188E-1,-6.917822E-1,1.1886653E0,-2.4697442E-1,6.136239E-1,-1.1822184E0,4.2082343E-1,-5.706294E-1,5.964527E-1,3.6843026E-1,-1.066257E0,4.2082343E-1,-8.2269305E-1,9.350472E-1,-4.479426E-1,2.4684502E-1,-1.2023482E0,4.2082343E-1,-2.5666237E-1,-5.5815935E-1,3.4662563E-1,-1.0380433E0,4.2082343E-1,-6.4953005E-1,6.607773E-1,-2.8206038E-1,1.2421536E0,2.4684502E-1,-8.2590973E-1,8.1283545E-1,-2.779401E-1,-2.657229E-1,1.3015109E0,2.4684502E-1,-2.5865993E-1,5.208055E-1,1.1502376E0,-8.4774154E-1,6.641033E-1,-7.511273E-1,8.2291025E-1,-7.6976764E-1,7.692982E-1,-1.1617376E0,5.5004996E-1,9.100942E-1,-7.604875E-1,1.1891557E0,-2.4697442E-1,1.602055E-1,-1.0473752E0,2.870046E-1,-2.4697442E-1,-1.3012522E0,-5.612967E-1,-7.7588516E-1,7.17495E-1,-5.901598E-1,1.2241664E-1,-1.0526578E0,1.0107603E-1,-1.322724E0,5.5476953E-3,-4.2102683E-1,7.131748E-1,6.4877707E-1,-2.4697442E-1,6.6071904E-1,-3.5863957E-1,-4.2102683E-1,1.0647595E0,-2.4697442E-1,9.2675143E-1,4.2082343E-1,-4.2102683E-1,1.1867782E0,-2.3541367E-1,-1.0429403E0,8.710594E-1,6.071359E-1,-2.235487E-1,-3.3122113E-1,1.2927109E0,1.3606205E0,-2.4697442E-1,7.3960763E-1,-4.2102683E-1,-1.285102E0,-1.2247365E-4,-4.2102683E-1,9.3483555E-1,-1.8354768E-1,-1.16055E0,1.0381979E0,-3.1161985E-1],"categories":[],"categories_nodes":[],"categories_segments":[],"categories_sizes":[],"default_left":[true,true,true,true,true,true,true,true,false,true,true,true,true,true,true,true,true,true,true,true,true,true,false,true,true,true,true,true,true,true,true,true,true,true,true,true,true,true,true,true,true,true,true,true,true,true,true,true,true,true,true,true,true,true,true,false,true,false,false,true,true,true,true,true,false,true,false,false,false,true,false,true,true,true,true,true,true,false,false,false,true,true,true,true,true,false,false,true,true,true,true,true,true,true,true,true,true,true,true,true,true,true,true,true,false,false,false,false,false,false,false,true,false,false,true,false,false,true,true,true,true,true,false,true,true,false,true,true,true,false,false,true,false,true,true,false,true,true,true,true,true,true,true,true,false,true,true,true,true,true,true,false,false,true,true,true,false,false,false,true,false,true,false,true,true,true,true,false,true,true,true,false,false,false,false,true,false,true,true,false,false,false,true,true,false,false,false,false,false,false,false,false,true,true,true,true,false,false,false,false,true,true,true,false,false,true,true,true,false,false,false,true,false,true,true,true,false,true,true,false,false,true,true,false,false,true,true,true,true,false,true,false,false,true,true,true,false,true,false,false,false,true,false,true,false,true,true,false,false,true,true,true,true,false,true,true,true,false,false,false,false,true,true,true,true,true,true,true,true,false,true,false,false,true,true,true,false,false,false,false,false,true,true,true,false,true,false,false,false,false,false,true,true,true,false,true,true,true,true,true,false,false,false,false,false,true,true,true,false,true,true,true,true,false,false,false,false,true,false,false,false,false,true,false,false,false,true,false,false,false,false,false,false,true,false,true,false,true,true,true,true,false,true,false,true,false,false,false,false,true,false,false,true,false,true,false,false,true,false,false,false,false,false,false,false,false,false,false,false,false,false,false,false,false,false,false,false,false,false,false,false,false,false,false,false,false,false,false,false,false,false,false,false,false,false,false,false,false,false,false,false,false,false,false,false,false,false,false,false,false,false,false,false,false,false,false,false,false,false,false,false,false,false,false,false,false,false,false,false,false,false,false,false,false,false,false,false,false,false],"id":5,"left_children":[1,3,5,7,9,11,13,15,-1,17,19,21,23,25,27,29,31,33,35,37,39,41,-1,43,45,47,49,51,53,55,57,59,61,63,65,67,69,71,73,75,77,79,81,83,85,87,89,91,93,95,97,99,101,103,105,-1,107,-1,-1,109,111,113,115,117,-1,119,-1,-1,-1,121,-1,123,125,127,129,131,133,-1,-1,-1,135,137,139,141,143,-1,-1,145,147,149,151,153,155,157,159,161,163,165,167,169,171,173,175,177,-1,-1,-1,-1,-1,-1,-1,179,-1,-1,181,-1,-1,183,185,187,189,191,-1,193,195,-1,197,199,201,-1,-1,203,-1,205,207,-1,209,211,213,215,217,219,221,223,-1,225,227,229,231,233,235,-1,-1,237,239,241,-1,-1,-1,243,-1,245,-1,247,249,251,253,-1,255,257,259,-1,-1,-1,-1,261,-1,263,265,-1,-1,-1,267,269,-1,-1,-1,-1,-1,-1,-1,-1,271,273,275,277,-1,-1,-1,-1,279,281,283,-1,-1,285,287,289,-1,-1,-1,291,-1,293,295,297,-1,299,301,-1,-1,303,305,-1,-1,307,309,311,313,-1,315,-1,-1,317,319,321,-1,323,-1,-1,-1,325,-1,327,-1,329,331,-1,-1,333,335,337,339,-1,341,343,345,-1,-1,-1,-1,347,349,351,353,355,357,359,361,-1,363,-1,-1,365,367,369,-1,-1,-1,-1,-1,371,373,375,-1,377,-1,-1,-1,-1,-1,379,381,383,-1,385,387,389,391,393,-1,-1,-1,-1,-1,395,397,399,-1,401,403,405,407,-1,-1,-1,-1,409,-1,-1,-1,-1,411,-1,-1,-1,413,-1,-1,-1,-1,-1,-1,415,-1,417,-1,419,421,423,425,-1,427,-1,429,-1,-1,-1,-1,431,-1,-1,433,-1,435,-1,-1,437,-1,-1,-1,-1,-1,-1,-1,-1,-1,-1,-1,-1,-1,-1,-1,-1,-1,-1,-1,-1,-1,-1,-1,-1,-1,-1,-1,-1,-1,-1,-1,-1,-1,-1,-1,-1,-1,-1,-1,-1,-1,-1,-1,-1,-1,-1,-1,-1,-1,-1,-1,-1,-1,-1,-1,-1,-1,-1,-1,-1,-1,-1,-1,-1,-1,-1,-1,-1,-1,-1,-1,-1,-1,-1,-1,-1,-1,-1,-1,-1,-1],"loss_changes":[3.168901E2,1.7734879E1,7.055405E1,3.1234436E0,1.6054096E1,3.902691E1,3.9748245E1,8.148895E0,0E0,2.6470718E0,9.869928E0,8.268415E0,2.947401E1,2.038176E1,1.554796E1,1.4415817E0,8.1121E0,3.9764528E0,2.9302483E0,9.552517E0,8.041632E0,5.656212E0,0E0,3.3557472E0,1.9582407E1,1.45762615E1,8.667801E0,6.553998E0,6.61639E0,2.9779816E-1,2.5199764E0,3.281901E0,6.77186E0,1.8409576E0,3.867094E0,1.9487994E0,1.7932396E0,5.299318E0,4.548507E0,3.6096458E0,8.1222916E-1,3.2953873E0,4.870037E0,2.0149384E0,5.265027E-1,1.1639229E1,4.13566E0,8.95589E0,3.1398525E0,6.7263618E0,7.870819E0,2.917739E0,3.386949E0,4.596357E0,1.2582455E0,0E0,8.6406267E-1,0E0,0E0,6.0820943E-1,2.928134E0,3.013403E0,7.5641847E-1,1.6306295E0,0E0,3.0074768E0,0E0,0E0,0E0,1.255394E0,0E0,5.734792E0,9.603329E-1,4.75534E0,1.5444081E0,4.390922E0,1.6563988E0,0E0,0E0,0E0,2.633898E0,4.9481344E0,3.4454384E0,2.1708221E0,1.3119577E0,0E0,0E0,9.24592E0,1.3099728E0,1.1103802E0,6.3241434E-1,2.9044235E0,7.7740736E0,4.580869E-1,1.2620087E0,2.7815742E0,4.5085025E0,5.131027E0,5.5730267E0,1.3668871E0,2.3958957E0,1.0383023E0,2.2306767E0,3.664839E0,0E0,0E0,0E0,0E0,0E0,0E0,0E0,1.0613117E0,0E0,0E0,2.8479576E0,0E0,0E0,1.117384E0,9.8607343E-1,5.4912096E-1,2.3046894E0,1.1933899E-1,0E0,7.529194E0,1.395289E0,0E0,6.1223316E-1,9.097827E-1,3.5775194E0,0E0,0E0,2.5051124E0,0E0,6.897774E-1,1.4366294E0,0E0,9.2000985E-1,3.0252495E0,7.7058578E0,9.5832825E-1,1.7750374E0,8.2110393E-1,9.379196E-1,5.453012E-1,0E0,6.3394775E0,3.7363958E0,1.6869125E0,2.2331753E0,1.1006184E0,1.332612E0,0E0,0E0,6.826489E-1,1.2139359E0,3.2563133E0,0E0,0E0,0E0,1.9047356E-1,0E0,1.8619986E0,0E0,3.2810977E0,3.8935485E0,4.073967E0,2.4086075E0,0E0,2.8746939E0,5.2189904E-1,1.2381477E0,0E0,0E0,0E0,0E0,2.1737921E0,0E0,2.4596E0,2.5357199E0,0E0,0E0,0E0,1.5535278E0,3.286438E-1,0E0,0E0,0E0,0E0,0E0,0E0,0E0,0E0,3.7252074E-1,3.7550697E0,2.9705687E0,1.3307118E0,0E0,0E0,0E0,0E0,3.6421043E-1,1.8156167E0,1.2578764E0,0E0,0E0,6.915417E-1,1.4761041E-1,4.580869E-1,0E0,0E0,0E0,2.3514042E0,0E0,2.7794757E0,3.0843468E0,7.9896164E-1,0E0,7.1771044E-1,7.645525E-1,0E0,0E0,1.5793544E0,8.2208633E-1,0E0,0E0,4.600588E0,4.2192883E0,5.2927523E0,2.0910692E0,0E0,1.2087307E0,0E0,0E0,5.0592196E-1,1.2716141E0,4.1661577E0,0E0,3.1579018E-1,0E0,0E0,0E0,3.1714134E0,0E0,6.864836E-1,0E0,9.6032035E-1,2.2900562E0,0E0,0E0,2.283788E0,1.4691057E0,4.2387695E0,9.553135E0,0E0,2.3819656E0,1.5252832E0,3.4298868E0,0E0,0E0,0E0,0E0,4.217526E-1,2.037218E0,1.393052E0,1.3235464E0,1.1672595E0,1.7044663E0,1.0806732E0,2.8142413E-1,0E0,5.3596836E-1,0E0,0E0,1.8610659E0,1.8290023E0,2.320912E0,0E0,0E0,0E0,0E0,0E0,6.208416E-1,6.792314E-1,1.2649422E0,0E0,1.5484247E-1,0E0,0E0,0E0,0E0,0E0,2.1529808E0,2.7570255E0,2.3336353E0,0E0,3.5922475E0,2.4612768E0,3.6734211E0,1.0692368E0,9.761976E-1,0E0,0E0,0E0,0E0,0E0,1.729335E-1,8.5868835E-2,4.832201E0,0E0,3.496078E0,7.111352E0,8.449135E-1,1.0309004E0,0E0,0E0,0E0,0E0,4.5038217E-1,0E0,0E0,0E0,0E0,8.353996E-1,0E0,0E0,0E0,1.9526005E0,0E0,0E0,0E0,0E0,0E0,0E0,7.196382E-1,0E0,5.027941E-1,0E0,1.9223709E0,4.3906913E0,4.5522165E0,1.583458E0,0E0,1.268753E0,0E0,1.0093559E0,0E0,0E0,0E0,0E0,6.3598776E-1,0E0,0E0,1.3999662E0,0E0,1.6688395E-1,0E0,0E0,1.1106157E0,0E0,0E0,0E0,0E0,0E0,0E0,0E0,0E0,0E0,0E0,0E0,0E0,0E0,0E0,0E0,0E0,0E0,0E0,0E0,0E0,0E0,0E0,0E0,0E0,0E0,0E0,0E0,0E0,0E0,0E0,0E0,0E0,0E0,0E0,0E0,0E0,0E0,0E0,0E0,0E0,0E0,0E0,0E0,0E0,0E0,0E0,0E0,0E0,0E0,0E0,0E0,0E0,0E0,0E0,0E0,0E0,0E0,0E0,0E0,0E0,0E0,0E0,0E0,0E0,0E0,0E0,0E0,0E0,0E0,0E0,0E0,0E0,0E0,0E0,0E0,0E0,0E0,0E0,0E0,0E0,0E0],"parents":[2147483647,0,0,1,1,2,2,3,3,4,4,5,5,6,6,7,7,9,9,10,10,11,11,12,12,13,13,14,14,15,15,16,16,17,17,18,18,19,19,20,20,21,21,23,23,24,24,25,25,26,26,27,27,28,28,29,29,30,30,31,31,32,32,33,33,34,34,35,35,36,36,37,37,38,38,39,39,40,40,41,41,42,42,43,43,44,44,45,45,46,46,47,47,48,48,49,49,50,50,51,51,52,52,53,53,54,54,56,56,59,59,60,60,61,61,62,62,63,63,65,65,69,69,71,71,72,72,73,73,74,74,75,75,76,76,80,80,81,81,82,82,83,83,84,84,87,87,88,88,89,89,90,90,91,91,92,92,93,93,94,94,95,95,96,96,97,97,98,98,99,99,100,100,101,101,102,102,103,103,111,111,114,114,117,117,118,118,119,119,120,120,121,121,123,123,124,124,126,126,127,127,128,128,131,131,133,133,134,134,136,136,137,137,138,138,139,139,140,140,141,141,142,142,143,143,145,145,146,146,147,147,148,148,149,149,150,150,153,153,154,154,155,155,159,159,161,161,163,163,164,164,165,165,166,166,168,168,169,169,170,170,175,175,177,177,178,178,182,182,183,183,192,192,193,193,194,194,195,195,200,200,201,201,202,202,205,205,206,206,207,207,211,211,213,213,214,214,215,215,217,217,218,218,221,221,222,222,225,225,226,226,227,227,228,228,230,230,233,233,234,234,235,235,237,237,241,241,243,243,245,245,246,246,249,249,250,250,251,251,252,252,254,254,255,255,256,256,261,261,262,262,263,263,264,264,265,265,266,266,267,267,268,268,270,270,273,273,274,274,275,275,281,281,282,282,283,283,285,285,291,291,292,292,293,293,295,295,296,296,297,297,298,298,299,299,305,305,306,306,307,307,309,309,310,310,311,311,312,312,317,317,322,322,326,326,333,333,335,335,337,337,338,338,339,339,340,340,342,342,344,344,349,349,352,352,354,354,357,357],"right_children":[2,4,6,8,10,12,14,16,-1,18,20,22,24,26,28,30,32,34,36,38,40,42,-1,44,46,48,50,52,54,56,58,60,62,64,66,68,70,72,74,76,78,80,82,84,86,88,90,92,94,96,98,100,102,104,106,-1,108,-1,-1,110,112,114,116,118,-1,120,-1,-1,-1,122,-1,124,126,128,130,132,134,-1,-1,-1,136,138,140,142,144,-1,-1,146,148,150,152,154,156,158,160,162,164,166,168,170,172,174,176,178,-1,-1,-1,-1,-1,-1,-1,180,-1,-1,182,-1,-1,184,186,188,190,192,-1,194,196,-1,198,200,202,-1,-1,204,-1,206,208,-1,210,212,214,216,218,220,222,224,-1,226,228,230,232,234,236,-1,-1,238,240,242,-1,-1,-1,244,-1,246,-1,248,250,252,254,-1,256,258,260,-1,-1,-1,-1,262,-1,264,266,-1,-1,-1,268,270,-1,-1,-1,-1,-1,-1,-1,-1,272,274,276,278,-1,-1,-1,-1,280,282,284,-1,-1,286,288,290,-1,-1,-1,292,-1,294,296,298,-1,300,302,-1,-1,304,306,-1,-1,308,310,312,314,-1,316,-1,-1,318,320,322,-1,324,-1,-1,-1,326,-1,328,-1,330,332,-1,-1,334,336,338,340,-1,342,344,346,-1,-1,-1,-1,348,350,352,354,356,358,360,362,-1,364,-1,-1,366,368,370,-1,-1,-1,-1,-1,372,374,376,-1,378,-1,-1,-1,-1,-1,380,382,384,-1,386,388,390,392,394,-1,-1,-1,-1,-1,396,398,400,-1,402,404,406,408,-1,-1,-1,-1,410,-1,-1,-1,-1,412,-1,-1,-1,414,-1,-1,-1,-1,-1,-1,416,-1,418,-1,420,422,424,426,-1,428,-1,430,-1,-1,-1,-1,432,-1,-1,434,-1,436,-1,-1,438,-1,-1,-1,-1,-1,-1,-1,-1,-1,-1,-1,-1,-1,-1,-1,-1,-1,-1,-1,-1,-1,-1,-1,-1,-1,-1,-1,-1,-1,-1,-1,-1,-1,-1,-1,-1,-1,-1,-1,-1,-1,-1,-1,-1,-1,-1,-1,-1,-1,-1,-1,-1,-1,-1,-1,-1,-1,-1,-1,-1,-1,-1,-1,-1,-1,-1,-1,-1,-1,-1,-1,-1,-1,-1,-1,-1,-1,-1,-1,-1,-1],"split_conditions":[5E-1,5E-1,1.165863E-1,-5.519163E-2,2.1319032E-2,-1.2220521E0,-5.519163E-2,4.405172E-1,-1.4171188E-1,-7.439593E-1,-5.519163E-2,1.3944572E0,-1.2535293E0,5E-1,-4.1238707E-1,3.165497E0,-7.4404407E-1,2.5079843E-1,-1.009759E0,-4.1760385E-1,2.8062973E0,-1.0714152E0,-1.0526516E-1,5E-1,1.3604659E0,-2.9553156E-2,-1.3157909E0,-1.18334564E2,1.7568693E0,2.0540218E0,-1.2209306E2,1.4476542E0,3.5450506E0,-7.5241184E-1,1.0667304E0,3.8579353E1,4.4893713E0,1.2131073E0,7.729949E-1,-1.4739609E-1,8.761203E-2,-1.314574E0,5E-1,8.652634E-2,-8.262318E-1,-5.519163E-2,7.036378E-1,5.243448E-1,-1.2212514E2,-7.5991464E-1,9.662319E-1,5E-1,-1.3095834E0,3.833123E1,-1.7074382E0,-1.420537E-1,-4.1760385E-1,6.736623E-2,-9.122681E-2,1.6358612E0,5E-1,-1.23975006E2,-7.935945E-1,-1.1710964E2,4.9188133E-2,5E-1,-9.867154E-2,-6.819991E-2,7.8873806E-2,3.3534365E0,3.6131598E-2,1.6215641E0,-1.4451185E-1,-9.8941815E-1,1.395339E0,-1.5366566E-1,1.5776345E0,1.0235413E-1,-2.4697443E-2,7.731197E-2,1.20249316E-1,-1.3533492E0,1.2443672E0,-1.7727128E0,3.647787E1,-2.8290523E-2,6.498241E-2,3.0311555E-1,6.424458E-1,-5.683026E-2,-6.056156E-1,3.3744453E1,1.3613296E0,-1.2831537E0,4.397067E0,3.866303E1,5E-1,1.1646422E0,9.712156E-1,-6.60987E-1,1.1638421E0,3.4714584E1,1.5606184E0,1.1145811E0,-1.1450135E-1,2.4684502E-2,-1.3771237E-1,-7.0516974E-2,4.255976E-2,-8.118684E-2,2.4684502E-2,-8.5478675E-1,-5.749172E-2,6.1240476E-2,4.4956124E-1,-2.6429418E-2,9.124264E-2,4.1610893E1,3.366374E1,-5.519165E-2,-8.3405696E-2,-1.16271126E2,2.4684502E-2,6.588615E-1,5E-1,-1.2789328E-1,1.4633679E0,1.4884591E0,-4.4863632E-1,-1.0122397E-1,4.2082343E-2,3.3739426E1,1.12210535E-1,3.7580547E0,1.6376433E0,-1.1836077E-1,5.445339E-1,-1.1710507E2,-9.378438E-1,2.7997227E0,1.4828038E0,3.480564E1,-1.0334089E0,1.3931031E0,6.209445E-2,-4.342699E-1,7.729949E-1,1.3691221E-1,7.077203E-1,-1.0032237E0,-1.1744993E2,2.4684502E-2,-8.4609084E-2,3.3434914E1,4.7925937E-1,7.474035E-1,-1.0591209E-1,-2.4697443E-2,6.498241E-2,-1.4463401E0,3.084743E-2,5E-1,-6.4418964E-2,5.3218126E-1,5E-1,-1.0469894E0,-6.1433214E-1,-1.0772027E-1,3.441369E1,3.6561783E1,2.4816937E0,-8.025305E-2,7.438086E-2,9.314047E-2,-3.5046842E-2,3.310591E1,6.1696477E-2,3.3683617E1,-1.734862E-1,1.2322527E-1,-2.4697443E-2,5.5221446E-2,1.832896E0,5E-1,2.4684502E-2,-5.5044588E-2,5.5004995E-2,-7.5106084E-2,2.4684502E-2,1.23406254E-1,-4.710195E-2,-1.3685171E-1,-1.16096405E2,1.4898603E0,5E-1,3.313762E1,-4.1442323E-2,4.2082343E-2,-5.049606E-2,-8.528477E-2,-1.4789773E0,1.3134164E0,-8.3405696E-2,5.5004995E-2,-1.0554893E-1,6.709771E-2,1.20249316E-1,3.525046E1,-7.576164E-2,6.8238735E-2,-4.2102683E-2,3.8134754E-1,-7.1670346E-2,-1.0627635E0,-9.807135E-1,5E-1,-2.4697443E-2,3.9045692E1,3.6818977E1,6.4445525E-2,-4.29938E-2,-9.595222E-1,3.2828896E1,-7.467251E-2,2.4684502E-2,1.0014558E0,5E-1,1.6084428E0,-1.1835492E2,-1.379607E-1,3.4365486E1,6.498241E-2,-8.42244E-2,-1.0469894E0,5.772747E-2,3.4066463E1,1.2341026E-1,3.299993E1,6.9232404E-2,-1.22505866E-1,2.8679466E-2,3.2845665E1,-6.374176E-2,3.4060234E1,-1.2194455E-1,-1.674801E0,9.3512857E-1,-7.105441E-2,1.04788125E-1,-5.586622E-1,2.9147464E-1,3.4998873E-1,-4.1760385E-1,-5.118639E-2,-1.4475014E0,6.4220214E-1,-8.2710105E-1,4.2082343E-2,-4.355675E-2,1.3611579E-1,-2.4697443E-2,3.276607E1,1.3931031E0,1.7844963E-1,-1.4152241E0,-1.5768892E0,5E-1,-1.4871065E1,-6.9568264E-1,-1.3054784E-1,-6.6304535E-1,2.4684502E-2,-5.5029925E-2,3.3534365E0,-2.4216369E-2,5E-1,-6.8156295E-2,-3.3167284E-2,1.1776914E-1,4.9200688E-2,-2.7910892E-2,-6.630454E-1,3.7073883E1,-6.630454E-1,-2.7910892E-2,-1.734862E-1,-1.3283142E-1,-2.4720276E-2,2.4684502E-2,-2.4697443E-2,6.498241E-2,-4.2937078E-2,1.1972795E0,3.7981784E-1,-1.206102E-1,-1.5768892E0,3.0722058E-1,3.811583E1,-1.1658893E2,-7.609572E-1,3.291654E-2,8.4866695E-2,-2.940388E-2,5.5004995E-2,-7.855704E-2,-1.0821163E-1,5E-1,-1.3810655E0,-9.313806E-2,3.7914955E1,-2.8630847E-1,7.631466E-1,-3.040353E-1,-6.0044505E-2,9.257988E-2,5.5004995E-2,-6.599245E-2,-1.1680757E2,-4.081541E-2,1.3986886E-1,-2.4697443E-2,-8.993743E-2,-1.1769946E2,2.4684502E-2,-4.8432853E-2,-6.9679044E-2,-9.197465E-1,-6.140864E-2,4.008079E-2,-6.673202E-2,4.825632E-2,1.3004036E-1,-5.2339744E-2,5E-1,-6.932196E-2,-1.4137027E0,-1.44798E-1,2.8274086E0,6.8287563E-1,2.6712728E-1,-9.8808575E-1,-4.964758E-2,8.787005E-1,-8.474851E-2,3.372184E1,-6.9178216E-2,1.18866526E-1,-2.4697443E-2,6.1362393E-2,3.4375237E1,4.2082343E-2,-5.7062943E-2,5E-1,3.6843028E-2,5E-1,4.2082343E-2,-8.22693E-2,5E-1,-4.479426E-2,2.4684502E-2,-1.20234825E-1,4.2082343E-2,-2.5666237E-2,-5.5815935E-2,3.4662563E-2,-1.0380433E-1,4.2082343E-2,-6.495301E-2,6.607773E-2,-2.820604E-2,1.24215364E-1,2.4684502E-2,-8.2590975E-2,8.128355E-2,-2.779401E-2,-2.657229E-2,1.301511E-1,2.4684502E-2,-2.5865993E-2,5.208055E-2,1.15023755E-1,-8.477416E-2,6.641033E-2,-7.511273E-2,8.229103E-2,-7.697677E-2,7.692982E-2,-1.1617376E-1,5.5004995E-2,9.100942E-2,-7.6048754E-2,1.1891557E-1,-2.4697443E-2,1.602055E-2,-1.0473752E-1,2.870046E-2,-2.4697443E-2,-1.3012522E-1,-5.612967E-2,-7.758852E-2,7.17495E-2,-5.9015978E-2,1.2241664E-2,-1.0526579E-1,1.0107603E-2,-1.322724E-1,5.5476953E-4,-4.2102683E-2,7.131749E-2,6.487771E-2,-2.4697443E-2,6.6071905E-2,-3.586396E-2,-4.2102683E-2,1.0647595E-1,-2.4697443E-2,9.267514E-2,4.2082343E-2,-4.2102683E-2,1.1867782E-1,-2.3541367E-2,-1.04294024E-1,8.7105945E-2,6.071359E-2,-2.235487E-2,-3.3122115E-2,1.2927109E-1,1.3606206E-1,-2.4697443E-2,7.3960766E-2,-4.2102683E-2,-1.285102E-1,-1.2247365E-5,-4.2102683E-2,9.348356E-2,-1.8354768E-2,-1.16055004E-1,1.0381979E-1,-3.1161984E-2],"split_indices":[52,53,8,4,9,5,4,9,0,12,4,4,8,42,5,10,7,0,9,4,12,9,0,34,0,12,0,3,4,11,3,5,11,12,0,2,10,12,0,8,0,6,25,7,0,4,5,8,3,12,5,55,5,2,0,0,4,0,0,6,46,3,0,3,0,36,0,0,0,7,0,0,11,0,8,8,8,0,0,0,0,5,6,0,2,0,0,6,0,12,7,2,6,0,11,2,40,0,8,7,8,2,10,8,0,0,0,0,0,0,0,7,0,0,9,0,0,2,2,4,10,3,0,6,29,0,6,9,6,0,0,2,0,11,8,0,0,3,7,7,6,2,9,0,0,5,0,10,0,5,3,0,0,2,0,5,0,0,0,0,0,44,0,6,48,5,10,0,2,2,4,0,0,0,0,2,0,2,0,0,0,0,8,25,0,0,0,0,0,0,0,0,3,8,23,2,0,0,0,0,0,8,10,0,0,9,0,2,0,0,0,0,0,9,9,38,0,2,2,0,0,6,2,0,0,0,18,6,3,0,2,0,0,5,8,2,0,2,0,0,0,2,0,2,0,0,6,0,0,12,8,11,4,0,6,6,7,0,0,0,0,2,0,5,6,0,55,10,0,0,0,0,0,7,7,34,0,0,0,0,0,0,2,0,0,0,0,0,0,0,0,0,0,6,0,0,4,2,3,0,0,0,0,0,0,0,25,0,0,2,9,10,0,0,0,0,0,3,0,0,0,0,3,0,0,0,12,0,0,0,0,0,0,38,0,0,0,7,8,12,10,0,5,0,2,0,0,0,0,2,0,0,46,0,46,0,0,44,0,0,0,0,0,0,0,0,0,0,0,0,0,0,0,0,0,0,0,0,0,0,0,0,0,0,0,0,0,0,0,0,0,0,0,0,0,0,0,0,0,0,0,0,0,0,0,0,0,0,0,0,0,0,0,0,0,0,0,0,0,0,0,0,0,0,0,0,0,0,0,0,0,0,0,0,0,0,0,0,0],"split_type":[0,0,0,0,0,0,0,0,0,0,0,0,0,0,0,0,0,0,0,0,0,0,0,0,0,0,0,0,0,0,0,0,0,0,0,0,0,0,0,0,0,0,0,0,0,0,0,0,0,0,0,0,0,0,0,0,0,0,0,0,0,0,0,0,0,0,0,0,0,0,0,0,0,0,0,0,0,0,0,0,0,0,0,0,0,0,0,0,0,0,0,0,0,0,0,0,0,0,0,0,0,0,0,0,0,0,0,0,0,0,0,0,0,0,0,0,0,0,0,0,0,0,0,0,0,0,0,0,0,0,0,0,0,0,0,0,0,0,0,0,0,0,0,0,0,0,0,0,0,0,0,0,0,0,0,0,0,0,0,0,0,0,0,0,0,0,0,0,0,0,0,0,0,0,0,0,0,0,0,0,0,0,0,0,0,0,0,0,0,0,0,0,0,0,0,0,0,0,0,0,0,0,0,0,0,0,0,0,0,0,0,0,0,0,0,0,0,0,0,0,0,0,0,0,0,0,0,0,0,0,0,0,0,0,0,0,0,0,0,0,0,0,0,0,0,0,0,0,0,0,0,0,0,0,0,0,0,0,0,0,0,0,0,0,0,0,0,0,0,0,0,0,0,0,0,0,0,0,0,0,0,0,0,0,0,0,0,0,0,0,0,0,0,0,0,0,0,0,0,0,0,0,0,0,0,0,0,0,0,0,0,0,0,0,0,0,0,0,0,0,0,0,0,0,0,0,0,0,0,0,0,0,0,0,0,0,0,0,0,0,0,0,0,0,0,0,0,0,0,0,0,0,0,0,0,0,0,0,0,0,0,0,0,0,0,0,0,0,0,0,0,0,0,0,0,0,0,0,0,0,0,0,0,0,0,0,0,0,0,0,0,0,0,0,0,0,0,0,0,0,0,0,0,0,0,0,0,0,0,0,0,0,0,0,0,0,0,0,0,0,0,0,0,0,0,0,0,0,0,0,0,0,0,0,0,0,0,0,0],"sum_hessian":[8.848787E2,2.546818E2,6.301969E2,1.27411156E2,1.2727063E2,3.1592694E2,3.1427E2,6.868185E1,5.8729313E1,5.475198E1,7.251865E1,9.371306E1,2.2221387E2,2.6900293E2,4.526706E1,3.8325333E1,3.0356512E1,1.8278376E1,3.6473606E1,4.6452E1,2.6066648E1,9.152295E1,2.1901064E0,3.446245E1,1.8775142E2,3.908348E1,2.2991946E2,1.9434504E1,2.5832556E1,3.5910164E1,2.4151702E0,5.7820435E0,2.4574469E1,1.2183296E1,6.09508E0,1.6099025E0,3.48637E1,2.9846178E1,1.6605822E1,2.4219992E1,1.8466567E0,5.1038685E0,8.641908E1,3.33982E1,1.0642456E0,1.6076485E2,2.698658E1,2.9992826E1,9.090652E0,1.8616125E1,2.1130333E2,1.1103857E1,8.3306465E0,1.6944664E1,8.887894E0,3.4788418E1,1.1217468E0,7.095535E-1,1.7056168E0,1.4874537E0,4.2945895E0,2.2803322E1,1.7711475E0,1.1945179E1,2.3811752E-1,4.3171244E0,1.7779558E0,8.6500585E-1,7.4489665E-1,3.4616127E1,2.4757633E-1,2.3290237E1,6.5559406E0,1.458201E1,2.0238116E0,4.190034E0,2.0029957E1,1.6371739E0,2.0948288E-1,1.0802826E0,4.023586E0,5.1480667E1,3.4938416E1,3.1448145E1,1.9500568E0,2.2659402E-1,8.3765155E-1,1.4882553E2,1.1939316E1,2.5638248E1,1.348331E0,4.844602E0,2.5148224E1,1.0471344E0,8.043518E0,8.588952E0,1.0027172E1,2.0204572E2,9.257618E0,9.077149E0,2.0267076E0,2.1307065E0,6.1999397E0,1.3470472E1,3.4741914E0,2.0941289E-1,8.67848E0,8.727436E-1,2.4900316E-1,1.2780409E0,2.0941289E-1,3.6470098E0,6.4757967E-1,4.9649847E-1,2.2306822E1,2.1831357E-1,1.5528339E0,1.0688368E1,1.2568107E0,1.2797048E0,3.0374193E0,3.440671E1,2.0941289E-1,1.9715229E1,3.575007E0,5.6817E0,8.742402E-1,1.9971579E0,1.2584852E1,1.604986E0,4.1882578E-1,3.2031949E0,9.8683894E-1,1.790586E1,2.1240969E0,2.7418828E0,1.2817031E0,3.0472296E1,2.100837E1,3.1428822E1,3.5095944E0,9.2427605E-1,3.0523869E1,1.2738502E0,6.7620665E-1,1.3446414E2,1.4361387E1,9.797365E0,2.1419513E0,7.512563E0,1.8125685E1,2.0941289E-1,1.138918E0,1.5305121E0,3.31409E0,2.3746313E1,1.4019125E0,2.0948288E-1,8.3765155E-1,7.8076215E0,2.3589662E-1,8.1465E0,4.4245225E-1,3.255075E0,6.772097E0,1.4283876E2,5.920695E1,1.9991188E0,7.258499E0,8.4712434E-1,8.230024E0,1.108949E0,9.177588E-1,1.884716E0,2.4599062E-1,5.52193E0,6.7800957E-1,6.3791504E0,7.0913215E0,3.437527E0,2.0948288E-1,4.8367497E-1,2.1823149E1,1.0478955E1,2.0941289E-1,6.28572E-1,6.282387E-1,1.070292E0,2.0941289E-1,2.591814E0,4.4560534E-1,3.356885E1,8.3786154E-1,1.4903254E1,4.811976E0,3.3253272E0,2.4967973E-1,4.1882578E-1,4.554144E-1,1.3197874E0,6.773705E-1,2.8394654E0,9.745387E0,6.282387E-1,2.5749562E0,1.7486841E1,4.190191E-1,1.0471344E0,1.0769625E0,8.6273736E-1,4.1896576E-1,2.9795116E1,6.771804E-1,5.7859635E0,1.5222405E1,3.1219337E1,2.0948288E-1,1.9693683E0,1.5402262E0,4.9943274E-1,4.248433E-1,1.725149E0,2.879872E1,1.0644373E0,2.0941289E-1,2.2962116E1,1.1150202E2,1.2545216E1,1.8161719E0,8.476253E0,1.3211129E0,8.3765155E-1,1.3042997E0,1.1548393E0,6.357724E0,1.566798E1,2.4577048E0,6.627885E-1,8.6772364E-1,3.0859258E0,2.2816432E-1,2.3059797E1,6.8651414E-1,9.131752E-1,6.8944464E0,9.516632E-1,7.1948366E0,7.057057E-1,2.549369E0,2.637405E0,4.134692E0,6.948913E1,7.334964E1,2.3282842E-1,5.8974125E1,2.457971E0,4.800528E0,4.1882578E-1,4.2829853E-1,8.020542E0,2.0948288E-1,8.724336E-1,4.6494966E0,2.566476E0,3.8126745E0,1.534156E0,5.5571656E0,2.1189768E1,6.3338035E-1,9.598873E0,8.8008165E-1,2.0941289E-1,6.284486E-1,1.2131906E1,2.7713482E0,4.1048937E0,7.0708233E-1,2.422602E-1,3.083067E0,4.5236275E-1,2.2500773E-1,1.5026814E0,1.336784E0,9.520379E0,2.2500773E-1,4.2497158E-1,1.7061869E1,2.0960623E-1,2.0941289E-1,2.0948288E-1,8.3765155E-1,2.6952608E1,2.8425074E0,1.8379929E0,3.9479706E0,1.3470712E1,1.7516932E0,5.401656E0,2.5817682E1,1.7277015E0,2.4166681E-1,1.3092855E0,2.3094063E-1,6.282387E-1,1.0969105E0,4.3773037E-1,2.836099E1,2.1639023E1,1.3230917E0,3.3609516E1,7.789251E1,1.07354E1,1.8098148E0,6.586667E-1,1.1575052E0,6.282387E-1,6.928742E-1,9.0494233E-1,2.4989697E-1,6.148241E0,2.0948288E-1,1.1504385E0,1.4517542E1,2.0941289E-1,4.533756E-1,4.5960295E-1,2.2600195E1,6.6317624E-1,2.49999E-1,4.959854E-1,4.556778E-1,6.965421E0,2.294155E-1,1.7691638E0,8.68241E-1,8.3779156E-1,3.2969007E0,6.668482E1,2.8043048E0,4.9588066E1,2.3761572E1,2.3697479E-1,5.873715E1,1.1396381E0,1.318333E0,4.9913672E-1,4.3013916E0,2.0948288E-1,6.6295075E-1,4.2306705E0,4.1882578E-1,6.4349484E-1,1.9229813E0,2.4839574E-1,3.5642788E0,4.1882578E-1,1.1153302E0,5.120735E0,4.3643028E-1,2.0941289E-1,2.0980354E1,4.1882578E-1,2.1455458E-1,6.3475156E-1,2.453301E-1,1.1713079E1,4.1882578E-1,6.96457E-1,2.0748913E0,8.892051E-1,3.2156887E0,2.0941289E-1,1.2932684E0,1.1122754E0,2.245087E-1,2.1899393E-1,9.301386E0,2.0941289E-1,2.1555871E-1,1.3722457E1,1.3230152E1,1.3079588E0,1.5345485E0,7.21616E-1,1.1163769E0,9.0230143E-1,1.2568411E1,1.1234546E0,6.282387E-1,4.501792E0,8.9986414E-1,2.5608198E1,2.0948288E-1,6.413122E-1,1.0863893E0,2.2824748E-1,2.0948288E-1,2.602713E1,2.3338592E0,1.5950794E0,2.0043943E1,2.4605791E1,9.003723E0,4.757637E0,7.313487E1,1.0243908E1,4.9149257E-1,4.1896576E-1,1.390849E0,6.954594E-1,2.0948288E-1,1.4270318E1,2.4722308E-1,4.1896576E-1,2.2181229E1,2.0948288E-1,1.5596809E0,4.1882578E-1,4.1896576E-1,6.602806E1,6.5676296E-1,1.312373E0,1.4919319E0,4.2339695E1,7.24837E0,2.42155E-1,2.3519417E1,5.8527668E1,2.0948288E-1,8.993673E-1,4.1896576E-1,3.811775E0,4.1889578E-1,4.1896576E-1,1.5040154E0,6.283786E-1,2.9359002E0,4.8838606E0,2.3687479E-1],"tree_param":{"num_deleted":"0","num_feature":"60","num_nodes":"439","size_leaf_vector":"0"}},{"base_weights":[-4.5561403E-4,1.3884665E0,-5.083547E-1,-1.6682509E-1,-1.3890139E0,-9.3521446E-1,1.7639263E-1,-7.182554E-1,-1.2278428E0,3.263545E-1,-8.203894E-1,-1.2028476E0,-4.180271E-1,2.6654434E-1,-1.2886869E0,1.6807659E-1,9.8309785E-1,-1.2623497E0,-3.8760218E-1,-5.330754E-1,-1.3771548E0,-9.8320943E-1,3.1244048E-1,-6.3174856E-1,7.802773E-1,-1.3435365E0,-7.980773E-1,-6.9555134E-1,2.865561E-1,1.3693626E0,5.7849616E-1,2.5731018E-1,-1.2918046E0,1.6439572E-2,-1.0599409E0,-7.708491E-1,7.7934116E-1,-1.0788816E0,2.2356877E-1,4.7179106E-1,-9.709432E-1,-2.2693907E-1,9.716994E-1,-1.3845958E0,-6.2328815E-1,-1.1634105E0,5.0213363E-2,1.2188801E-1,-9.283962E-1,6.7357814E-1,-1.10371765E-2,5.7833153E-1,1.4276985E0,-9.725046E-1,7.002251E-1,-1.3671359E0,-4.2329E-1,-3.9780098E-1,6.0526156E-1,-1.3158245E0,4.511015E-1,-1.1679864E0,1.3739872E-2,-5.080347E-1,-1.301237E0,-6.675247E-1,8.79268E-1,6.0621464E-1,-8.968743E-1,6.9126123E-1,-1.0594121E0,1.0609045E0,-8.100707E-1,5.898989E-1,-6.317893E-1,-1.0628752E0,7.897911E-1,8.713199E-1,-3.7079024E-1,-3.382155E-1,3.907431E-1,-3.680517E-1,9.5844895E-1,6.160408E-2,1.1530612E0,-1.4089781E0,-4.0538174E-1,6.629082E-1,-8.998604E-1,-7.6082754E-1,4.8209265E-1,1.1991892E0,-9.3458885E-1,-2.9855967E-1,7.245097E-1,-8.1568295E-1,8.735801E-1,-1.2093801E0,2.7065006E-1,2.3533444E-1,-1.349261E0,7.323144E-1,-8.3453023E-1,8.7609166E-1,-5.4602448E-2,5.640088E-1,-1.066962E0,-1.4213156E0,-4.0570548E-1,9.939525E-1,4.740251E-1,3.3009568E-1,-8.4720886E-1,-6.374349E-1,8.8867426E-2,-1.2400789E0,5.354569E-1,-6.4931446E-1,2.7709264E-1,1.337352E0,-4.5043048E-1,1.293081E0,-4.6087152E-1,4.0431532E-1,-7.2542477E-1,-1.0116289E0,6.323171E-1,-6.549474E-1,1.0247333E0,-7.1711904E-1,6.764914E-1,5.271782E-1,-2.5408995E-1,3.037601E-1,1.2165734E0,1.0924127E0,-3.6498967E-1,6.3491184E-1,-7.001766E-1,-1.139392E-1,-1.4639516E0,4.6864232E-1,-1.0400692E0,1.053071E0,-1.8146401E-2,8.964288E-1,-8.840406E-2,-6.6472924E-1,7.3942137E-1,-1.0265396E0,7.085077E-1,-1.166293E0,-2.2361095E-1,-5.6371254E-1,4.628799E-1,1.0639277E0,2.6227018E-1,2.2675374E-1,-1.0460705E0,1.3419769E0,-3.0956307E-1,-7.3418486E-1,2.9596406E-1,3.5751462E-1,-1.3204322E0],"categories":[],"categories_nodes":[],"categories_segments":[],"categories_sizes":[],"default_left":[true,false,true,true,false,true,true,true,true,true,true,true,true,true,true,true,true,true,true,true,false,true,true,false,true,true,true,true,true,true,true,false,true,true,true,true,false,true,true,true,false,false,false,false,true,false,true,true,true,true,true,true,false,false,true,true,true,true,true,false,true,false,true,true,true,false,false,true,false,false,false,false,false,true,true,true,false,true,true,true,true,true,false,true,true,false,true,false,false,true,true,false,false,false,false,false,false,false,true,true,false,true,false,true,true,false,false,true,true,true,true,true,true,true,true,false,true,false,false,false,true,true,true,false,false,true,false,false,false,false,false,false,false,false,false,false,false,false,false,false,false,false,false,false,false,false,false,false,false,false,false,false,false,false,false,false,false,false,false,false,false,false,false,false,false],"id":6,"left_children":[1,-1,3,5,-1,7,9,11,13,15,17,19,21,23,25,27,29,31,33,35,-1,37,39,-1,41,43,45,47,49,51,53,-1,55,57,59,61,-1,63,65,67,-1,-1,-1,-1,69,-1,71,73,75,77,79,81,-1,-1,83,85,87,89,91,-1,93,-1,95,97,99,-1,-1,101,-1,-1,-1,-1,-1,103,105,107,-1,109,111,113,115,117,-1,119,121,-1,123,-1,-1,125,127,-1,-1,-1,-1,-1,-1,-1,129,131,-1,133,-1,135,137,-1,-1,139,141,143,145,147,149,151,153,-1,155,-1,-1,-1,157,159,161,-1,-1,163,-1,-1,-1,-1,-1,-1,-1,-1,-1,-1,-1,-1,-1,-1,-1,-1,-1,-1,-1,-1,-1,-1,-1,-1,-1,-1,-1,-1,-1,-1,-1,-1,-1,-1,-1,-1,-1,-1,-1],"loss_changes":[6.048982E2,0E0,1.886171E2,1.19780655E2,0E0,8.01915E0,4.7258446E1,1.15608635E1,5.6426773E0,2.831321E1,7.4284134E0,2.9068718E0,2.2077145E1,1.9275502E0,4.393463E-1,2.2911736E1,7.4906387E0,1.2292805E0,6.0908623E0,3.1196616E0,0E0,3.7014198E0,5.3174014E0,0E0,6.880801E-1,5.8786774E-1,2.5722938E0,5.265524E0,2.2570234E1,3.917389E-1,5.8949966E0,0E0,7.1819687E-1,3.8872333E0,3.8443651E0,2.3020415E0,0E0,2.8854218E0,2.357228E0,4.5562477E0,0E0,0E0,0E0,0E0,3.2919583E0,0E0,3.8160381E0,2.8013134E0,5.7343426E0,1.7912224E1,1.4819311E1,1.6092739E0,0E0,0E0,7.5023117E0,1.4479446E-1,2.1652856E0,3.3627682E0,7.129847E0,0E0,6.185028E-1,0E0,3.1758106E0,5.5007305E0,1.7540817E0,0E0,0E0,4.327504E0,0E0,0E0,0E0,0E0,0E0,9.2670155E-1,2.2256105E0,4.1517086E0,0E0,3.032421E0,5.041486E0,7.9947414E0,1.2608356E1,4.9264818E-1,0E0,8.389925E0,4.0458946E0,0E0,8.493335E-1,0E0,0E0,3.095168E0,2.739092E0,0E0,0E0,0E0,0E0,0E0,0E0,0E0,2.6122136E0,3.3984563E-1,0E0,3.644555E0,0E0,1.3003104E0,1.5157675E0,0E0,0E0,5.349407E-1,5.1930513E0,3.2523918E0,4.5629253E0,3.1344686E0,3.174077E0,7.7599754E0,6.7212048E0,0E0,6.5330486E0,0E0,0E0,0E0,3.9703774E0,1.5368309E0,6.21892E-1,0E0,0E0,3.15268E0,0E0,0E0,0E0,0E0,0E0,0E0,0E0,0E0,0E0,0E0,0E0,0E0,0E0,0E0,0E0,0E0,0E0,0E0,0E0,0E0,0E0,0E0,0E0,0E0,0E0,0E0,0E0,0E0,0E0,0E0,0E0,0E0,0E0,0E0,0E0,0E0,0E0,0E0,0E0],"parents":[2147483647,0,0,2,2,3,3,5,5,6,6,7,7,8,8,9,9,10,10,11,11,12,12,13,13,14,14,15,15,16,16,17,17,18,18,19,19,21,21,22,22,24,24,25,25,26,26,27,27,28,28,29,29,30,30,32,32,33,33,34,34,35,35,37,37,38,38,39,39,44,44,46,46,47,47,48,48,49,49,50,50,51,51,54,54,55,55,56,56,57,57,58,58,60,60,62,62,63,63,64,64,67,67,73,73,74,74,75,75,77,77,78,78,79,79,80,80,81,81,83,83,84,84,86,86,89,89,90,90,98,98,99,99,101,101,103,103,104,104,107,107,108,108,109,109,110,110,111,111,112,112,113,113,114,114,116,116,120,120,121,121,122,122,125,125],"right_children":[2,-1,4,6,-1,8,10,12,14,16,18,20,22,24,26,28,30,32,34,36,-1,38,40,-1,42,44,46,48,50,52,54,-1,56,58,60,62,-1,64,66,68,-1,-1,-1,-1,70,-1,72,74,76,78,80,82,-1,-1,84,86,88,90,92,-1,94,-1,96,98,100,-1,-1,102,-1,-1,-1,-1,-1,104,106,108,-1,110,112,114,116,118,-1,120,122,-1,124,-1,-1,126,128,-1,-1,-1,-1,-1,-1,-1,130,132,-1,134,-1,136,138,-1,-1,140,142,144,146,148,150,152,154,-1,156,-1,-1,-1,158,160,162,-1,-1,164,-1,-1,-1,-1,-1,-1,-1,-1,-1,-1,-1,-1,-1,-1,-1,-1,-1,-1,-1,-1,-1,-1,-1,-1,-1,-1,-1,-1,-1,-1,-1,-1,-1,-1,-1,-1,-1,-1,-1],"split_conditions":[-6.641825E-1,1.3884665E-1,2.8460154E-1,5E-1,-1.389014E-1,-5.519163E-2,1.0210785E-1,5E-1,-1.0057064E0,1.1646422E0,5E-1,-1.22073296E2,-8.987135E-2,-1.0640231E0,5E-1,5E-1,-4.9937186E-1,-1.1258951E0,-1.963806E-2,-1.2210934E2,-1.3771549E-1,2.9914064E0,1.0210785E-1,-6.317486E-2,-4.9985898E-1,2.8123755E0,3.4484756E-1,-1.22226944E2,-7.6270044E-1,5E-1,5E-1,2.5731018E-2,-1.1706954E2,4.4644016E-1,1.291385E0,-3.1789488E-1,7.7934116E-2,-7.473973E-1,3.7414112E1,1.8173878E0,-9.709432E-2,-2.2693908E-2,9.716994E-2,-1.3845958E-1,2.8955903E0,-1.16341054E-1,4.502255E-1,3.852712E1,-1.1631427E2,5E-1,9.3542404E-2,-9.6824586E-1,1.4276986E-1,-9.725046E-2,3.372634E-2,1.4257405E0,-1.1699365E2,5.118966E-1,3.5001507E1,-1.3158245E-1,-1.4084888E-1,-1.1679864E-1,3.820618E1,-8.995907E-1,5E-1,-6.675247E-2,8.79268E-2,-5.6652434E-2,-8.968743E-2,6.912612E-2,-1.0594121E-1,1.0609045E-1,-8.100707E-2,5E-1,5E-1,-4.1760385E-1,7.897911E-2,3.9365792E-1,-1.1335108E0,5E-1,-9.6552944E-1,1.9479369E0,9.5844895E-2,3.3663322E1,1.3342593E0,-1.4089781E-1,1.6215641E0,6.629082E-2,-8.998604E-2,1.2342728E0,-4.1760385E-1,1.1991892E-1,-9.345888E-2,-2.9855967E-2,7.245097E-2,-8.156829E-2,8.735801E-2,-1.2093802E-1,5E-1,2.834357E-1,-1.3492611E-1,5E-1,-8.345302E-2,2.1816114E-1,3.7912586E1,5.6400876E-2,-1.066962E-1,-1.1210947E0,-5.519163E-2,3.984527E1,-9.8984075E-1,-1.0714628E0,1.7956829E0,3.65074E1,3.4039497E1,-1.24007896E-1,5E-1,-6.4931445E-2,2.7709264E-2,1.3373521E-1,-1.75947E-1,1.5756633E0,1.8500249E0,4.0431533E-2,-7.254248E-2,-1.0577245E0,6.3231714E-2,-6.549474E-2,1.0247333E-1,-7.1711905E-2,6.764914E-2,5.2717824E-2,-2.5408996E-2,3.0376012E-2,1.21657334E-1,1.0924127E-1,-3.6498968E-2,6.349119E-2,-7.001766E-2,-1.13939205E-2,-1.4639516E-1,4.6864234E-2,-1.04006924E-1,1.053071E-1,-1.8146401E-3,8.964288E-2,-8.840406E-3,-6.6472925E-2,7.394214E-2,-1.0265396E-1,7.0850775E-2,-1.166293E-1,-2.2361096E-2,-5.6371253E-2,4.628799E-2,1.0639276E-1,2.6227018E-2,2.2675375E-2,-1.04607046E-1,1.341977E-1,-3.0956307E-2,-7.341849E-2,2.9596407E-2,3.5751462E-2,-1.3204323E-1],"split_indices":[14,0,14,52,0,4,1,36,9,0,16,3,9,9,32,36,9,13,12,3,0,10,1,0,0,12,15,3,12,57,42,0,3,7,15,15,0,12,2,0,0,0,0,0,12,0,15,2,3,35,15,15,0,0,9,0,3,0,2,0,0,0,2,9,42,0,0,10,0,0,0,0,0,38,57,4,0,15,13,16,7,0,0,2,9,0,0,0,0,10,4,0,0,0,0,0,0,0,53,0,0,28,0,0,2,0,0,13,4,2,9,9,15,2,2,0,28,0,0,0,15,4,0,0,0,9,0,0,0,0,0,0,0,0,0,0,0,0,0,0,0,0,0,0,0,0,0,0,0,0,0,0,0,0,0,0,0,0,0,0,0,0,0,0,0],"split_type":[0,0,0,0,0,0,0,0,0,0,0,0,0,0,0,0,0,0,0,0,0,0,0,0,0,0,0,0,0,0,0,0,0,0,0,0,0,0,0,0,0,0,0,0,0,0,0,0,0,0,0,0,0,0,0,0,0,0,0,0,0,0,0,0,0,0,0,0,0,0,0,0,0,0,0,0,0,0,0,0,0,0,0,0,0,0,0,0,0,0,0,0,0,0,0,0,0,0,0,0,0,0,0,0,0,0,0,0,0,0,0,0,0,0,0,0,0,0,0,0,0,0,0,0,0,0,0,0,0,0,0,0,0,0,0,0,0,0,0,0,0,0,0,0,0,0,0,0,0,0,0,0,0,0,0,0,0,0,0,0,0,0,0,0,0],"sum_hessian":[8.554853E2,2.2860335E2,6.2688196E2,4.5256247E2,1.7431946E2,1.3919978E2,3.133627E2,8.191861E1,5.7281178E1,2.729683E2,4.0394394E1,3.0187368E1,5.173124E1,2.1086998E0,5.5172478E1,2.2096962E2,5.199868E1,1.903705E1,2.1357344E1,7.071914E0,2.3115454E1,2.8970211E1,2.2761026E1,6.8362266E-1,1.4250771E0,4.8060818E1,7.1116614E0,2.6069752E1,1.9489987E2,2.5382278E1,2.6616404E1,2.1488178E-1,1.882217E1,1.3949778E1,7.407566E0,6.3365536E0,7.3536026E-1,2.6940386E1,2.029826E0,2.08096E1,1.9514267E0,1.9795322E-1,1.2271239E0,4.459614E1,3.4646766E0,4.711209E0,2.4004524E0,5.885231E0,2.018452E1,8.417121E1,1.1072865E2,2.4928741E0,2.2889404E1,1.4283314E0,2.5188072E1,1.6791626E1,2.0305443E0,8.379295E0,5.5704827E0,6.4452977E0,9.622685E-1,3.882619E0,2.4539347E0,8.472908E0,1.8467478E1,8.528161E-1,1.1770097E0,1.9455822E1,1.3537787E0,7.173761E-1,2.7473006E0,9.9651253E-1,1.4039397E0,3.7647443E0,2.1204865E0,1.9073107E1,1.1114142E0,7.091062E1,1.326059E1,6.111754E1,4.9611115E1,7.234452E-1,1.769429E0,1.0921644E1,1.4266428E1,1.5645922E1,1.1457038E0,4.9998406E-1,1.5305603E0,6.027704E0,2.351591E0,4.1796155E0,1.3908675E0,2.3257527E-1,7.2969323E-1,1.2752005E0,1.1787343E0,4.1668267E0,4.306082E0,4.4148338E-1,1.8025993E1,1.8342154E1,1.113668E0,2.3582318E0,1.4065126E0,4.8679084E-1,1.6336957E0,1.1589212E1,7.483894E0,5.303772E1,1.7872906E1,5.4904356E0,7.7701535E0,3.5648933E1,2.5468603E1,3.426598E0,4.6184517E1,4.9930146E-1,2.2414374E-1,2.666399E0,8.255245E0,1.3310453E1,9.559742E-1,2.4997102E-1,8.9573276E-1,5.3401866E0,6.875169E-1,6.9284725E-1,1.658744E0,1.0306382E0,3.2754436E0,2.2824292E-1,2.1324044E-1,1.0594029E1,7.748123E0,2.1102107E0,2.4802107E-1,6.880971E-1,7.184155E-1,4.819914E-1,1.1107222E1,3.256575E0,4.227319E0,5.0072414E1,2.9653046E0,9.867911E0,8.004994E0,1.418632E0,4.0718036E0,7.27204E0,4.9811348E-1,1.4851151E1,2.0797783E1,9.094043E0,1.6374561E1,1.4752256E1,3.143226E1,4.1530013E0,4.102244E0,1.3074214E1,2.3623933E-1,7.243283E-1,2.3164597E-1,9.537585E-1,4.3864284E0],"tree_param":{"num_deleted":"0","num_feature":"60","num_nodes":"165","size_leaf_vector":"0"}},{"base_weights":[-5.720833E-3,2.0122185E-1,-8.286633E-1,5.880764E-1,-8.67905E-2,1.9676153E-1,-9.2920685E-1,7.4044406E-1,-2.3225786E-1,-1.0424156E0,5.69098E-2,7.5871277E-1,-7.41472E-1,-7.468794E-1,-1.2883843E0,4.333601E-1,9.165483E-1,2.931715E-1,-9.8758894E-1,-1.2737503E0,-6.562792E-1,-9.647934E-2,6.0906744E-1,9.080155E-1,-5.847807E-1,2.2165874E-1,-9.794643E-1,-5.639013E-1,-1.2942175E0,6.8680996E-1,3.1392626E-2,9.6339536E-1,3.2524276E-1,7.4732304E-1,-2.5401497E-1,-1.1440535E0,2.4275358E-1,2.4965277E-2,-1.3028908E0,8.149742E-1,-7.8395677E-1,3.0232029E-2,-6.117983E-1,8.363983E-1,-6.5388006E-1,-3.2761848E-1,1.0562351E0,6.215274E-1,-4.0981293E-1,1.6048953E-1,-1.151131E0,-4.052852E-1,-1.2506404E0,-9.2388086E-2,-1.331247E0,7.300579E-1,-2.184165E-1,2.9147708E-1,-8.63534E-1,-7.5807565E-1,9.765744E-1,-7.5885636E-1,6.950531E-1,-6.286301E-1,9.314276E-1,3.4514806E-1,-5.822482E-1,-1.1926533E0,2.0505057E-1,8.068982E-1,-5.8503973E-1,4.671309E-1,-3.8765398E-1,-2.0583586E-1,-1.0140512E0,1.1344038E-1,-7.936916E-1,-2.9583934E-1,-9.6906096E-1,1.0633434E0,2.512319E-1,-9.8603636E-1,5.4939014E-1,-5.281716E-1,2.1682012E-1,1.1081692E0,-2.1066816E-1,3.674712E-1,-2.1410479E-1,-7.843817E-1,2.5547892E-2,-4.8349863E-1,3.7796336E-1,7.995919E-1,1.5113719E-1,-5.539247E-1,4.892915E-1,9.664508E-2,1.0096611E0,1.7821597E-1,-1.0853548E0,1.0259976E0,4.564957E-1,2.0935276E-1,-1.247844E0,9.8902965E-1,-3.31568E-1,-8.7393284E-1,3.0604157E-1,-1.9068003E-2,1.0614908E0,6.125029E-1,-6.1256415E-1,-1.0672965E0,-2.1754535E-1,-1.2226788E0,-2.5844556E-1,-2.0550981E-1,4.3018436E-1,-2.1919024E-1,1.0193043E0,6.9179577E-1,-1.1188294E0,3.957301E-1,-1.1225104E0,1.6619176E-1,-7.036905E-1,-1.2582678E0,-2.3477142E-1,-4.5754126E-1,5.627043E-1,-1.0283059E0,1.7480648E-1,1.1750942E0,2.4638277E-1,5.832617E-1,-4.5662522E-1,-1.2227839E0,6.659302E-2,-4.1781473E-1,8.5153013E-1,1.2050775E0,2.4562052E-1,7.2106665E-1,-8.3782095E-1,-7.236174E-1,2.483103E-1,8.576847E-1,1.6080284E-1,6.1928433E-1,-6.7984176E-1,-8.079975E-1,1.3347632E-1,4.3650538E-1,-4.8996478E-1,1.1147406E0,-2.9272458E-1,4.6319324E-1,-4.3152466E-1,-2.2313781E-2,-1.2174196E0,1.0439867E0,4.9409308E-2,8.256058E-1,-4.2912662E-1,6.082451E-1,-4.1127488E-1,1.1165237E0,-1.7662582E-1,-8.3105785E-1,5.7032555E-1,-5.7854545E-1,4.5066902E-1,1.1475143E0,-6.604216E-2,8.523177E-1,-1.9989818E-1,6.4711165E-1,-4.6616775E-1,-1.2551306E0,-2.7127597E-1,-4.825271E-1,2.4548732E-1,-4.877013E-1,1.0258294E0,6.616105E-1,-2.5807226E-1,-1.1985646E0,1.8599099E-1,2.3564473E-1,-3.548201E-1,-1.0727962E-1,-1.1740866E0,3.458172E-1,-1.0916449E0,-1.5302481E-1,-1.0048312E0,-5.2966076E-1,8.3377385E-1,-5.335626E-1,-1.2178998E0,5.446505E-1,-3.828141E-1,1.2051793E0,-4.4759318E-1,-1.0074872E0,7.8268284E-1,8.426997E-2,9.8237276E-1,-1.07685E0,5.0397956E-1,7.020527E-1,-6.237849E-1,-3.5869512E-1,5.7729316E-1,-8.979469E-1,6.3396525E-1,-1.3940242E-1,-1.0190043E0,9.7107846E-1,1.4681925E-2,1.0056862E0,5.794102E-1,-7.339271E-1,9.392741E-1,9.3285215E-1,-3.9718294E-1,-9.7378457E-1,3.6151385E-1,-2.3742172E-1,3.6151385E-1,6.921283E-1,-3.2330567E-1,-9.329533E-1,2.1829414E-1,-2.3742172E-1,6.697649E-1,-3.9520174E-1,3.7121627E-1,-1.9598086E-1,-1.2977836E0,-4.2270693E-1,1.0524893E0,8.078257E-1,-9.293719E-1,-5.679149E-1,1.0495075E0,-9.379246E-1,7.212728E-1,1.2103665E0,-3.1716105E-1,-4.3865377E-1,2.7249295E-1,-1.0600171E0,2.499668E-1,-2.0882252E-1,6.34216E-1,1.1888002E0,-2.0717333E-1,-4.4037637E-1,3.6825782E-1,9.852922E-1,-2.432668E-1,-5.406159E-1,3.9880213E-1,-8.6889136E-1,